-0.3445463563676162 -0.42526810738447607 -0.1314804071983 0.3379125545662993 0.48334503509268867 0.3115028612371352 0.19744945672883996 0.058405252138425956 0.3350372085752621 -0.336035771915981 0.3998071029402581 0.47337161766340885 0.43519928523591667 0.3548447688656371 0.4207163932239355 -0.19506225901666863 -0.0961228387194406 -0.4245129821889002 0.4704439068046282 0.1789874770993174 -0.3342157025695347 0.15518915832931734 0.15431229056572426 -0.14245030105843492 0.26542092806156603 0.31615018578195575 -0.0027753525661392553 0.4245538235354386 -0.45900318398887396 0.2712165109117757 -0.43641912080487677 -0.44135994128496114 -0.4772358765328889 -0.35288900059590456 -0.16126342709038421 -0.16669618824611332 0.3813566152232626 0.36074258581006075 -0.44211667478805655 -0.343726527052596 0.43171971627937533 0.35692798684139226 -0.021640415209318253 -0.4917274993081261 0.22466554033779007 0.2441222904718674 0.28784951084028887 -0.06857977381719582 -0.4984017763474179 0.20420060954544605 -0.03260045401189893 0.16176838784566916 -0.12074468924721815 0.3880553554868923 -0.39327909976442543 -0.20868247845887622 -0.3162596936477923 -0.48049461115611247 -0.11776460903705632 0.1893140115119729 -0.032751768187063046 -0.4305971647131094 0.16058033544541117 -0.2601287634424555 -0.4269979639172823 -0.010075470672605145 -0.23074537718053073 0.1749037507171838 0.0684767191782548 0.002578935419441505 0.22601040018782761 -0.3415033384048014 -0.2845790286961704 0.3313990994553803 -0.19964266193883118 0.47132089152527373 0.01812877132257416 -0.34530464375942105 0.4787291970096609 0.05673316825646313 0.013166039421013354 -0.028010490378378772 0.06563655507794686 -0.24220733066369726 -0.46289355960336476 -0.06212642325686579 0.3189101116253178 -0.2588866027083112 0.12005934480638913 0.20294745354321186 0.35580842951417 -0.05328870678440653 -0.06367639706345216 -0.22437446582264048 -0.00879987697503919 -0.1785200020344031 -0.378854317187204 -0.20228879115821874 -0.20673001168639488 -0.48938991353468 -0.7769834853761994 -0.26676997895913146 0.32532690928362334 0.40836307095251273 -0.1586978365300188 0.3226892418873804 -0.0734935660254844 0.2132097598342581 0.39393048418806753 -0.3484025297246852 -0.027118514924888815 -0.4727639846170705 0.45589130340552897 -0.4406359924844264 -0.19814565522183014 0.39890052103717555 -0.12386186363662957 0.4696458130932979 0.47240199524004767 0.37090638087355265 -0.18899791783789205 0.19139685578523116 -0.24658351497738026 -0.1038558946081693 -0.33662103137537985 -0.2070612412509369 -0.4911726792334966 0.2334373378591326 0.012092186353232734 -0.08879522295723481 -0.1820854384723852 -0.10593144180786762 0.3780296345116622 -0.3638404648186923 -0.34374803000820575 -0.4225409827983963 0.4589632155155845 0.39281402456836134 -0.3102825562116571 -0.44819962021581694 -0.2752474238034842 -0.39848222846696024 0.07526740580908409 0.07900640163094408 0.2556613385672345 0.11814738858155494 -0.0892221438628463 -0.14996668163994406 0.08313887031569815 -0.43437872518462817 0.3493127174943921 0.19639536567098467 0.1511403964918072 0.14191744780591098 0.2213785039555806 -0.7272238725721608 0.05769519529231285 -0.5188908418432338 0.25508779222846445 0.2364418356842192 0.009537077137658162 -0.5394302437370104 -0.45321846465164717 -0.2931618386670335 -0.2216348373194194 -0.37074503305950796 -0.3175409072368062 0.3369822192396542 -0.017231709194608813 -0.089811474523398 0.22613319837623624 0.4414510133549944 0.08095849181069277 -0.004740706226097408 0.5338533120632093 -0.09149692074525681 0.2005065254574554 -0.31651964520790976 -0.18083366314486599 0.12722099273838716 -0.1859845155262693 -0.06595694409990278 -0.5346703072407112 -0.0013808291307475678 -0.3045352707263934 0.130375340031845 0.1487969824962508 -0.36579461602133 0.08982303704610274 0.3319853407591664 -0.3723572106327601 -0.376882940276732 0.1863386348168116 0.038782087210654535 -0.02850519925926625 0.031044855843412544 0.17885036250255282 -0.4797240991480871 -0.3578152487293454 0.37719272098141143 0.2978718127205166 -0.1390244916133403 0.8023905306501069 0.7018515178424378 -0.25112980282620645 0.05254137692936257 -0.27678536205591847 -0.7877637871728727 -0.022642911384542164 0.2165262681844657 0.19997935562477567 0.010897008383500665 0.46792536546149477 0.1354796754355072 0.1963641063788464 -0.430225698238709 -0.6958172489920432 -0.01580738530583545 -0.1524324185337349 0.23696267489447614 -0.3673084526286888 -0.05810890829946994 -0.3225826863159415 -0.29852362627009876 0.2294745716203399 -0.39922483533823727 0.32537004154565685 -0.3658469851504636 0.4911201984323926 0.030736522336217965 -0.13531895318051934 0.43726699140698794 -0.3123171254348567 0.11720473496536667 0.058959853818677535 0.23972210982859504 -0.21208732339270933 0.5121859980310677 0.718291809126559 -0.28259113879142667 0.2169565738271886 0.5399829987385939 0.5230751918409139 -0.18391106549291308 -0.0893238561686926 -0.3473547224758498 -0.012761855244914569 0.053663760792367066 -0.5279597767441612 0.27081698819593847 0.2749993565577351 -0.1221282133411683 -0.2001482674146299 -0.26585582120248125 -0.20240543687871837 0.3661120395352988 0.24269754767062102 0.3797533975873554 -0.41488989765983025 0.21628198798205012 -0.2115428373641378 -0.4145071033443601 -0.5085012934530792 0.41238837353456015 -0.2245955088902818 0.42084484940427636 0.5684285911845169 0.5188600628492884 0.3096141987220171 -0.2924268321377712 -0.1426950546972946 -0.2061163192594562 -0.03904930609298408 0.11599698430271774 0.1934338042930842 -0.10763550333309649 0.32931986386404116 -0.34521380741343355 0.44874336414208094 0.0071661919285711155 0.2595989138357201 -0.249142079392259 -0.03404447254503811 -0.29861784122314866 0.03957817947464329 0.21288763216707807 -0.2218587184825748 -0.14450347970608643 0.08923560632139968 -0.5090530121988345 -0.0485245366478191 -0.3056627033994278 -0.21786069840095978 -0.3947857021742856 0.42627198222710827 0.5256306017380236 -0.14284005580068027 -0.24096622686899175 0.513513452029772 0.0912852867548504 -0.16400861769249644 -0.5554318594838139 0.00524826016297351 -0.48716623929204983 0.10542335931450084 -0.07696604082503355 -0.44379887520378414 0.04849865552404105 0.4696902997413991 0.2928949259150586 0.41867028288389624 0.09253323129852753 -0.06463570962411196 0.012709157801140536 -0.2758005793882276 -0.32520998973341153 -0.6530426586936052 0.11865763810103075 -0.13533844256269809 -0.26914700262970376 -0.27885434676134324 -0.23824767638442074 0.12023432076253177 -0.20598250330203052 0.3358994331021841 0.25819870619388985 0.08713472546440648 0.6297511717732883 -0.41486004540986676 0.32618711136794093 0.06693698696415733 0.18888722971961114 0.22319401145287618 -0.20997628404277216 0.12117586687152204 -0.4203308427618502 0.4691835786529973 -0.4837326480211658 -0.37993504361640906 -0.43944904247091127 -0.40910925510609597 -0.4440345906456695 -0.17247221220803094 -0.11942736363568786 0.15487210188444994 0.06616962737624049 -0.0715057910528328 0.18863305819919943 0.16246410578660564 0.21446596733838266 0.3851546508058084 0.4609410671871671 0.1260032336084188 -0.147425696619577 0.14914271782469385 0.051591706016455886 0.000759391707764272 -0.2012710139112342 -0.3271929843756864 -0.3668073009530109 0.03997088970487778 0.3487930776079653 -0.1690048286757555 -0.14669687368567152 -0.36656549367355085 0.05563361202823125 -0.30604443573742934 0.08053224111455058 0.18634492321597795 -0.30852205745550293 0.2815973522047181 0.009197726869339574 0.3107445822912849 -0.15457176535327 -0.4736987460040153 -0.4229281966071853 0.14658694090926552 0.4591277483097112 0.6343484087339388 0.26958082800945954 -0.2717071083799925 0.691785462105612 0.4322504511344752 0.21564213907615287 -0.08523325233962142 -0.22618378122052357 -0.49522013997431125 0.12808432200944458 -0.05345948550564223 0.27439089757938906 0.013068314360059162 0.017041073863795164 0.09508224941663457 -0.4063316601275433 0.2576949046538265 -0.35365133450053304 0.478937077566747 -0.21126744317448112 0.02313920322444352 0.18805073533059552 -0.4842510878190208 0.010969724674974004 0.052758548931936905 0.03174022974832363 -0.272627240783104 -0.093913869464024 -0.09560704822812477 0.4079343244387994 0.40449316838770283 -0.15443039738592684 0.00873360491249371 0.14079925051093156 -0.2624001733478198 -0.09911825920863634 -0.06959511907191626 -0.1844470707313384 0.4024904063592112 0.01518273236142548 0.09357953158456958 0.311003766329926 -0.03827932523150401 0.2286803127928958 0.30401071643179345 -0.4475386059376702 -0.1677058061607729 -0.2869495645576963 -0.15265485392567113 -0.59747509099063 -0.294751776581359 -0.2540176618804025 -0.27264343237635147 -0.43934541875744565 -0.13577515742112684 0.4788158541772031 0.23980220738876395 -0.23661142031189275 0.028537925342675838 0.48216788790956966 -0.10303066727727236 0.5751139811599428 0.43665090801779133 0.18007043612349197 -0.0542416799159388 -0.24611720172664658 -0.14431889835733264 -0.0796242448540801 -0.3281620472127216 0.27717191889580906 0.19140813815050528 -0.07685204305803262 0.2952334496649076 0.3130322763419302 0.47314365249304796 -0.3014217853413999 -0.3451962474082934 -0.17874196497879605 0.31233638194951685 -0.7216544412212212 -0.019791699965692588 -0.5147876081064353 0.30241243233067444 -0.38867091075826626 -0.16190006182793987 0.06025394939678384 0.34744708207013725 -0.2076659020808967 -0.18612764324479142 -0.6192791329917862 0.13038880434436445 0.024763758962259706 -0.3291090232393377 -0.3369973214766254 0.12707801300331098 0.46047799523894967 0.15142966791178183 -0.25453761093653393 0.010342269708266572 -0.3398899765822816 -0.0628538857355515 0.2714027995920323 0.28094309232207076 0.5260017331862213 -0.458490578661874 -0.3990844109692495 0.21699542906284877 0.12508809618883993 -0.7493540758991216 -0.08398724601983538 0.29096860380025324 0.5214622563473739 -0.17304113796736179 -0.28235972807175896 0.03606296608136248 0.14485340194207177 0.22243566127773715 -0.3290494964406401 -0.37291596150645395 0.2162224007403328 0.015762437051909935 -0.4026629215373998 -0.06458045768951177 -0.3871733288643322 -0.001104021987501147 -0.15225012815526617 -0.4689490793317842 -0.23870689620425567 0.3640492129057644 -0.2538636124572563 -0.22693353676317166 -0.3310661966400232 0.4218856127637592 0.00855955477218447 -0.33444510160767593 0.1297904848278721 -0.6443628963474577 -0.34080776594231466 -0.19900961486672095 -0.6247878199544931 -0.27842079808592163 -0.2630169205347736 0.2071012610396271 -0.15560762243456924 0.0946387580918738 -0.4275607191095904 0.3156713893407386 0.1572764202620002 -0.2533544788460744 0.1367782738758022 0.1459670306063702 -0.3824043213766606 0.21647711254192303 0.4600018573713177 0.3573447543101761 -0.46943406432720747 -0.2788856120273614 0.11308058847807101 -0.12027874258690988 0.2123614642482364 0.13960982179599635 -0.641543357346728 -0.3220899913859444 -0.132885464441688 -0.2851998280818117 -0.003252645465476128 -0.2724075249055127 -0.3288025808961257 0.08585490203395049 0.10136905016295189 0.374029997005688 -0.10279687607277792 -0.46035574992936945 0.562624651143055 0.326008382241622 -0.33885045709685435 0.3581444370103675 -0.0631028923328731 0.02851947944371706 0.22649523987118914 -0.02333806619806742 -0.024129776843418438 -0.04885168897501424 0.46238605002559807 -0.21063109310617645 -0.18712605586490427 -0.48043268151712176 -0.06922087069309159 -0.04813060666083212 0.11529061720595724 -0.05537740399535064 0.12858314082739725 -0.31178090814712683 -0.11887931232696075 -0.14285101046446586 -0.0644923025453279 0.39370438362900473 -0.09402156935886405 0.011626489443257924 -0.20518444014105364 -0.18954937488663515 0.3978494058173052 -0.2506377068303986 0.36742230460376474 -0.13182196089533765 0.24240485012101975 0.34244362483071117 -0.46576345818124026 0.45412068559583596 0.06568012135944412 0.037482156522119836 -0.45663319310364736 0.10806343097764959 0.4941828689881287 -0.4352783383040194 0.06089322402708391 0.3038710951290203 -0.10689986350490607 -0.15555516912094003 -0.5588283039335578 -0.2899582346281764 -0.5519589494712831 -0.3391346966353123 -0.31636016618050294 0.427802778740148 0.16842277580281775 0.3618449958172405 0.18215713641297532 0.2525827410780479 -0.47228822758003214 -0.3313772082373832 -0.16749486505911765 0.38045952742414185 0.26905681859407715 0.13676073114826415 0.3494364930180715 0.18223407832110977 0.12435983090684166 -0.04813540933629412 -0.2952205807873399 0.06183424850462427 0.3749182474318663 -0.059731826594687024 -0.20837793536272836 -0.11583462268681582 0.2511208227182651 0.582249920537339 0.2662980976358233 0.34052311926777934 -0.5363023962588692 -0.1126583277346422 -0.2276804049529872 0.24736981905327549 -0.07778997113178815 -0.34166798608923205 -0.08094182002949432 0.30292789085690086 0.17038379183558758 -0.4036273505806518 -0.34375130601654513 0.41290544284949093 0.28515230740428293 0.20791471167268596 0.28380252732841754 -0.05041587582905038 -0.053059049369997946 -0.35253297497128566 -0.4989288136885619 0.32291774714647425 0.25228661241295225 0.32225835181576823 -0.33544660566578743 0.31953661689708707 0.06671058516803349 0.16829255680578886 -0.1733845800355682 0.21540023731606173 -0.05124580139757639 0.3185725164262272 0.22955793534212007 0.2497365470528273 -0.30090397223421567 0.228552887028134 -0.5064635943739716 -0.28719898820477524 0.33667820379094177 -0.3616507263617593 -0.07222964444583614 -0.10765326413709925 0.27213909485702104 0.0348664742664918 0.2112331168183425 -0.11392329861231565 -0.013085322249391518 -0.24255634029809825 0.03647453198828199 -0.11826125326479786 -0.3521488948273248 0.1531387668794254 0.18391764476053707 0.1304904313146756 0.009881680752723866 -0.20936943420381954 0.41166150873418617 0.3298973093406467 -0.29380691712914375 -0.37766491996427176 0.08681873450398747 -0.472959651304844 -0.22353739932241762 -0.16572467592717913 -0.008798213269591428 -0.3020029547118857 0.43236446112133775 0.23951520189267064 0.1037907191735654 -0.04983436429083127 -0.2627729517470361 -0.10327230935245536 -0.2356517306622237 -0.24822659448709816 -0.39384407935346055 0.4381511443566318 -0.2549324211452606 0.3665105950898777 0.48222576606564493 -0.435544465180299 -0.1962159205968021 -0.035960128835805086 0.22655590509408502 0.15328919880710218 0.3208368312474701 0.139232708715432 0.09842063289540585 0.017182486654572598 0.3610897822456378 0.2096245299517019 -0.1411580893385501 0.36153710737674777 0.6013073026981075 0.12755638649088744 -0.2971391624001068 0.4260844613210922 0.2567915776068314 0.2508801069191989 -0.36643226125496753 0.08988684423995386 -0.3818038469026893 0.4828629961219625 -0.3598184778452963 0.3013228679282649 0.21119790206039735 0.2346407057554416 0.3011242298283435 -0.051497720839212335 0.35893463165669137 -0.34930420569218723 0.48797769507145133 -0.026766066071540542 0.3967291547077976 0.4933892614877045 -0.1160773428501811 -0.3056694978659643 -0.3757926294797436 0.39357852772846214 -0.11792165618905634 0.03637968851262369 0.15311604307922008 0.07280273039030527 0.3404587605576467 0.2665845999845218 0.004707417950824966 0.08811466837513116 -0.08308856553496091 0.20672750520890304 0.4567487425982534 -0.3352181242554976 -0.10289993058205138 -0.15579085720589103 -0.01929727875632581 -0.15862016868124362 -0.48935620684564063 -0.26762310078995244 0.20730688283569554 -0.30306849732082997 -0.4662161864271974 -0.03316787714169056 0.154999847030461 -0.13635012111290068 -0.4387083049618711 -0.3994621948861171 0.2151529855087948 -0.0992880865827175 -0.3864672757389884 -0.2458935125411883 -0.4147920942913881 -0.09899087078883753 -0.2897289040151489 -0.2163246177382101 0.09105964951371737 -0.4378974148426492 0.004267772692242988 -0.2984653945855378 0.030620339199440183 0.23470941317515104 0.022984756276560048 
0.46266202654750366 -0.08243608552284465 -0.04509085230588039 0.4293798756314824 0.43899617181933437 0.06481068408792823 -0.22957536134680456 -0.06446835345843449 -0.07370947310361342 0.4964976891377819 0.16281866677606205 0.057007875962503785 -0.3350072746555778 0.1390015288275973 -0.2707845666712476 -0.12929006103124063 0.449906120762936 0.36867094750644236 -0.4567669418396555 0.24608779672021563 -0.4342823787332385 0.07215303057366507 0.2879639987761924 -0.06455900876420251 -0.17053576606201482 -0.1181854215097492 -0.3358829574723089 0.3481707414854792 0.44993762144181093 -0.3929735854398435 -0.04343868808558815 -0.3712366118372149 -0.22442441243639577 0.34345643015906124 0.08735866044996066 -0.3928276864202598 -0.23325322808106164 -0.09897883467401306 -0.3019340252042117 0.28097663286514557 0.13354641819731605 0.27517538233866323 0.465871423553223 -0.3226764208166314 -0.35833010185026914 -0.48580871437357065 -0.44738165930979845 -0.39612279240074766 -0.08007059387083271 0.3592954853541567 -0.4422891452430143 -0.3558369429959368 -0.16751537270220995 -0.13706474247766098 -0.26224717579842605 0.06842444542250314 0.31623701876489485 0.2617126845254003 -0.10435697889896778 0.44468677074111196 -0.4442739413972161 -0.2678551304682212 0.44464165220840834 -0.08739784625982272 -0.4917184085643431 -0.4152921231858809 0.04492744294527974 0.12221838346211492 0.2617494335670623 0.4141898959747893 -0.43236211099139005 -0.13078011321498148 -0.0639117620367269 0.3702796787164508 -0.08538074845804021 -0.14506156717493052 0.3827508469773484 -0.2955211299525265 -0.360776058355988 -0.1655437107041745 0.06395139676897554 -0.4953294064315118 -0.48140615767041406 -0.101122006727698 0.2566204285631427 0.028009236446098984 -0.03436601648324089 0.015242183036845658 -0.4438511106360895 0.4517037040487559 -0.2623346248780005 0.0665083028349763 -0.15395320690126638 0.40481090655900875 -0.38649623165515556 -0.06782519302100375 0.2681041183531289 -0.2665036467441479 -0.5729520022805838 -0.2163275931998837 0.3440750176741814 0.051864430222056536 -0.35754290151852103 0.004913413834250862 -0.09586947174812228 -0.16237689096138147 0.19946725516312472 0.09692297748307976 0.4130064458482886 0.4250520288662668 0.14888802871011486 0.04287949753145048 0.12592045788285589 0.2666444600567812 -0.33981607161129 -0.27196191928020763 -0.2485512132110879 0.027636549275104894 0.17487088815279656 0.2588304503483624 -0.05949738896336021 0.39219745337291384 -0.20629722070038 -0.162536794052565 0.12334964802374429 0.14938112398441916 -0.2518271671849474 0.1386921793888055 -0.29984237440872025 0.19409585008339306 0.4036392325849938 -0.2026256679474141 -0.031059734857251137 0.09461536272037209 0.26233032155440456 0.40531471637210204 0.06659617464752263 -0.312559521408112 -0.4899645225728575 -0.010206793185579155 -0.197721581755941 0.18766280409596725 0.1853751429383913 0.33537145294359383 -0.33495503346800154 -0.149871021171535 0.031249601810904207 -0.14246978561389034 -0.05629195210766611 0.1427429729598796 0.034913663899591094 -0.11603639736006768 -0.36051123337658364 -0.047737963103986765 0.11291399716173488 -0.6318866484149762 -0.13154523072203203 0.014491202359533668 -0.3429623869799235 0.22860339395374446 0.4077063812087004 0.26349958198636075 -0.00487640326691345 0.42331751857389543 -0.25756003914084596 -0.1724695592127491 -0.1933403165129619 0.20770909127446857 -0.2353491586254911 0.3876584185672667 0.16095853665913462 0.06495402017044566 -0.37006808077833386 0.3384397867380709 -0.08007670956092329 -0.5217953366436875 -0.16947857520016574 -0.54363366889816 0.038427760295402014 -0.5179733479375713 -0.2809790176754749 0.02905140183627302 -0.5156340010120753 0.31656562155878665 -0.02882818008763322 -0.01139769933976676 0.09138743669706535 0.27867088893635994 -0.369474199052552 0.18730135843356865 -0.2759702252917611 -0.2652693289439145 -0.05108325453669031 -0.04614710765073913 -0.30152848224347517 -0.2865383043128309 -0.2957270217919783 -0.21309909286137663 -0.03788182818416207 0.4552402095704075 0.35536311895050293 0.13261499699427406 -0.10117804526547376 -0.015266729089256772 -0.20550426799777163 0.1284208421310528 -0.5566829683953477 -0.21983890035993153 0.16114382503153804 0.16707219961692868 0.26237386011106945 0.2774887815625312 0.2141405320504844 0.18379582817333764 -0.19181168140081153 -0.4704798455572603 -0.08640615911766734 0.41450099740925883 0.24097801431959823 0.4510192583507492 -0.09143836977088998 0.17901591776199316 -0.39214796168338545 -0.01586216395468265 -0.44822579252061867 0.2470937973805426 -0.32569969776252194 0.31797526581005775 -0.3638145954084329 0.11601012656677344 -0.2159668641872668 0.15971160847218713 0.1313921597273903 -0.2278817273466265 -0.38190454478108066 -0.03987483121765064 0.24581527870478553 0.4399809020844628 0.13279553548552103 0.0007306197200977737 -0.0391692561025847 -0.16070508715732076 -0.017324595118311508 0.13678796669591067 0.05138378464579131 0.3297054487348293 0.4088943971509065 -0.16603989593617455 0.019593520878865338 -0.4510269233425203 -0.34705465388260004 0.09977311500562869 -0.05992724916544367 -0.14235053536438544 -0.30467119046451574 -0.18346006323200756 0.3689305235961973 -0.24493109017598003 -0.14008029338194553 -0.21612603453037055 0.14945785485359764 0.13722003145749956 0.19666605999414707 -0.04240710976987654 0.6392242448211943 0.469233510262803 -0.11667738485236624 0.1424887038892518 0.12242151963623116 -0.19271539809608115 0.4366085857476438 -0.25561506862576133 -0.014966226814402215 0.10365810837796348 0.06094098395967814 0.6102475332646669 -0.45388631084327546 0.18248723639755013 0.0005917474841810902 0.4352191634261526 0.2902990172453384 0.1985778255530733 -0.3515485862963506 0.2466801007629639 -0.017675394467776155 -0.39422744521704184 0.28846864926578236 0.2953317901348164 0.7317234861657163 0.13601792470322016 0.13485084058202698 0.2459677947129836 0.5590961959648649 -0.5150352023166542 -0.22170032560748199 -0.19624370554181716 -0.2773916010114805 0.22960952941769497 -0.15541705970921188 0.3575363833093591 0.20311273959074883 -0.20509152922377452 0.21333375995317677 0.4294142818442763 -0.05561065121619551 -0.1111949192408519 -0.4704850439937787 -0.4631948761884815 0.19493565822762582 -0.49602299515098414 -0.4982505934260022 0.3498175631413068 -0.05788769091531037 -0.2014807617504588 0.0008854915104709791 -0.06968291037460407 0.5396638492989767 0.010201072580135721 0.1391684719681288 0.30951108745757994 -0.26457142691865815 -0.46044024142321033 0.0465775475971082 0.3461350826763601 -0.10418108850636729 -0.0725768496479838 0.042542537264214995 0.32406165579669893 -0.32569921749422726 0.07091967705657598 -0.24740458091671313 -0.18188659065205862 0.10549359911723744 0.4566928108597063 -0.2209633167733689 -0.40203900827491745 0.13499540791045528 -0.40155360594322353 -0.41792593577191417 -0.4026178629389993 0.24113820842871464 -0.23093722539084544 0.15151130830470266 0.2852028231153651 0.35079119343377146 0.5184253876847961 -0.12276071174233155 0.24544439049536088 0.14311798241597035 0.17233773813915088 -0.03831901806582802 0.1858043699256937 -0.07810084786568809 0.3736879703966272 0.6632253223378245 0.04919313817332097 -0.45817980946920706 0.5661910631500303 -0.23265464413405332 0.0793464878002887 0.015578851721864594 0.42113331954121985 0.05219583818204521 0.28096082312758486 -0.4117157873199614 -0.466863196198268 0.1510627643507717 0.2337738840260899 -0.450791099116187 0.3898628767952647 0.22158330807665708 0.2555927719137596 -0.06821090466105498 0.47724932239925894 -0.33490512129090083 -0.4106280736792392 0.07642598475033431 0.26759433225615803 0.04316480390665572 0.2977820162230239 -0.12554665341238336 0.11020767628097301 0.7492870796873076 0.30451972788170123 0.18490207088564992 0.1226985401736365 -0.16884127774971464 -0.11974169822643158 0.3912375804097918 0.36647128912103405 -0.36028885548764245 0.34855016040974884 0.14107868681690405 -0.22964507982463345 0.17629082743994173 0.35420684064834707 -0.023125925770246795 0.36201897603935906 0.3015907863294772 0.2446815634587876 0.5147020535804492 -0.24304723432123532 -0.10464331275323216 -0.2059542327692622 -0.43308189039043815 0.24361943089211274 -0.5910459212422421 0.3311225949595903 0.22905927614687793 -0.30673876661143973 -0.2610646416011208 0.28376107722862837 -0.05875809207339721 -0.2452508131169714 0.2054830631997395 -0.2094684196831345 0.17635951921228868 0.11161954263586367 -0.44235483733964404 0.04176470207546046 -0.1498511082186924 -0.4703738146100982 -0.33507070375590176 -0.1017139035718381 -0.18670267357744302 -0.30815111631183995 -0.3670659738802053 -0.20727749189294076 0.15850320051229128 -0.02887759475708134 0.16467368812552757 -0.30530751470993645 0.2993578621965487 -0.515348068990797 -0.45346364570633485 -0.286678750755586 0.2767190659185491 0.18363398291280514 -0.09280875954739365 0.44927096080979567 -0.3162355318105067 -0.10978661287730708 -0.11346644602467539 0.4067196173655564 -0.16454899403752304 0.2377211331000476 0.48127030067706866 -0.16720950255424075 0.26272234066178046 -0.29409349283177366 0.10223186140683427 0.1937434116546053 -0.46202256672865233 0.42963508703574044 -0.1255140179567 -0.07000455231531656 0.2559742921322838 -0.2141701804445919 -0.38278369951043345 -0.06328079380087917 -0.07507868280863936 -0.3993879097358171 -0.011230976667594627 0.1842270258886934 0.31586224375636357 -0.09545847206977982 -0.0850041203293395 -0.45331524449742266 0.38467053948870544 -0.07476756169823151 0.1351281360113992 -0.038415335645074045 -0.17606744637029315 -0.06443033262748646 -0.4699813509004806 -0.47676733418275574 -0.1974859451124873 -0.2984004614656691 -0.20006240055297586 -0.17103336119148485 -0.39736303054923117 -0.3705233437213276 -0.0003025901358590037 -0.3117535733299654 -0.39372035060160543 -0.33666998390700237 -0.07073716885487501 0.4274465757597137 -0.520581275894931 -0.3981198595520994 0.25719136981459134 -0.2347857132869494 0.29351925790087346 0.1121580472703328 0.5231652371869513 -0.2318874582988391 -0.05850026537828327 0.3565318562817118 0.1139825672185759 -0.10109087478019475 0.3224198147723877 -0.1755443689187944 0.4068535527702447 -0.03350837072119783 0.1400174306950288 0.22174488571286288 -0.1764469141202205 0.036818873529937735 0.25650151668185406 0.5806029213912435 0.31319173312289855 0.23801509296917195 0.2014980228342506 -0.11260549899745118 0.15821838304602545 0.21238670930354014 0.119581595166941 -0.10791424118348003 -0.4567148137995597 -0.3901524147905348 0.2317374395081404 -0.22100972171962152 -0.2524689309395605 -0.38907158285762317 -0.09821882416006077 0.4539813479550256 -0.13597974321074616 0.09810250523892523 -0.5355771886789241 -0.022950810712214758 -0.12667698144578632 0.44446686571150495 0.3647194741009838 -0.14178722360409413 -0.08746029208635608 -0.23934799219402947 0.42684983779483054 0.4706928257238273 -0.011983719672450098 0.4137789008582743 0.5011340277305378 -0.1863202888932163 -0.01962810204833424 -0.5951885864457893 -0.08637081373037651 -0.3287546937622194 0.03236369812582789 -0.2405079190722318 -0.10981904116595291 0.32437161878282467 -0.04088789765125956 -0.4463549109819844 0.5092872081289603 -0.1288588884501284 0.09767614343647597 0.253438876798655 -0.563564050397549 0.3563434023321158 0.40498717143820384 -0.05741038337996607 -0.461899942267886 -0.12828766389401058 -0.1150606634019421 0.24642884315578772 0.06832467381426828 -0.11039069349332155 -0.1233166343864501 -1.6350406247206554e-05 -0.16370149777665535 0.2746478309296896 -0.029777351525629957 -0.6483778080588071 -0.6587388795153999 -0.43530840634018847 -0.28605094332216063 -0.06397597926570037 -0.567700353819028 -0.5372880569262508 -0.005274146003533638 0.19933975050452157 0.23209530376387172 -0.46612820450096076 -0.04742164511737851 0.08986644003639674 0.2905906053570622 -0.2864434185790805 -0.4649843979945716 0.3790866338368628 -0.34305421834366145 -0.275392414267734 0.010035283161171304 0.3002762193224412 -0.42726944258088173 -0.04309070345273786 -0.46152215230865096 -0.07148968307195423 0.034341482632417125 -0.019208627015872067 -0.02631913434670464 -0.36289235689811294 -0.3712423253900866 -0.4405770947490948 -0.3504453221523283 -0.38616205946692683 -0.5984873479064262 -0.01774394905181205 0.44863003333742196 -0.2738608205182663 -0.1534524078803523 -0.08402915558264668 -0.11327192518296257 0.25242851421035045 -0.06235629390124217 0.15473364294885444 0.27073348092691496 0.2452374243831147 0.42955583377288453 0.16884032060963994 -0.01616278367603463 -0.2535978555816263 -0.2211474944123372 -0.13903960673536953 -0.31074394696020485 0.04486433640011555 -0.1395474994950538 0.4002576162946456 -0.2828184017268798 0.5528953661575082 -0.031191357386826466 -0.15500124177582278 -0.30297867879433843 -0.0597973197633698 -0.5422142143386284 0.39548070320112955 -0.24022916443886047 -0.4035118060975686 -0.3369496972026308 0.12807308869945058 -0.3706378469893162 0.08975961626659713 -0.3367434611905302 0.28433842316472935 -0.08753436309099294 0.2195260347467083 0.025743965425239934 0.20217756633807626 -0.1274223948858143 0.20651395225833236 -0.5016408097377592 -0.2411000312439243 -0.5768271195282959 0.07171550625119606 -0.5870083558122254 -0.4385596812631329 0.10875696843075647 -0.2462502292366738 0.14874117695704148 0.23629089804287684 0.5864494069395221 -0.14659606983777407 0.6039444723211049 -0.10689783197319726 0.14402134365709904 -0.4453640514713002 -0.3560556534129818 0.2632179092419347 -0.21523434062620603 -0.22919009280250438 0.2311808427632304 -0.10493171432495113 -0.4355160029401073 0.035363368824706365 0.4170757660556187 0.3069153253585363 -0.34044008756614663 -0.31751475760250414 -0.40592477926239484 0.3671869481245302 0.3356184156096669 0.3176727616913429 -0.40415336429323084 -0.33024881154021596 -0.3869307644698207 0.193530123195643 -0.5248864322277748 -0.071871348388764 0.4485411949443208 0.005023095057250613 0.4797029505305407 0.38809811146629514 0.10228154756076122 0.3763612303041684 0.27011818041550245 -0.28573995474321234 0.261991209459308 -0.3715823838796782 0.20927326922504666 0.4924885964799452 -0.4258044813133416 0.024526376735031552 0.19046189503072153 -0.18090162673200094 0.21661191058363738 -0.26084037508227675 -0.05313215031468527 0.2320095556774413 0.11169831235072444 0.18809860376722343 -0.20176604070871842 -0.018139003802371774 0.09830613264290694 0.2752834765463807 0.4209802195611196 0.33505602803460494 0.11011174553434994 -0.18875125970949552 0.38970918677754085 -0.28110679765256735 0.011819645452431143 -0.5328051535081845 0.0663355033504733 -0.21024658793289966 0.25257962855054494 -0.06979817098316733 -0.32099359713499365 -0.01571595146377569 -0.3130247470050369 0.3433230378730038 -0.412474734653274 -0.32037914873374396 0.449457713382456 0.25060445428006306 -0.16828541385772322 -0.4744371338296902 -0.16507413654950195 0.13769350837515307 0.365871057690065 -0.027306895273482287 0.4343325382676423 0.27252065769617284 -0.15816283904134165 -0.2894132209145366 0.3854746277862262 0.42454925331811577 0.39416286994765376 -0.13662112515763586 -0.1303734597656507 0.44503453653222735 -0.370738272784195 -0.31636233763641053 0.35909351460496153 -0.4090084963201972 0.19204637829187354 -0.2753641252793274 0.21452607697835846 0.07696013424480663 -0.20549482520310003 -0.3073628542835122 -0.38194081478667186 0.11503891660751664 -0.03567745060750205 0.07087926753842733 0.39163817143003066 0.499970806548484 0.24624428608629378 0.23056774507986455 0.30417169962159474 -0.3534160550241945 -0.17636034204925233 -0.2911003990810037 -0.3349978112104753 -0.17243633934286745 -0.42790293381409683 0.43316693410474344 0.06497115917693255 -0.03967199881397556 -0.4106271169674822 -0.02676229525247953 -0.20834420060177938 0.42788146340220146 0.1297676716700077 0.28867274853156366 -0.4905145911124206 0.2881730033338319 
0.3929157966374357 -0.2335568302045148 0.11903005286029167 -0.3124575839059406 0.44026708644403034 0.1539008429273766 -0.3613776725106651 -0.33272045328873945 -0.4949707838746553 -0.13005691194429525 -0.08449106441180865 -0.48431269210147054 -0.4000766766082583 -0.3568110142767107 -0.09535107325017611 0.015489755735067057 0.0202036013095781 -0.10118871816707431 0.40901835947321485 -0.18255940227680356 -0.25226022551143135 0.4445297542162473 -0.34370356595824947 0.48195363770180033 -0.023726046182723337 0.13568120052795563 -0.23138524069933442 0.03293941653759791 0.265706663645644 0.2710575689523318 -0.05301856644939307 0.490338794975292 0.006298267563471294 -0.47557628361427984 -0.01750374431579249 0.2065670901399208 -0.049984613981675086 -0.3930389999538427 -0.3063653323821262 0.13866514286385953 0.002334261078960842 0.4246483274942071 -0.012664884406680899 0.13797584259307027 0.3317843308351911 -0.2571523086567372 -0.38019859555801827 0.34443285962434655 0.06364983591585993 0.4989257386972208 0.26753011338903765 -0.06099722871375701 0.34741136819020624 -0.2812432485839139 0.2537902651555157 0.3252723450367704 -0.12579309939906547 0.45691521194358864 0.32909243059406945 -0.28063500923890994 -0.37455689888439814 0.4936453077776327 0.22093728503954557 0.09788415194266731 -0.4781701416758499 -0.41544555464929545 -0.0520660851118407 0.350505849894477 -0.1778454109088393 -0.1919122046323839 -0.4335564575767989 0.0054740576090339214 0.17483189524122575 -0.3707146660771476 -0.223209687557414 -0.3789548243171883 0.016010069247644018 -0.35417945190401995 0.4663173145374736 0.05875027359953178 0.39710796872238074 -0.03218476747623589 -0.07262782242081411 0.46662771902662736 -0.2794916882646563 0.20592519506556106 -0.009565171861484978 -0.2914811970538699 -0.3761286551749905 0.3985382819652854 0.15415766573393053 -0.18801795930076706 -0.16219916447256516 0.18383429331691986 -0.13633694370958557 0.20558178599429983 -0.19647159446455123 0.16994823642369888 -0.2730261399602983 0.14639733382766165 -0.2698804565249655 0.005361133509445539 -0.19950343158738584 0.1639599736016343 0.30048586005682554 -0.506607400288344 -0.1147971325720058 0.20071640105272445 0.19814381325107622 -0.2192225349603235 0.18064493102485268 -0.14980008865710648 -0.3881491303167057 -0.15998910677649436 -0.07680793238698491 0.4687114704363854 0.2782500805419206 0.08189223102950309 0.4975230185828169 0.42963881435859685 0.3243973941275603 -0.3959614349101151 -0.08949513009876507 -0.2821946453443104 -0.17970716687130994 -0.12594339328357188 0.073210839276307 -0.26155537732396683 -0.5480914155283194 -0.3040431949945363 -0.5713023970747865 -0.3032873503145942 0.2841757231516659 -0.17977089568694563 0.3617535804397663 -0.41878380601735454 -0.049565754797339066 0.46724553199887203 -0.312973329680582 0.31580444071349556 0.24149471982005044 0.4323795600466356 0.28214109723442393 0.020942662088582087 -0.2935422998017098 0.2794557178540763 -0.3448175250439353 0.5191963023490174 -0.5579403568054782 0.15101912785563149 -0.20290971793637377 -0.21598446776781557 -0.22177103483036048 -0.32967615893002783 -0.3586253533206134 -0.11559754056123296 -0.15868630643395903 -0.560320650451765 -0.2515984553991828 -0.4394460402311859 0.23828761594354467 -0.11450642047651502 0.3726847001744387 -0.1943268949126855 -0.06291654254477386 -0.32604760622181334 0.10974024124202324 -0.44581173360123905 0.2611130580214547 -0.2238350944794466 0.4664829950770232 0.1102992761048498 0.29593269562647584 0.5326424623225202 0.31449046830088484 0.35568057552283394 0.07676770701606393 -0.27739113422832856 0.22725070544222023 0.1037196128493595 -0.03998178207516054 0.04327169851984227 0.4695606672755196 0.08177005335667165 0.3971807482041784 0.0033276098158430685 0.18031443640135716 0.043578260010017876 -0.21773727366632292 -0.10783697848045537 -0.43517737384871996 0.4761742299788812 -0.420983215407454 -0.36600850552948255 0.37214985476335016 -0.47889267524999635 0.18692147917030844 0.35989593868926006 0.222087257151663 0.44653061272597544 -0.2609727204608631 0.06614715982653678 -0.23248604017604024 0.49744888454388914 0.45279210263868236 0.5124849909823534 0.31673815414255935 0.4114138909205571 0.14728569573258157 0.03643057081290622 -0.29133417366276404 0.5769247502659766 0.497328368231416 0.16702673686904948 0.19415160524786484 0.49498571574935146 -0.12490692524121774 0.08256043818424726 0.020035895656141986 0.1304177901865601 0.17671104847769029 -0.03804707565866216 -0.2921543392991632 0.1135687006102496 -0.371525630160102 -0.34021835694364144 -0.15411930843555677 0.102821768914049 -0.21374111245837146 0.4884429742280929 0.45456436693741187 -0.07820233551743605 -0.12923472987660878 -0.12848677828021585 0.24894168793990296 0.5471781620634609 0.4144708664078999 -0.009129073142234163 0.45591330033279526 0.5038404037638271 0.11953758734879136 0.432061391252189 0.3438956037705303 0.5355580658514729 0.3997273780009175 0.6083790888271863 -0.17176743567049318 0.3050212597898046 -0.3166536657692729 -0.014252751397654032 -0.35741346072999297 0.32479934793203613 0.21352807519227424 0.22062514106250855 0.3384047499505661 -0.18365951779310705 -0.2844974062128954 -0.3954515010210979 -0.2339578235518549 -0.04921181971408796 -0.3227894095249155 0.3360073932354115 -0.028744677127403688 0.5276115246898881 -0.15200645384789319 0.1619617035794056 0.2892032976748934 0.15259642857133202 -0.3299602008708167 -0.4610027542798045 0.6375718221920017 0.00611457874036155 0.44646993839826016 -0.09775825093094163 0.05216672180633257 0.7081085998314818 -0.2741058114489851 0.40268951948645637 -0.27455454515206024 -0.12510621094305546 0.2624360718123861 0.2099813770730637 0.3047161918284395 -0.0044011979224591454 0.2600592354703737 -0.015451611684130628 0.2643737402619515 0.47892870949521765 0.4654458975410435 -0.3867519125215339 0.6533353474608936 0.6171428841720105 -0.049627832328784705 0.2582159725079866 0.047388013906715 -0.13249221255626556 0.2738681672749085 -0.08918735438670417 0.12093284725670005 0.6982688373420397 -0.14994781569553983 0.1620294175086666 0.2200408019328892 -0.11072529304796408 -0.4254635501056639 0.4146320112564854 -0.1022689953038802 0.2944907278225142 -0.32764087217660565 -0.07832930224342616 -0.08576242829128122 -0.2802110522395871 0.03489803808554247 0.19702088031617454 0.43506259206832654 0.3311683677613367 -0.10491381804923834 0.2987873545867503 0.3380192080123306 0.11411253211769995 0.525214002923801 -0.04093932446850846 -0.5670823725425287 0.14248643320574594 0.3128635094645702 0.1473293673786679 0.5533229356590456 -0.06552293595850381 0.38287757146466134 0.19739147511088845 0.4804461543549319 0.3944674915186111 -0.38278260545350395 -0.20533055340751516 -0.23607048701831435 0.3352359220285832 -0.06749671735894047 -0.4482351118395498 -0.2523839142952632 0.4750747955854566 0.21293393182849568 -0.2124404243517184 -0.2882675348919991 -0.28193942526098414 0.27352216589132194 0.018784496594070776 -0.445578614961858 -0.4414744595888097 0.37183053143595585 -0.09238377707264506 -0.5278053785394163 -0.37084860145425347 -0.022797817531621217 0.017748480009423834 0.6817142153083667 0.09778758247587815 0.2408413814150381 -0.49014533963285545 -0.13237463385847517 0.21478284344611331 -0.22678089788266093 -0.11096062440781841 -0.032491136007884 0.12555650228222737 0.2728589456800946 -0.46200062022111454 -0.0945019209293041 -0.06084022882324042 -0.43040982452290305 -0.41373702909058946 0.39290990738902054 0.08258223322298881 -0.048188785420573164 -0.3567313687049037 0.4824992862931031 -0.20981050061073214 0.12472115420590554 -0.06322337347925658 0.33840952707226096 -0.4230565905833679 -0.10774698839071548 -0.06420575959784097 -0.05593716459414195 -0.41409806297201845 0.09032321296812694 -0.2615300832745313 -0.07241427858829153 0.2930808238688463 -0.11811158055946168 -0.49192649601860605 -0.38276509627094213 -0.04821433349615045 -0.3989187881795654 -0.10040060025261188 0.02140120746182672 0.10575216133134487 -0.1379264635730211 -0.34828223693391785 0.15181508196999563 -0.2296385367907807 -0.18224698187311567 0.11572480902342293 -0.16675626733136525 0.41732150043924315 0.13891547012822683 0.11578873936099099 0.1502808672719177 -0.4814771710601741 -0.11217007128375474 -0.027030017639454212 0.12326333640739297 -0.5667965503621858 -0.47390400423864076 0.40959526947921504 0.13291734835965008 0.12828733105097995 0.012873902452624566 -0.20815741553645184 0.08094497282827705 -0.2690297230060693 -0.33285964069945384 0.00032455417530929953 -0.4542197197186504 -0.4270592776663347 -0.4647040115362981 -0.20497633623737135 0.42401580826706026 -0.29153858272717814 -0.34513735597901696 0.11246416827970603 0.2311360518671521 0.005049498433463443 0.3862027069492666 0.17165227710347347 -0.347303850357796 0.06028451697985619 0.1317551137723049 0.34246357796141264 0.31249490784623923 0.004333553172991832 -0.29940046774109724 0.4295052982102361 0.19341535358495265 -0.2267746702638011 0.17834393176038066 -0.22644764403186876 -0.04809297049218713 -0.20700769717129308 0.4391522939388216 0.13141637904945103 -0.359416772871737 0.21376779289068673 -0.4752895850233998 -0.15634631513734973 -0.058873165302270686 -0.16134985826668882 -0.21727489377612902 -0.20250251033729694 0.170674923026389 -0.20983455488869768 0.08376973939792365 -0.25595825237645137 -0.976217695643034 0.030816574926595137 0.1255698111062365 0.08805092420517921 -0.07218791360088025 -0.0976939530612678 0.2757101029761827 -0.06823281593785865 0.22615342999669133 -0.02487257606563943 0.44089737426985826 -0.042131950996470255 0.35509513485242744 -0.09669722287918685 -0.3359858502598949 -0.21961573664718592 -0.050361394205051035 -0.1951965156335545 0.180455187693571 -0.1872371143190507 -0.17966802298352583 0.18063519060010685 0.05384703084453794 0.011247235252088901 -0.16454538478825045 -0.46376897599094663 -0.6382414938290568 -0.30663566592993186 -0.6436630968963909 -0.15120889093540282 0.1664815191525042 0.3091318239988155 0.3862067209442403 0.13403071648481754 0.1566622090355154 -0.3406351145554437 0.18131468520238056 -0.19568784839515754 0.0896871881082029 0.1393581093056266 -0.2241518544294474 0.2982799345564042 0.010372581598785402 -0.19180619956670664 -0.026665432112072507 -0.08235767822108797 0.22761679587916042 -0.2746166148511211 0.11116927315012472 -0.005910018473425282 -0.07145261431097692 0.049349561942960474 -0.4884740778754199 0.12405576057257887 0.21686380966584806 0.12140644528866598 -0.6140323435326374 -0.12753688599046947 0.27011323648381086 0.27847012859909137 -0.35714468722582526 0.1645951714054482 -0.34947848124728154 0.19785688840583573 -0.08436693501896532 0.18084572480736175 -0.2615939060054408 -0.24639070343140287 -0.4659141358060299 0.013762336681337528 0.3457384522256228 0.4942109509406649 -0.22058515572193793 0.2078030628301003 -0.13109514196262814 0.3084860391397881 0.47554644629355247 -0.0012378471177484055 0.17114446779255205 -0.3386500643773335 -0.3906264073296536 -0.583521849982517 -0.5014564937429319 -0.5913279829680776 -0.43847223312201783 -0.3693415053714264 -0.2885608047265564 0.24653842985822974 -0.29631410416088827 0.03102729416234167 0.4096792628718761 -0.2917544804031642 -0.1749977502278024 0.14120748155785962 -0.2521871852291184 -0.27785671299579023 0.2419334879425922 0.25763533029278785 -0.42516104152904777 -0.07732462602792811 0.22442508838531683 -0.2685307929373849 0.37052377501160916 0.292716593623987 -0.13789281694596148 0.057356910357380865 0.0441183820425414 -0.5643083029516864 0.30057523808925 -0.08907730798875085 0.005918396211135487 -0.19765470884664854 -0.009762542903469533 -0.18873853088192846 -0.04187632487088271 0.11001710288345377 -0.20930315920599699 -0.16922141771248866 -0.2051801268590407 -0.06618336543465055 -0.29092818104816054 -0.17385983534076882 -0.17534482612812993 0.36107907303203796 -0.14852876498372986 0.20721263541530877 0.34015246892402073 0.20313197630874946 -0.453132065712318 -0.12719293149212485 0.05316157797279612 -0.44544907078491336 0.33729032297973066 0.483592912961073 0.2976583946967937 0.19706953270552688 -0.288366390088703 0.2573437843798348 -0.3093618620900936 0.4095972149948888 -0.40042684077265966 -0.10986280821631664 -0.506359500621023 0.03982193795210839 0.41309021704659765 0.36030159590916505 -0.4039630283674722 0.02279661736408943 0.2739586957708681 0.4013239044780439 0.06455506450841915 -0.4585517725547537 -0.2584281451459508 0.15859749591820183 0.4091700919111533 0.014750566831990275 -0.2523100399912056 -0.19677764206412762 0.4830353195372474 -0.2393663366480936 -0.11973481081495022 0.45954766137518904 -0.38084972484211044 -0.09983663016274696 0.37437966871215744 0.355962361035979 -0.18947623215244938 0.45356128224825937 -0.1023316210624855 0.14791342253612697 -0.1352466487138684 0.1966832417187289 0.07433635868133628 0.4805438353158215 -0.4589434833469822 -0.17836425864186045 0.3671878394945867 -0.13090347839360383 -0.5629470053531236 -0.11546765745732591 -0.15527501441529645 0.2212753486821637 0.27125613269796534 -0.46339150549111363 -0.021152281735263956 -0.36796240608378894 -0.36775698032958043 0.36967837602465353 0.2691933942025877 -0.5018376039477129 0.013019589527638629 0.3105860860325188 0.17930598980357865 0.03189414354287752 0.5753753906643575 0.7895202464485749 0.21693459080904884 0.6298422462322752 0.5135424555888831 -0.012538292002700747 -0.3859363537042197 0.3696961391812239 0.005405976464564518 -0.2611232005086524 -0.32224582518004535 0.28000905062799686 0.07634987507550316 0.39754768950941444 -0.4792506068086828 -0.47665397273545707 -0.41217215453418043 0.18466263620063494 -0.0029749645958969673 -0.32770759621732304 0.4825239506838732 0.16070483003251615 -0.1763978246228012 0.4457359067368567 0.12765190939759996 0.044247973151489865 0.3423099431403439 -0.1253727577588919 0.352330626910352 -0.058987923829643345 0.41823649427036497 0.3123051043262389 -0.2679479912347726 -0.20576883857753867 0.4634832567202778 -0.21952863715091445 0.48732693057043336 0.509350869806515 0.33922998334990206 0.41568332845016487 0.3942823503578007 0.4832974500141011 -0.4948875967684877 -0.00279405198771121 -0.1617175643833363 0.477446723973446 0.22186811315940758 0.47707060790039424 0.3673664080822044 -0.24988024486871438 -0.19022487788390746 0.025053771889251317 -0.4875870653371815 0.20846384601268272 0.4875376202172521 -0.21638014868889405 -0.44499980547613716 -0.06775838960663193 0.4738700358373976 0.5619532235673834 0.42040386956824 -0.2770321646151854 0.2068172558581554 0.10477378683987984 0.057068657926064165 -0.21525523536261817 -0.05023165414703195 0.25613183521273253 -0.41658141120580927 0.003973185101233567 0.454684534637233 -0.1326484919410863 0.24447526912150386 -0.4831997555866948 -0.4233629623110031 -0.3997066423431509 -0.10515874095139977 0.46631083260884787 -0.49626185266673273 -0.2840765148690462 0.14712261444191888 0.1200727317995901 -0.44825492534370365 0.26931361317046143 0.1520722144233573 -0.4797313944094639 0.36981987462404936 -0.3096417410657245 0.3665493078758958 0.06390828653662965 0.17376874551990157 -0.045488498849407456 -0.2611452176810276 0.4806119816562906 -0.26768662824518297 -0.4464988768074246 -0.1028058207510325 0.14664927686191354 -0.2986728783785605 -0.16592420291358068 0.1158760037826061 -0.4637188003319551 0.08986374881844006 -0.3395574043669263 0.2888324758760513 0.07940218945512079 0.4830460953798411 -0.45967270368584723 -0.13932347630723996 -0.46127030463992613 0.3507246935641437 0.34261152145995544 -0.14407100704689646 0.17075122181276325 0.21777981669243976 -0.1718470928384071 -0.4449598301956921 -0.01148567218043304 -0.09769508973294776 0.2773227397100101 0.11627397151632113 0.19087344280428842 -0.3224646558880898 -0.07160505555296603 -0.4326809143607804 0.49798840403316724 0.02931984881639116 0.30762828969033473 
-0.0035948268675434214 0.3054763042309888 0.20590515499678164 -0.47875377929171514 -0.04265168602865199 -0.4104405033869605 0.4632669457336317 0.3828328762923705 0.19726936193298172 -0.16761718925675206 -0.0431167884966992 -0.038381800913937836 -0.18141029318428847 -0.4408846483844069 0.41009462311918077 -0.21678437991898003 -0.47071542019062507 0.2677592795855517 -0.2661140854847791 -0.1247504610718263 -0.4782557046963143 -0.3631701590677654 -0.2162840270718227 0.33945908405547776 -0.08426958132812612 -0.36799063966590184 -0.2924139067660586 0.31994632729054606 0.1148143251102901 0.44289943839232837 0.24817894215509462 0.49278291370317007 0.3415857715194145 0.21850276545130198 0.22355590685390858 0.3665206207826427 0.08439787990771219 0.3586376229472947 -0.394454232689567 0.22375300594685113 -0.16706500027834015 0.005806744015828813 0.16143534682088434 0.07011261083100073 -0.10427112481405842 -0.32737016854313783 -0.12965734962912867 -0.443340917226704 0.020785113640265585 -0.149960125190993 -0.000680148646103218 -0.40858890235989986 -0.33281211121840715 0.3671169933444913 -0.045550974699904434 0.05222762862570929 0.034502019386533966 0.1305283339243849 0.03493019931700869 0.4988638670088832 0.06424143439659091 -0.1727193010141721 0.3684415103905161 -0.010242044470555434 -0.15099596297679185 -0.3294449888724898 0.44163833542929887 -0.11979280520315058 -0.4648555927282605 0.18902969826265487 -0.2109822302127137 -0.34491871104611194 -0.11678814343452472 0.027698945965109634 0.47783002028563404 -0.3123019146291881 0.017389404269543666 0.1766529033097625 0.27131515887935764 0.3300087131967283 -0.02375476806516086 0.37413360817157837 -0.17421921127120088 0.4476681295057514 -0.40078520621080127 0.3110010047790861 0.10144268858460748 0.23450064760453004 -0.40742994205352556 -0.4194745746155085 0.4557508591857855 -0.0024042095372901378 -0.35301144835218395 -0.3984624724493118 0.4622590562399908 0.047304420097890196 -0.38217448207391636 -0.05817815113348103 0.42718668204169347 -0.2609273794858599 0.5315327388028596 0.1418228448136692 0.2891286520473569 0.520623723783827 -0.3939502493222112 -0.1632839026636482 -0.37922760548768975 -0.30629000581689336 -0.32103765096325476 0.13868010481382442 -0.2586780410749622 0.18720478797677853 0.35983005416701763 -0.4034733431491935 -0.3423542662108451 -0.2984353774003321 0.12780467206367593 -0.0806377134887848 -0.24512563090325173 -0.45764109128075425 -0.4834135505771976 -0.02227062280109414 0.016828361733020054 0.2847519220419998 0.16890956057050996 -0.27504504701470583 -0.34239880874439343 -0.007598871271353746 -0.04017956791535216 -0.08882166068894841 0.2136550993048323 -0.08172630771700722 -0.04603279099107494 -0.04632516017574404 0.4037746028346839 0.03692080708882926 0.1936976582273119 0.3155515651180153 -0.008726469339326415 0.3436347852756936 -0.06724241438500911 -0.08982020023036552 -0.3155627291898676 0.22128439169461767 -0.3986803609624938 -0.3347911778863169 0.24181047758162932 0.14470251691276217 -0.38567032250255834 -0.32682527506868314 0.09464575448768563 0.03842952818113088 0.13726516059371036 -0.30397933422312673 -0.2767332870453884 0.13183468968513254 0.18380863933972308 0.33984017177873316 0.10074000941561662 0.08412908692650727 -0.18651348552345431 0.3573536749883845 0.06553436067124467 -0.5202482494486428 0.3244359745798492 0.5162859228437697 -0.00796982188787708 -0.30574555309089113 -0.03777500686502755 -0.2333065491090418 -0.003806950363775541 -0.06886042096146751 0.26634959634319455 -0.04300263930763492 -0.2599438629238164 -0.2586051313484973 -0.33554077989913533 0.0695370744190928 -0.003894359283511333 -0.65811247219632 -0.5173760822535233 -0.13012446771701852 0.04961168962364272 -0.25785132803689603 -0.3472075381983975 -0.30296200114128413 0.24320822806959227 0.602736307468871 -0.21953773164818122 -0.1276417115122816 -0.2677165410812984 -0.5586374244277199 -0.02596984033527923 0.31089062946567314 0.4098506595853225 -0.014909061335005025 -0.23859727122952012 -0.3743673400127804 -0.16395716151299164 -0.49608980128772623 -0.025902012387921378 0.3977899051474027 0.28218037557262143 -0.303339445323061 0.37000974778129486 -0.14820084704040745 0.3036674325928926 -0.08338299049939166 -0.302649483432937 -0.43020402883168724 -0.801357297745295 -0.2710008844757022 -0.05784412919681807 -0.5636685981775903 -0.2761295299893637 -0.3975881030909784 0.6316682743995315 0.11120678335313089 -0.41745032809809385 -0.6252197067517304 -0.38028359490924885 0.403183477173539 -0.4456617608491298 0.24381522939476474 -0.26397298512640144 -0.36405071499314035 0.18076176239628244 0.2064231432901969 -0.5390153765502729 0.2876783840440679 -0.703249176283078 0.26419380569175893 -0.5032138595702639 0.00020659043619514585 -0.24273178291572897 -0.15089600375735096 0.32392145536791017 -0.19398440573686065 -0.22771766005286465 -0.3612363815065612 -0.18466105938932506 -0.1504489531287672 -0.6411354398269367 0.4575394068892841 -0.2437833917237404 0.007180533927952259 -0.35404840591129644 0.1442431269136441 -0.5693576189809572 0.07777511365452232 0.04315103435171405 0.07865033203241545 0.23262073248601267 -0.40185285325626474 -0.22478393578129047 0.22152119534912587 -0.33808651235933 0.11820010567526482 0.02848242274407663 -0.006595291739793901 0.058719496722229786 0.12447561977411227 0.17244813104811418 0.014614145441490308 0.46075669112455897 -0.5726808321523811 -0.27245681801444394 -0.24619165303913473 0.05305286343123392 -0.4459679942442361 -0.16591682034712052 -0.11517504581635903 -0.04223777183347118 -0.29953424185098826 -0.6777333366337861 -0.17429724643744826 -0.14285193397676627 0.03547829036931741 0.16387223133720547 -0.28839920242978867 -0.02737368971809807 0.28327982126452567 0.44837677328009967 0.3839305009182995 0.08835345637203318 -0.26409792873842536 0.4205182214987319 0.08538768942526917 0.5325594835496876 -0.1660097683354807 -0.367129692806639 0.20174404438592897 0.4155201156840672 0.05455750612781565 0.10979019552844456 0.18415546315205694 -0.21440936769572327 0.026782379289857064 0.09180579471375545 -0.5184150438157047 -0.19669609301866703 0.1830807916164752 -0.4906593097802935 -0.7985633486901198 -0.4640438336655247 -0.29420365010646243 -0.42244727034693424 0.43043825254515433 -0.24484486178891673 0.13836868779313583 0.42782147162104794 -0.3821175709225578 -0.2840907199590622 -0.2745605115226414 -0.2601344646390278 -0.4974443886905 0.09904520110316735 -0.09896383000031005 0.017540673036064564 -0.2247118460558501 -0.21316753376492234 -0.07938895062592158 -0.3443017814427361 0.12262357402900621 -0.04790157096582163 0.6345617341992764 0.3644575554802745 0.2707972273829429 0.4102212813236535 -0.06976466901615289 0.2660156720984908 0.43481494700027273 0.30066312214268576 0.0431562923572789 -0.2511693241812263 -0.11025197940176923 -0.4458186017617797 0.44132083697402535 0.17877109392659385 0.364853748078988 0.4807044577660013 0.4985379404054204 -0.181330058337693 0.24899615929865423 0.0020290670000373094 -0.04843747422536344 0.0822578152565218 0.3390914896203775 -0.30898011155734223 0.08738403294744918 -0.4688411209476664 -0.27835111227499826 0.5278052284123564 -0.25395269356413763 -0.36876525783974107 -0.24765505705607394 0.3863581084624398 0.5216167543254295 -0.005632343690799717 0.02046941759264386 0.1882510802670503 0.42059645769946225 0.36824662686846843 -0.06993919215959254 0.05117807582612133 0.04931445393424261 -0.15854710146426154 0.5046180383322585 0.17791673277518041 0.0758955112126579 -0.2666170689997581 -0.03776246542595719 -0.32649465789770377 0.0687858218406944 0.207671455250996 0.22455700822072414 -0.1306732471395917 0.20942586612202416 0.2274856457546483 -0.34401927748975736 -0.38582048218271575 -0.3403125699105534 0.48359385888903167 0.040583562969610264 0.09667165124868744 0.26948503571565907 -0.2280296882708097 0.20299813955006404 0.089269742139869 0.3341892076600094 0.15713565201857935 0.2558448193908247 -0.007261447273063215 -0.3676230560630792 0.02118900857064543 0.3297174050853492 0.19652650003566785 -0.4918795311749631 -0.29825810489784027 -0.20472922456830966 0.5021555059352394 -0.40062064982120155 0.3693314764137757 0.7222777505286555 -0.06458177663402127 0.3385386190535363 0.27596247700612164 0.19947006874061704 0.20291995047919437 0.25810602452691034 0.19000205616482238 -0.12021994851983307 0.06419472947872293 -0.17950256372281467 0.09761156367142063 -0.04426282075663153 -0.18137183008574215 -0.10206544274183241 -0.47572150116806766 -0.1973769548116192 0.3969309665681019 0.3926918796792057 0.028401721359223253 -0.10210695346608023 -0.36265119178870336 0.16355746751408223 0.15044121790808607 -0.19778074075772673 -0.42115668602798906 0.3607499288966592 0.46495344091903257 0.06902374249492359 0.47286372692645 -0.12727180060105828 0.4555323144418281 0.22898526384367487 0.28386043590121857 0.34602765559978216 0.33177020519578126 0.044008824652540204 0.33242106065184823 -0.1570395242585643 0.16755687942141115 -0.03179957186887605 -0.12922529370400926 -0.27930024849359486 -0.20170788366605732 -0.03891898591080523 0.43497712149601364 0.36368490788818864 0.28703512427929667 -0.48953398298230594 0.2942801503054976 -0.10033897438227918 0.4519505254710024 0.05632028146035834 0.4979320363667986 0.23944898900156134 0.14629737562792905 0.11740690011011624 0.6248497097671623 0.032244182215269056 0.03987825831106567 -0.4744701594262321 0.2723020959110294 -0.10054990429301072 -0.29203436121245874 0.12052085283629017 0.37021599107880176 0.354300339304021 -0.48836250327845554 -0.2442480670999637 0.1697918415301978 0.11577964601055325 -0.2896861399063271 0.09889572871519098 -0.07057449841068375 0.457136930297388 0.23156582784027846 0.07769144758870261 0.3280188082364923 -0.3003076318914506 0.39704358730517 -0.17529355524958865 0.3372842611312166 0.15242541898316647 -0.13150943060428094 0.24495979990716155 0.20681497517669326 0.28493450806199555 -0.27621230695646154 0.20105020574713117 0.15919431428986872 0.21258373091833355 0.3407058250637513 -0.06933929690421604 -0.1296587220631083 -0.2888358383300946 0.26751664159235744 0.4096777957204178 0.3768553709460687 -0.4293440146810987 0.49619954668118316 0.3181504380957798 -0.3591783896766294 -0.2289200104799124 -0.20836511954984216 -0.4071346041548366 -0.2610405728396715 -0.3121864698143769 -0.11550965502873882 0.16711072961759713 0.5780594186214544 0.48288751826924314 0.7322173312868678 0.4074740875865144 0.1820597833373972 -0.17943942318974518 -0.05787658886456338 0.0781317720638088 0.2422705094924942 0.007456641373221432 0.14073740582988245 -0.4083632501879672 0.1338665120003542 -0.09539886548991117 -0.17642736495240965 -0.364583906854947 -0.416128487563824 0.41198483197403357 -0.3407904457586838 0.08776225350528433 -0.1579137820539519 -0.09660894112135687 -0.22848916071863 0.1780937445191586 -0.1358470121263028 -0.14564309913311144 0.07634670373326001 -0.4733682695556103 -0.41694750152048565 0.13543307997484053 -0.06906747537634504 -0.06180491331579767 0.1515147846722576 0.10671040007505189 0.1076691500768814 -0.21206524463161408 0.34634716506620167 -0.5415657395030083 0.24393762217190684 -0.5813794113040306 0.16985134530154317 -0.29776497401784063 -0.20514854480703068 0.2827383892272847 0.24635095071087507 0.03745263216340506 -0.25656589911701216 -0.21744449628806306 0.22341251766861225 -0.147293581148759 0.0535938138317007 -0.1243213775613391 -0.09598929349625254 -0.4639253912870933 0.3318760328400839 -0.538623258884104 0.19907799615476293 -0.04139333852937977 0.37056182397138326 0.27756729950850867 -0.4475669271071957 -0.5309822960512127 0.1815030596994042 0.49397315711899153 -0.4320222515453463 0.2102378773851871 0.058627162386779355 0.2604659533974068 -0.5864345404032362 -0.2019958485135864 -0.19491247620527513 0.23848559902265754 -0.12816818522728143 -0.053624832910515965 -0.130803381952107 0.10839220787735138 -0.1694090633887949 0.004571139118050516 0.07282662618634106 -0.452083197187377 -0.2611512049961375 -0.2976069839000025 -0.13966546266657237 -0.25878575216627014 -0.3854235132463461 -0.30501940107984754 -0.18168986849564128 0.35288748876020404 -0.01746536941987839 0.33044831889400605 -0.14691874539125696 0.023833638731377237 -0.41229700768474287 -0.40689097609801245 -0.025521019333008228 -0.053976484046284356 -0.6097003271809782 0.334835615919302 -0.0528832887418246 -0.29054107488958103 -0.35801562649441404 -0.4457040315690442 -0.10917963054108412 -0.316234646787413 -0.4543354743102481 -0.3796589332672964 -0.21202545065228828 0.47954731239943693 0.10293839399203285 0.47113265453324504 -0.023889264267250306 -0.24151401759367314 0.1292748988725344 -0.35151796884655745 0.061406367585029126 -0.2851601728089343 -0.2240433899452975 0.09262475194997623 -0.11979525216043246 -0.07394091854694483 0.15856178708813365 0.23490395107200793 0.21685771734833778 0.25601524536332443 0.056949952353553164 0.4274184735072368 0.25865928962632045 -0.34480573873734366 0.18056675434981176 -0.12070320625935671 -0.07665022230048268 -0.14479735093109314 -0.025683670516546964 -0.4487987877776449 0.46448429650026546 0.4174776782456393 -0.46206846110973504 0.42497843658555445 -0.24851134395968794 -0.5650449441567702 -0.42393149105316447 -0.29295129051918084 0.34513135761164526 -0.24294627554650838 -0.49153094381898604 0.09857455795043299 -0.3123075282132512 0.11736267124177134 -0.33700413116422895 -0.3386263796803685 -0.06623464080003276 0.004589828956787913 0.2919594585959269 -0.09120434166094568 -0.2389511292155639 0.005080982500881179 0.3797478251124473 -0.17765582889784545 0.24504327768302303 -0.12679760015623287 -0.3486896628904108 0.2619844021586347 -0.45189814177433607 0.1861383274107955 -0.3135853758446073 0.042321248074836226 -0.24071925355021437 0.04859011247476632 -0.05453886872732329 -0.2541238751644445 -0.11241135186705671 -0.04063771543124888 0.46370676354469914 -0.4539728564312123 0.11180546361441246 0.37366725280365193 -0.38991559784719904 -0.19919459330750275 -0.14650185332756868 0.03074727219111312 -0.35710027089577157 -0.18181009809791282 0.2831077671144374 0.35091650465994 -0.25125117950136866 -0.4405582370032647 -0.02772978712235241 0.2352409202178798 -0.3199946886408337 -0.13721156525048417 -0.13782984434641166 -0.2526810745166529 -0.11044725396594941 -0.027097756006979393 0.33669553254450674 -0.26565520232756396 0.06692395060856031 0.12459832717763665 0.05400451880194793 -0.4912796337420341 -0.3504291132696391 0.046345642661805776 -0.5716121346486647 -0.09252266559361055 0.07182362325806857 -0.034773347718346954 -0.14821923631870565 -0.39372143605777304 -0.2885342938399304 0.23435357376939195 -0.035200276345959375 0.18607471857810004 -0.2570486331849654 0.281484492446041 -0.4661597891918219 -0.21709282336476965 -0.11176322231602343 0.3570456562928297 0.1804824065855718 -0.02718825898560584 -0.127374820876607 -0.2480120814687209 0.10888494364042864 0.10173084105201464 0.16738067203173368 -0.11549329834155701 -0.22383540666804644 -0.3344898781948424 -0.34916441092579104 -0.4616728786221897 -0.4961393195066184 0.18577234720965194 0.18169691455747602 -0.2736796585304021 -0.3749428571805295 0.49973558232716514 0.3551492841080201 0.09508916830850755 -0.11912797672122033 0.4868953245937959 0.08808377962368497 -0.3191056026325514 0.38416722572044715 0.011675317763122028 0.1900360405535555 -0.09906470658178934 -0.24921561462361674 0.4324236247156076 0.2564423807425138 -0.2010700368646564 0.20920682580845829 -0.17614079650542913 0.1352543972656186 -0.16433340307335131 0.1204745959361575 -0.3852620966911384 -0.1107438990876739 0.39238135615374226 0.2655485136829757 -0.4555855610651366 0.007276314012267016 0.4396922943740304 -0.2789130841103991 -0.21765603778951445 0.014336954795518664 0.0642979611685548 0.18713563616289008 -0.11592819102133145 0.3910438754534319 0.012595415959097522 -0.15033152664358607 0.4039306816900923 
0.35480204085383893 0.4413678441107617 -0.026533510561079665 -0.33240103058477 -0.37648355729225946 -0.20836977777378018 -0.15117213181763522 0.27258592002937243 0.31655036376581414 -0.07258234969657062 -0.3879921382858318 -0.13147652228564954 0.020937030706355664 0.4670424721375569 0.34563499802345243 0.3215826722286518 0.24843132960731706 -0.34238483505918305 -0.2553784158522098 -0.09282950991506334 -0.38789670196743553 0.40273118101371463 -0.06506436762240053 -0.08993221247765748 0.13350401484353092 -0.2261405624114502 -0.4237097093143062 -0.4790558616797286 0.3382019611706496 0.4693286296643582 -0.06706468684211664 0.15199803100986242 0.3322195880057214 0.10706594590194163 -0.4902194065692558 0.38767850743013244 -0.26341677669191865 -0.17234633495283103 -0.15993156647197573 0.2511174234609872 -0.4434140305899231 -0.053722891886292756 0.27893132296302325 -0.022037102966675493 -0.3955996965443458 -0.4342651759352707 0.2402093569249787 0.07395549886624453 0.1998364344075214 -0.0800542240447798 0.0060829624098630575 -0.4415139385643252 -0.2923380221335009 0.09004377140904873 -0.16699123588872533 -0.03636425630433471 0.4492836994990137 0.4148657277685551 -0.3427598667183396 -0.3271018943299637 0.08270514418983599 0.26612721682552465 0.3869013706692348 0.06200849640785233 0.2852148445322015 -0.19037594512547523 -0.039570703780946036 -0.045571430664530364 0.012144524559737652 0.48151744057651963 -0.18651536815795894 -0.2711329434342818 0.10418058401162203 0.037682284004001525 -0.3526847474839866 0.056128442257140934 0.10278820063126337 0.3795753855929694 0.48463436635267076 0.447540501659625 -0.12725349295971933 -0.06421658182650503 0.24413224080187557 0.05197165679617066 -0.4091831026580325 0.26782401159738256 0.34077199350641796 0.1238200990429229 0.13318634303840915 0.1388828859507365 -0.22313000122060567 -0.2558421986105496 -0.06266733084236155 0.3105102261175745 -0.15171043998028455 0.054451772805569655 -0.2835357169838761 0.017356219328997106 0.474785823435678 -0.20513137928751823 -0.23873756050311767 0.3776256314192591 0.11513046558220515 0.09670729166076902 -0.28160928257273865 -0.09321264864798023 -0.3173220924426602 0.3773628554234406 0.36212536411411833 -0.11065236096885533 0.10180991162655606 -0.14458150894247623 0.18532111585759492 -0.3268840933144176 0.0565596709401438 0.07963215208881158 -0.21991184494998914 -0.2632439303126109 0.12167455177747988 -0.4358229731819222 0.1600309762569839 0.5643276397791382 0.36523247152006877 0.5806211439374109 0.04999321570217223 -0.05966492535838288 -0.22146303147874774 0.04285235476314329 -0.29861298791518476 0.04842359045492502 0.19071896558943813 -0.1113003233609916 0.026881811011508588 0.09840454093293244 0.2974378008080557 0.2926667904719898 -0.38850348457600503 0.4491605759084365 0.052369658082674575 -0.22120541635256785 -0.3381074034210231 0.18271604329164337 -0.19831245559866806 -0.1303285486587844 0.24903273237619916 -0.023745932578482776 0.35102921065467496 -0.03557715314296105 -0.4773752036775589 0.11766015267744591 -0.16212768616789364 0.26887369139022244 0.21142300919729048 -0.1992915855473186 0.6049265859090172 0.06748386573880964 -0.552033759720136 0.3869169795738821 -0.055610930914284484 -0.3872581256569571 0.43311484365921077 -0.13498159224223405 -0.05285894092366714 -0.3119835532527155 0.14220440497123676 -0.3912604555897675 0.03650668555775624 -0.4087988108973667 -0.4409919724117819 -0.099952164433745 0.3725199136206928 0.33304594171865415 0.24795116883616236 -0.40214737344825885 -0.17372672119139945 -0.453020457519911 0.08101932124327288 -0.6986714487603094 -0.34773044307218853 -0.6586310773609394 -0.7186504670975343 0.21724997194491993 0.12328725030418175 -0.09304241391978267 0.4507859413675539 0.0019042054285136351 -0.12210965739254544 -0.07726661096270046 -0.16987841478967677 0.28199549810631347 0.32568699930025086 -0.5070391123761397 -0.39886083516528 -0.0774724772838535 -0.38253581373458034 0.20012864767362992 -0.217332089794384 -0.48297551816399553 0.37580042933741326 -0.05861091007132715 0.3477892064391009 -0.05176662338265094 0.19981962245914175 -0.3629598149281447 -0.33409154829312304 0.5314885239699063 0.45806113997014436 -0.2998451077742617 0.0575577158663983 -0.3005991259500558 -0.04538858138879077 -0.5382938245499339 0.25573099066307725 -0.14497370908006377 0.5055432472593491 0.19945177960676017 0.037638334586331534 -0.6327310449364735 0.03705692521836458 -0.25852398417018574 -0.5422984415435701 -0.37365045622409754 -0.14052990428143636 0.225506440775343 -0.043399505279540396 0.023235235071043574 0.022596557584437016 0.23816861048415605 -0.27251322434545167 0.14292043463657106 0.2484995225507568 -0.12409054903323515 0.2366499442333099 0.3638236006972301 0.4423196818916873 0.26914760696505174 -0.09403847948908291 0.05400866349752421 0.45844760318938205 0.08467037024553095 0.6223561809610524 -0.24020406576056932 -0.023966093377073176 0.2496913566994001 -0.23989868177955934 -0.4754307664322734 0.06663754767510165 -0.3774238242785176 -0.4608641457411617 -0.40682244379068555 0.4532231340652926 0.004871957547976202 0.49249213847312223 0.20201937048412782 -0.6122025064543473 0.34255668751223994 -0.02610845151468319 0.28388773737775963 -0.19630647083625924 -0.3819436630257258 0.01999442747862567 -0.09196666253626039 -0.12336560523942396 -0.4493328908116285 -0.3017127145294766 -0.07033681383648825 0.023015638255383056 0.35050597302103403 0.4587464830848816 0.4078734828032273 0.26455173157148304 -0.2834915715896773 0.04645168961306302 0.4661536656386007 0.2676966331308317 -0.2116449265851299 -0.25457251211471793 -0.430285811436131 -0.48017112136601664 0.4466841276165037 0.054327970072618754 0.055212123502692466 -0.4789759755800082 -0.0706195394337553 0.20378685177059355 0.635460282761967 0.36518231461319633 0.456803778098658 -0.341912619477887 0.5294678149591298 -0.06445090871100521 -0.4341049190582587 0.2278556860466181 -0.06494073544937083 0.35112492311011645 0.3887848964334791 0.3590027151812937 0.3011964218631873 0.36549990036513746 -0.29268025460536296 0.23036523108058546 -0.09970454940519644 -0.18485723195908665 -0.5836477933724957 -0.4254709821799086 0.06798548913654252 -0.16198017331959974 -0.15187907977478435 0.49315458542295987 -0.1786146552736535 -0.16479637035802164 -0.23990695937504775 -0.0074784103791076485 0.33559196577784384 -0.076422826192522 -0.22288738841385428 -0.23431552473723302 0.08235377263215296 -0.42842956229004836 -0.49188686297905826 -0.49292936162032114 0.13638863674599017 -0.2656585695904967 -0.13793098466470619 -0.3892341818290444 0.3797071022483086 -0.16830387581802417 -0.1563506963780115 -0.08858558622573766 0.24226604105082317 -0.4336400484358282 -0.45168324252606346 0.1794069730779078 0.09073338522195887 0.12579902961945366 0.13372256382343517 -0.36942818018424484 0.4359637767219027 0.3842348049316212 0.3929540111074309 0.5047553925911256 -0.4410897924468665 -0.2061638055280857 -0.25411846418600836 -0.33398594908662943 -0.552776450556765 -0.48361085032976653 0.060192299836664416 -0.5586882186955334 -0.6502355257417392 -0.6930903155676558 -0.0676148560686063 -0.6224908753727059 -0.1895829864510034 0.318158679651019 -0.35677950106477324 -0.34294752754560864 0.05585448449286552 0.03190839533642873 -0.03888963649598454 0.09470669373919824 -0.09978345408769256 -0.47335878972518874 0.4535700431241977 0.10667080993606348 -0.4316942144852499 -0.4100729477429046 -0.06416494971736443 -0.0069447129104907475 -0.4886711639639193 0.004834359939486788 0.2426076239207512 -0.3483694130928783 -0.07873752272707746 -0.9948939682510687 -0.9381054213805202 -0.3256391295776308 0.3437792955509498 -0.10272013300353376 -0.46841816326208807 0.008291588509799313 0.268194168492662 0.3201256530901767 0.33531720508751856 0.12552259128795587 0.0895746806058597 -0.02456569788011875 0.4429620186221804 -0.4192626416422441 0.17582429259904328 -0.33822424137156865 -0.390587203052681 0.07489579662798074 0.04684131563306804 0.37776305566715584 0.1882650337320115 -0.38549675438595515 -0.14983363531407717 -0.5853647486147784 -0.26692396334638535 -0.43470842774421387 0.11901051681377757 -0.20100041869483284 -0.2054669308351806 -0.4247512170650464 -0.14855526014532403 -0.4174568302592501 0.3023865541364927 -0.5165964439808648 0.419677126616242 -0.22310056681145782 0.35220265629252523 -0.20283360267464523 -0.213113349532113 -0.3928099531515561 0.459720352251473 0.15030000272917032 -0.16371783005146937 0.04200662724737974 -0.05743486979552115 -0.47753728953475305 -0.05107159375684267 0.0657882993345722 0.24514214343085206 0.43773861317001905 -0.5748957098426978 0.06011351403536118 -0.4900190529664107 -0.2978720832215199 -0.2271387581524541 0.4897707051005504 0.37994860059346885 0.02159004731567056 0.09242620401982254 -0.26457633981578255 -0.35032317137570207 -0.4767310295559391 -0.08546627386533308 0.2785775516346989 -0.05367318155066723 0.15426434524141044 0.10754049443175764 -0.2985626067097209 0.4559906376943451 -0.36996205545278943 0.1387727668424424 -0.08480082089571786 -0.3616915484487271 0.17108934687291644 -0.35092515895448195 -0.0165737849405847 0.1442890759067693 -0.47915504437231504 0.2706880653138255 -0.05443842782932388 -0.2660329659275191 0.06161756941653713 0.12497513326035059 -0.2250357044670399 0.2825289102011852 -0.3119754182847386 -0.30120354396941224 -0.27879839158600095 0.04784552646695251 0.21147897303407054 0.278268543395335 0.04969442772941798 -0.43866956348486474 0.3027283389897192 0.1510406162799363 0.20539159321038236 0.4131454667666312 0.28814131183960157 0.13751932225965363 -0.47087559749601354 -0.13944272122659698 0.17679062192364026 0.28809066192705024 -0.014312086033945959 -0.2223702117258472 0.14597650529178086 -0.20485462469530594 -0.12440853424515559 0.071749760224506 0.6241913902681814 0.15103444727047444 -0.22657711394542 0.09041849796589163 0.1663013709133406 0.4576190632795147 0.507654063843323 0.13237643239149305 0.01884985317435057 0.0026822664365293157 0.3115630557150084 -0.25893003674826987 -0.07519750142479009 -0.12114671204554298 -0.312975479460718 0.4848105791361407 0.4212815418158296 0.004524831464397321 -0.09587968079874865 0.1597490690183193 -0.0871265669835235 0.4978555214885255 -0.16367437694505116 -0.4713242675917899 -0.24377813187829106 -0.34823735300430564 -0.3765392220265955 0.16608170771279077 0.6373996418573317 -0.1990500023348781 0.43466958439056347 0.49424661630550254 -0.043475310288839525 0.2436230492701297 0.053344902906895086 0.1529770709523865 -0.6150057742360641 0.14372593529490452 -0.12012309723306852 -0.37785510844329473 -0.1449536990408302 -0.28714346151887976 -0.43998290638495896 -0.31674559681964476 -0.29017198110755826 -0.07235518830005964 0.0657060112205754 0.4968824595103831 0.42948903840275365 0.10752913572919665 -0.3513612508966647 -0.4618414422696506 -0.2858685364656829 0.0057425307767040735 0.24950891613164863 0.06078859909421661 0.6741798470702682 -0.26594023409400064 -0.38335622555585747 0.1762162590670938 0.585138200503062 -0.16541544514768589 0.0027573363630849874 0.014915498563138035 -0.45172977098677447 0.0014621581241463343 -0.36557910535442356 0.39012215060995564 -0.07689377622690687 0.12642879745895894 0.16125406494917674 -0.1393352349416963 0.4747609430763295 0.025617641955605345 -0.2695655262401866 -0.14326665763423663 0.4872193905225325 -0.1227572359108502 -0.03511658893331415 -0.287128981289551 -0.21939721786532326 0.452192226838507 -0.23521180226799698 0.17051210057191357 0.2624186632236905 0.015313391221643062 -0.01499753682603619 0.21863465133434692 -0.4911190163459521 0.30187423017339776 0.33684168398312336 0.06519011578766548 -0.21960125328756555 -0.34385782144942884 -0.12165362757304858 -0.32300619041379164 0.02781917367607564 0.26076903652523303 0.28589389220595485 -0.28222158463843194 0.5402259947705104 0.08118670923382824 -0.1818474582036492 0.4323268960610972 -0.4261124918322623 0.49785202972006437 0.3330447432427107 0.44522771107021286 0.4492424967402672 0.49443277852502654 0.35701200346519796 0.15172045718844782 0.005981288195040246 0.6586129353110621 0.15702977918324995 -0.380215252911758 0.10677744667453255 -0.18604019684637413 0.11701851918494151 -0.3333005137676512 -0.37772733340590947 -0.08750124926380629 0.4614939437938799 0.005988056344001618 -0.2786015220035329 -0.31261486806042854 0.486697326528155 -0.1746537647119366 0.07506504221816945 -0.07273773920001479 0.2865011786275943 0.03792868927692461 -0.09945262273437916 0.31297051339569415 -0.06051949761374964 -0.25420500585814165 -0.10059207240431527 -0.14123488118359506 0.17180611088153072 -0.07772434970586517 0.4537611032708241 -0.42759953410630713 -0.20640179037908926 0.2910756239893778 0.23091093194837115 -0.10065616168010905 -0.3194438684899692 0.4537827069364573 -0.02718897937560614 -0.4272244650868821 0.25636345754319556 -0.4619049752707494 -0.2056227858919621 -0.4037127662987878 -0.3238618130726195 0.0905980666661184 0.5113815703918307 -0.010853728619154753 0.23853071602671905 0.012325092655197767 -0.03586165362980176 0.4275796968211478 0.21331203779218721 0.01497978023973956 -0.009643246750681327 0.08090478237950885 -0.39617225703591585 0.019553687068892506 0.3233529800625715 -0.3926077903531803 0.22500534905172848 0.26618807255892535 -0.0706461468389857 0.2711141756028247 -0.03091137159944847 0.09850589049026495 -0.2601750429401504 -0.10201464781901756 0.2986594934788719 0.48806513628832054 -0.3906032750019167 0.03579525587015766 -0.4087852341012133 0.46657364167344295 0.07048402257818977 -0.19704116963476537 0.36103583104568593 0.0922298385150292 0.47499328738645397 -0.38703393425171895 -0.23982540280988074 -0.05613398017450044 -0.12173957731911461 -0.3328739409266853 0.11709013271962591 -0.23852373791782516 -0.4113655433262158 -0.16717669760983916 -0.2477636736464908 -0.332120892727587 -0.18295251651046324 0.11751158927730505 0.13933416188963194 0.413312805913214 0.4008764219544244 0.4586358415338624 0.08686511180241965 0.31182697806903 -0.28440884742394507 0.06602533673458054 -0.059766709801578354 0.09136949818514178 -0.13509650404687268 -0.3292638618830549 0.03506930834152411 0.10452902974130818 -0.4464680092216985 0.05938415103717809 0.014432180272675676 -0.22573397314073174 -0.2772361382933827 0.2008595534899556 0.03351897792992641 -0.3660813591615743 0.24382666057695507 0.4385074951555967 0.0993120193552422 -0.11374642978263694 -0.007652339108011093 0.2546128537737125 -0.1428050004563258 -0.013065897311849253 0.14107558777792897 -0.13309819269879675 0.18283632905575065 -0.160034025826602 -0.2140181395093342 -0.15466082778017057 0.2907149967020266 0.3827420659806798 0.44429055324399613 0.1855729746959217 0.06636200466131248 -0.16280400611578438 0.29271993856286704 -0.11409175443138797 0.18759669134001844 -0.07528254567875436 0.32842859806815106 -0.33689294854865304 -0.27237064029487584 0.19740532201889893 0.3751392801047548 -0.2152339834908178 0.5203169789226095 0.3933705100493522 0.4094300212691309 -0.1974769722440502 0.20389361500501268 -0.11509366317689254 0.044872203506454766 0.28811175942645045 0.13877653393271736 0.46337083675136675 0.4500072359773573 0.46446981587575387 -0.15143509469390992 -0.40902974899426636 0.10392902905656365 -0.39067668676713385 -0.08634617926030008 0.385921824919086 0.23352876565744707 0.29590501992517937 0.3208151282097772 -0.46819136122713556 -0.38284472071539777 -0.07090108925292227 -0.3502039457708874 0.13758399530786802 0.2921219908495719 0.016446826370142498 0.43635299585853493 -0.4891457925528747 -0.10035284348827778 -0.03121379960010251 -0.4696509444615497 0.29443315003394044 0.1690885689363118 0.3352083810639813 -0.4311865194349385 0.43864874906850704 -0.3182142957366122 -0.4851702303577303 -0.2364484741610069 0.46673983866010205 0.36195238092412696 -0.4496935568298117 0.45367579790945756 -0.3520036740288571 
0.4961404888813786 0.33713677079141635 -0.06352425024124009 -0.10763395315149638 0.1740129945862473 0.4670288790799658 0.43314661255742515 0.020165958571621068 0.1392402215933326 0.3104699222202567 -0.08089583786483301 -0.2285284544604933 -0.3890331258140711 0.09869943700894912 -0.10123092079625473 -0.4669930299720443 -0.12829874353467274 -0.18827368721909254 -0.03695978671543243 -0.18566904359994252 -0.2507206491676238 0.464045432174196 -0.07353678965799404 0.41439720034345484 -0.3312452823547076 -0.23922561440704992 -0.16626673582990514 -0.13270148314529107 0.09234339801608693 0.34197873105639653 -0.042844811513356174 0.37711598424551007 -0.323194685927066 0.47407667749765947 0.4949085037131318 -0.18851362745722755 -0.457828835653063 0.19482102089137382 -0.34710094993380175 0.28337168767508314 0.1619238610682623 0.15611369474769055 -0.16795775697034254 -0.3291702799200821 -0.2668650347880691 -0.11068643414854384 -0.4922706095175584 -0.08436586442987692 -0.2052717075470284 -0.08047809525028293 -0.362138575854448 -0.22841531040163854 0.13803995293601246 -0.4294378830503197 -0.10316758504227574 0.0037037522007696833 -0.04924257975446 -0.17459981999422325 0.04212752782117213 0.3104781721665081 0.17752536018778553 0.3911706455089464 -0.42662276637509666 0.18924325287907207 -0.17959179280962856 -0.32177662281759606 0.31239160214213507 -0.12833870423248922 0.0019167519136442262 0.030878583501846118 0.3144354979640226 -0.24569187717211308 -0.49020869769727055 -0.07653409976819991 0.4424792466899226 -0.3189540295717461 -0.09299970613225346 -0.2351649201885218 0.4967002309038868 -0.18395754350594995 0.31899823772213787 0.010355329511083755 -0.01691703917605425 -0.3430021640798798 0.27485278263153146 -0.29652185188569113 0.08998403138378408 -0.16501078004458292 0.2556157387543202 -0.06349555633681692 -0.25912694824580507 -0.09964838214698336 0.0013739186473973972 0.2256953610542268 -0.27789265696575643 -0.1475207854605353 0.02283487512435281 0.3364766786728241 0.1649062318486647 -0.0063040410388571656 0.22907963786658447 0.1071721536488306 0.3468981955450163 0.26475135658780524 -0.5074843227964291 0.23772747216176693 -0.16109310950919833 0.12217681141831913 0.24115476118648715 -0.3321239004750811 -0.20027482672995633 0.13347934418835194 0.33013247403717116 -0.33067189280289666 -0.24019826051826698 0.10639204196547047 -0.28359848791395087 0.25829243493569454 -0.2333010259315113 0.20201385088293367 0.16634609210440307 0.46103023397065684 0.3052975202297006 0.10350872870011094 -0.10280245602866792 -0.29442972241066084 -0.4072717227162236 -0.41850183949860825 0.2588953766485054 0.12411449649086242 -0.27798555760954696 -0.17247014146970743 -0.2606219620690723 -0.4255602294223392 0.1689141781163511 0.4612944864289308 -0.04861502670348106 -0.004773548381641357 0.07096387516141633 0.3765324988157188 0.4121984212748375 0.37853651011830425 -0.2824134576709728 -0.27089814742056284 -0.04420471627819579 -0.18142433434169386 0.4124436098433529 0.2413108487561148 -0.40751012695376826 -0.35000873378313646 -0.3855817885791942 -0.34322878075516905 -0.35790274472895345 0.11931729806065676 -0.19862633199912755 -0.48050828912395716 -0.4396567637537862 0.15535003096438058 -0.5522728358678152 -0.49871864428885754 -0.39272877333633543 0.13749339819016543 -0.43254652870796695 -0.4315883167940324 -0.3178805488604266 0.40868235627462185 0.30889749577345027 0.38858113724350507 0.3257035386518765 -0.49873727701945025 -0.040906085825378136 -0.13707248908452666 -0.2653112394155714 -0.1760623043902063 -0.4659207983555102 -0.09044338988469451 0.2521660567920048 -0.18988072627301164 -0.5112954031478354 -0.633283127732341 -0.14908637017622722 -0.0328389918335493 0.341737709658555 -0.08927387576264122 -0.44899522980995954 -0.10494149770650792 0.04323447721683888 0.07041998862498233 -0.4565315346008267 -0.19520599503412547 -0.1159204833280648 0.33334606882540646 -0.3842965038830287 -0.27886373795088437 0.007645362411081391 0.1421140447310577 0.19923708562614362 0.01945644253486367 0.01340837097555973 0.20940649944680434 -0.20593250956107492 -0.021270391848372074 0.07064005270970235 0.2722359728151555 0.09701600401828343 0.21369710367968625 0.007518607370377119 0.1036673580997739 -0.12993639566318937 -0.5986565671077722 -0.2720025184435183 0.17064467452778814 0.3732409634164261 -0.7232228613565947 0.04586064241659062 -0.5490782376809094 -0.5289363411967007 0.045720610349617406 0.2433132652540954 0.02785881351039062 -0.014070016419277818 -0.4701955646592996 -0.2319712661108199 0.1399575684095562 -0.31357432153717557 -0.21219090795814705 0.2094466462665075 -0.5257317120868226 0.20928142163764174 0.3918475291244753 0.1378041972353071 -0.3200835533906278 -0.10442513847774358 -0.4075895172211547 0.22118975398857885 0.2937881951293964 0.204828536449023 -0.1327016438385284 0.29507350034621904 0.47733558969854767 0.268088301259101 -0.07447558997645864 -0.38778563206802075 0.12389807487028734 0.40262252162553835 -0.3859182033517462 -0.49441426620983875 -0.047679960163848324 -0.206722980693473 0.1520791230362308 -0.1929863335363651 0.16228926575432656 -0.2790092473831119 -0.12815908853507266 -0.16921207397416196 0.41380057027799605 -0.16480726456343897 -0.28388709285481095 -0.3291269222234823 0.06748307964736655 -0.5738383222596041 -0.07683028178973794 -0.08978529368806554 -0.12030933596265055 -0.38847366997009986 0.3509057743650537 0.4353563305600557 -0.2208738520530497 0.1410912636663244 -0.15394813001130495 -0.31580681743308425 -0.3217380465236899 -0.0898074809728265 -0.18499233195825532 0.027558487857567503 -0.14343633204959008 0.19451821770569963 -0.39058435428302796 -0.2615861020849421 0.4925533607639995 -0.25465010643668323 -0.11955307024848365 0.12825456786929473 0.014018731186637573 0.2730713980733996 0.020175272742617125 -0.04501513920575588 -0.17317071102386622 -0.44576870969295024 0.23578026137758637 -0.1752913773667092 0.42569453447035566 -0.31981225992704626 -0.0228872482014419 0.14721905178115105 0.07203294877806263 -0.15773079308373728 0.1279807497519625 0.16508928558293454 0.13811206350629704 0.07579933175841932 0.026038534028547302 -0.0906095768059589 -0.16531616145697964 -0.4515157751817317 0.23582058895813612 -0.026851999780936473 -0.1469328584821905 -0.04278455150785043 -0.40387859010759963 -0.05464290587359312 -0.2235831444013584 0.34450574737958656 -0.39747210957775275 0.49494099926625607 0.010587759228512506 0.1682884620807898 -0.13363779304576237 0.09200117896916715 -0.7058802614650053 -0.030568974982711064 -0.1903343937789296 -0.3858432799499151 -0.20577780508267624 0.20522571877432158 -0.11267425391759622 0.1681584666227232 0.1058475162390102 -0.047698154195655346 -0.1112892711623691 -0.09948665042688104 0.11658011770880221 -0.5615441751519618 0.1096207900741514 -0.36543026523318145 -0.13289088159155416 -0.36801249363298094 -0.42970911527237887 0.03336835189912524 -0.23798891666361932 0.33345329370571136 0.10991166945196006 0.27847974853952656 0.32152548792558655 -0.017601819184372272 0.11387873485404919 0.2876396663832089 -0.5649680190502696 -0.8015389092669597 -0.40103837423644567 -0.07933921356766276 0.3998887715693475 0.10287565082851902 0.1781162868182125 0.3334808720187594 -0.1776319376505627 -0.2516472054139375 0.4366987021654602 0.537585966777496 -0.02209392738210717 0.1257744429646927 0.1381837567633066 -0.011992909628698034 0.4551373142766648 0.19379553300749308 -0.35192805016705553 0.06420489660150608 -0.30282470561653035 0.4253420567760807 0.22297176456492718 0.5629231783190549 -0.12470980854810074 0.06560230709591613 0.11208707746358243 -0.053702931550127404 -0.4118120642207932 0.03586293302728404 -0.1341776959491375 0.531023896707333 0.1619884750402282 -0.1584206324206171 0.36709184458178573 -0.13326716516942033 0.09244328789078349 -0.21217144863996398 0.06190745273478532 0.1889804583671822 0.2999129723743173 0.4112885268097734 0.2529085873684259 0.10352382854716585 0.47421472481567584 -0.4531939279824829 -0.03594787724905857 -0.2646779537281465 -0.22735772134343601 0.26357855852727113 -0.30439525272315027 -0.2782141596260853 0.41552654989006427 -0.13695181063426795 -0.22736154911213663 0.13980584077415617 -0.01228044975499966 -0.0025695543177059964 -0.3052614688647323 -0.07035640564162954 0.6168757318117295 -0.18270056254368316 0.2921642831475074 0.25623411508380267 0.4152069642301635 0.27596083635238644 0.16700447398754986 0.08699045805654505 0.12355800064176078 -0.1396119427008303 -0.31639939383027704 -0.06208759351704143 -0.33324854374545576 -0.35523448422252457 0.16527350352642778 -0.11409324296427326 -0.18783465928853263 0.05460046095161148 -0.39443323231106436 0.3479764831304181 0.2849111440705119 0.5999082907762182 0.3183184046949083 0.03860908130025045 0.14037679616524915 0.1803087863525562 -0.030892849704931714 0.2022793267643436 -0.1425998800452035 0.9261470275544402 0.020631909452998358 -0.27147556214744906 0.6199403441749424 -0.17397494764207747 -0.134739000933972 0.0846642644936833 0.037421353529125054 -0.24980699567919373 -0.08520999710359667 0.3378189031330074 -0.14263808979951442 0.34739850287703555 -0.29328618044136323 -0.08319477162138655 0.13581270058077882 0.32945848980030706 -0.30155252357856976 0.3339671521134784 0.40440600754488554 0.5793095690669993 -0.39793685953910246 0.3316960314679178 0.12086091530076529 -0.565347190185912 -0.2909415611027474 0.5293565292198542 0.4983373896248691 0.15109158202439799 0.5567062209649937 -0.5202144537360076 -0.44353061260648685 -0.3770308614428729 0.5878654477202166 0.5486016148248791 -0.4843543167892713 -0.30121865607960907 0.1381797477267086 0.16238486678551256 -0.19505710044079252 -0.46471179081624614 0.13464883497767288 0.019424390841744743 -0.2617868591169025 0.4547820151669563 -0.2260157855682858 0.5957024478555688 0.20290041832835148 0.27569850333440865 -0.02558031550365065 0.09353859555013916 -0.6777848101366623 0.33860671507733914 0.4103716175536274 0.6753355207369622 -0.04265241539419951 0.45167070879121934 0.12732422229602922 -0.11964582987657275 -0.5740243055115285 0.22281062354799053 -0.10483248748045049 -0.07083578871298297 0.15886236560013806 -0.3674080773945507 0.03556325158212984 -0.39004821750903096 0.366599056372933 -0.40113731765043636 -0.13383743298977124 0.13956474028550014 0.3901034515987657 -0.37140044298878433 0.4484035609969823 -0.30761847311794366 0.07077641599731271 -0.21517676777621844 -0.14581459396672444 -0.0856146403085512 -0.35870824047082084 0.03392610001045872 0.038733368201698044 0.1874099569370594 0.3825349532495734 -0.0014751643089115985 -0.010084970318788009 -0.29941602220126073 -0.4325982544886762 -0.12942102409911768 0.24177674274456695 0.15613235226692587 -0.2579498785067225 -0.08287527113681015 0.059712082610689235 0.18558049059963821 0.17144641190296384 -0.10858389286138914 0.2431985489745897 -0.11443059042138937 -0.05552816619671486 0.31207565463402626 -0.3132705716013829 -0.35691840475935255 -0.3905609220193469 0.24769364121289392 -0.290406961676691 -0.6114574994407359 -0.37740433632207 -0.292211406116392 -0.14740157083539443 -0.31452807009702 -0.205065949651026 -0.07467390596979484 -0.38674302486822176 -0.19212368354263473 -0.3737148746982931 -0.3132727919399849 0.005665560300221867 -0.07369225152051326 -0.1235227552330356 0.15878061786643435 0.15301241500805704 0.27167124136743126 0.03291870256791252 -0.019376067003903374 -0.2295488977493344 -0.02047323595387729 -0.22372995002606466 -0.3778322079509087 -0.15110784204750136 0.20115234436078794 0.32593804279416105 -0.010559365467058456 0.031361089171110815 -0.5617616741054487 -0.36602328187814115 -0.8905418890092022 -0.1102137539733729 0.023103449779596528 -0.5187196483190151 -0.11799035019996289 -0.8063778264296004 -0.19348411028761756 -0.23718277159265386 -0.10811068889429637 0.16973991248477718 -0.1811571046943423 -0.5785910752882308 0.031546459141758014 0.1343396816515299 -0.37590991490361925 0.25322074532287564 -0.26346273137214826 -0.45544066902306457 -0.03894451023828338 -0.04267971321662667 0.21463979342428477 0.359681778296619 -0.4445404148081591 0.09902452810856023 -0.3818720967498043 -0.11031520351197233 -0.085646616466746 -0.17268779525878858 0.05123471831075953 0.09739361676322186 -0.22049271050518154 0.23163415444072555 0.21590742243449043 -0.22778116385776367 0.3518753769288364 -0.38593791196677973 0.039687231134978664 -0.04798516119228168 -0.4626751130718279 0.2562951779611602 -0.22316820700931056 0.46300795475788176 -0.4468157652258246 -0.2810607103012831 0.25905135440336724 -0.007414603751939031 0.029790931952068167 -0.36126611020485566 0.3198679039183802 0.2303913317179629 -0.3267115354455523 0.22926658926332422 -0.49293838126258815 0.06380991257632411 -0.3468188873856027 -0.11544706450075429 0.03920162071125663 -0.06632629900142169 -0.06522935766654192 0.1193326090250935 -0.28103294476384155 -0.35559002325910166 0.5445694914948946 0.4152168039567956 -0.00462204621365707 0.43069999644182894 0.42354327010210757 0.32356779046147377 -0.514151812149049 -0.13743900297336958 -0.1780143139584428 0.3509660435179678 -0.13438262941544465 -0.014102405364519344 0.26838127806437695 -0.3128558031061921 0.16642021398986548 0.027712095865293152 -0.4863597379009245 -0.2621779802909362 -0.43827229064731876 -0.44072295789578136 -0.13459726324088156 0.0012582173866575903 -0.361940326159747 -0.5410128613792939 -0.10260822416374102 -0.1391717451729576 0.23039960318402558 0.6747538803020668 0.02248993650968583 -0.1630053635989758 -0.1557250668705925 0.5599574701188894 0.0917165626366727 -0.29300296220773553 -0.09615750511406745 -0.3208086462468794 0.34582450705784484 0.40429062215050493 -0.1698359624107153 0.3888150825187593 0.2873215855174188 -0.27833786860473453 0.12549114207358106 -0.11243959692504478 0.3512152570185591 0.3690204833505499 -0.15575515315700303 -0.5506618254479139 -0.5028061324882349 0.14645712631605048 -0.1253165881005251 -0.49511762765373923 -0.7310923382839596 0.17660803604340827 0.3266672725772571 0.2840082518423548 0.5135385673541909 -0.2647339166411395 0.490927435205544 0.15751180645635898 -0.20972405223568125 -0.1480054244416767 0.4585019298053132 -0.26358234150573717 0.06602999298079126 0.23164729740290868 0.0679425508267304 -0.3571021592559789 0.3032246694043834 0.03007414505994721 -0.31013782640682264 -0.335928147952386 0.02030746402807027 0.2135143924633968 -0.43585171768786485 0.17977959739388308 0.03094504759778877 -0.4403761214660758 0.07727190154543179 -0.16878589696074991 -0.002557505150390256 -0.34247183500726963 -0.11083377153602289 0.5199011170733221 0.36400707940421884 -0.2616603547676768 0.4029538849873949 -0.2616613818421737 -0.04970685581313891 0.48908164990535863 0.1406035290354435 -0.29608126621254705 -0.38912730173993026 0.023341098041645414 0.0810496482762858 -0.4888096280482719 -0.02098640122487483 -0.03312909511517337 -0.15840704934759808 -0.10273674827389101 0.30587759868928366 -0.18747175987618664 -0.4373774307627875 0.19430288931876624 -0.36213751437381986 0.10741799025340577 -0.04371473229591489 -0.4378767328474105 -0.47712124890782265 0.07154486057104317 -0.2560177279389138 0.23934641955174185 0.03206864906629832 0.44731325264197563 -0.34744431022560357 0.016253473986034273 0.20947801055448068 -0.4167759267716601 -0.36297556695440203 -0.01730650749983975 0.21346454529885495 0.4945265737419423 0.0581615860332364 -0.19580386064947408 -0.29726351051272226 0.49201727115409055 -0.08213601435018603 0.10403390854081662 -0.44184139167817615 0.37658393302336024 -0.23272605318150652 0.238492600722785 -0.0913193582013313 -0.05682742902492599 0.3873303192412413 -0.10071864582218093 0.3780345564149434 0.30654684320748893 0.4314139079263169 -0.3883300885450323 -0.0961508246539961 0.384830773689666 -0.2296789582282307 0.3763157002019484 0.1101660128401587 0.21141178504298774 -0.4675535196716005 -0.34956509639324107 0.30033807426731907 -0.41142089766286183 
