0.3552321147277091 -0.13641075896863641 -0.3253892875785497 -0.45800947481472887 -0.2890490552369185 0.2613359493816726 -0.053152171747531396 0.2865736371463692 0.3079215983933393 0.18592278643316007 -0.3242371419725498 -0.24491939834945764 -0.1082506123265834 0.042137239413477356 0.4452655754512942 0.47612635631035727 -0.001633791053309963 -0.055826923713848786 -0.3191455541434486 0.10060244943282515 0.3193564997996293 -0.13436477735262375 0.3198554584119728 -0.4331950701928703 -0.27789880574665227 -0.315328266942844 0.17060668196605389 0.39777911113876185 0.4979970626103072 0.31920356587164467 0.3932741999395486 0.021457504668673688 -0.2297384939730126 -0.2502747970330309 0.3331937933278025 0.39043009261509876 0.34742146078106373 0.39506665945234604 0.04960341241826095 -0.08571249043456161 -0.29728226618489173 0.38539699985194353 -0.4191189142181819 -0.42842710587359 0.05792650807757449 -0.4018820832378369 -0.3272591549660121 -0.044158238812311845 -0.09003848755356647 0.3042175677356235 -0.31572142347914556 0.029346866318398668 0.3241040561705001 -0.06227331116877488 -0.22628400165622187 -0.04009645551103336 -0.14999778536224417 0.012299055700320416 0.4563205777779764 0.25015808635786396 -0.3416676234526599 -0.26200664558215736 0.044632159443171115 -0.001991044106375628 -0.1597560107487085 0.46869386984399336 -0.046803888995249746 0.1183032962813424 0.2702394384090503 0.2546325647718325 0.145195408229874 0.19246197061877568 0.06733275019510594 0.28187942205248884 0.23608565832086792 -0.17822502469126233 0.17266444564550593 -0.14297728957019148 0.0779221283489866 0.15322570845796668 -0.15962372203495268 -0.3770939255555755 0.2556242904452609 -0.21967974303184834 -0.2930789065843198 0.3951952085072654 -0.06009122487272456 0.4185399974274602 -0.33670729422171064 -0.2619303625080984 0.45153040375668885 0.11927030860567545 -0.18187933909420903 0.020487169777874712 0.4212609030276502 0.07974721407239516 0.3336052038242116 -0.3673194059888469 -0.33701694155609485 0.054350426446433245 0.08509212618499323 0.19195006264873554 0.5144991154160354 0.5225709430479196 -0.12356757056140712 0.4756622978894773 0.2862654996415757 -0.3969523286044487 0.42875224340707396 0.07914582615063315 0.3808975909246396 -0.48461612303368595 -0.33137462233949533 0.18794050275043095 0.47430843002004863 0.2503905459095218 0.27623702955683277 0.11072432003625562 -0.211861938749083 0.19653956547580456 -0.024014474035558248 0.4586989199327437 0.281117082437542 -0.3869889946728401 0.17932024590458964 -0.17546652744174196 -0.13397127229140732 0.5879441085393243 0.31136174167006286 0.5803298252920481 -0.048352005787357495 0.18811954738481018 0.4332566287650061 -0.23800224456512545 -0.03320976622841744 -0.2179968960215197 0.12148629426248152 0.4650586512402303 -0.032310757050964645 -0.33170213444645447 0.1611947084304739 0.10179345030719633 -0.009133874267118092 0.421050445594533 -0.0137583816682507 -0.22683224896408977 0.37077935821250496 0.16687828614041475 -0.07248160669635897 0.3514483258996195 0.6080271966612123 0.2579026115489059 0.11467033577455507 0.33230540368361994 0.4552187454839794 0.4059958800821692 0.6978689891368891 0.2843713605344394 0.40587014078878675 0.16862995267040679 -0.12931011332047523 0.44029565739130505 0.5205377891162489 0.5497212438672203 -0.14681412311539704 0.02287736955928068 0.3786430469693737 0.35657314448659305 -0.2675253999133993 -0.4606950375333638 0.1096635046586052 -0.31794588649163613 0.37230435039471693 0.04971608438870957 0.26628433030618853 -0.28644586740540934 0.1116144976370507 0.2859652669598873 0.5099666399947713 0.2988945015014732 0.29526500643307585 -0.6487741419526539 -0.2012687020736927 0.330786230233318 0.09776884237910317 0.29911472372403614 0.40051348513019674 0.9747198024531522 0.3753451452619794 0.6860460992621108 -0.065775481062005 0.7129880072881032 0.5068436759837937 -0.336215860098008 -0.11337664726742291 0.36327137957614497 -0.26788060771785904 0.4450487888221606 -0.18091266609906087 0.060663364297851144 0.12294704356498691 -0.1489863162589032 -0.4304710515413159 -0.05799576790657272 0.6163059959053068 0.051410312622083516 0.30409036366121234 -0.11489889757568378 -0.12643680428684956 -1.0371656139883805 -1.1230574619125706 -1.0841623415163186 -0.8120938836546518 -0.07499345167563402 -0.9561144528192428 0.631833650691587 0.2310934263065864 -0.27452794228419714 0.4257875547496475 0.20689555929262593 -0.19298996411831534 -0.15346143274956434 -0.3036662139684649 0.024540986756323324 0.40129060556764173 0.18974919371848933 -0.28691307139111444 0.05814200922405277 0.09893627136909737 -0.2545656562243392 0.06846755143495686 0.6345773842765506 0.3077978380988541 0.35804976086108925 -0.048405387408590725 -0.4098159017605072 -0.2845228819446545 -0.4255268817015518 -1.2935188281225163 -0.18422990458885607 -0.4742546680138302 0.1870958109537029 -0.37882614980034307 0.12637724574285863 0.3104322195615775 -0.0462017811375118 0.5350744379842073 0.7153566652796894 0.02412131223377544 0.09706198031707565 0.08470222814683528 -0.2113700615008577 -0.39847482394712924 -0.17598020009217058 -0.1442470770388902 0.19162123922754626 -0.48602830179907774 -0.03871663837907776 -0.22538967934990503 0.3966254483817922 0.5538818126287677 -0.01637288671465328 -0.3441369458157948 -0.03005302259674387 0.3151038292648243 -0.37825545175040987 -0.5034707667412311 -0.46086832311182635 -0.2795989447124021 0.09830944398234923 0.33335211689919736 0.06370032697801596 -0.12518346116648238 -0.06663267051970827 0.3835325521832074 -0.32212515084900706 0.348629590255871 0.3831133022687724 -0.3725058444870891 0.3777964984746187 0.02497542228003404 -0.4191767292121438 0.014650532547705482 0.09021001298859022 -0.2404656811168143 0.23282805374514265 -0.26323409070932857 -0.16061478292709902 -0.07453246207160212 0.364282233650339 -0.2830911378843441 0.1831230920862616 0.0001323557388019202 -0.40021788332159425 -0.5392635533938979 -0.5722946728367235 -0.5334845440315528 0.4244371550599199 -0.4297663579023046 -0.12698987435938863 -0.03870278098219841 0.9058326714744239 -0.163580949984844 0.5940093076639447 0.2843675205899195 0.4735871908362859 -0.13869720881784148 0.3369479290178702 0.08229812135681691 -0.4576466930459071 0.10060328110246043 -0.23377622256005326 -0.33535756284260193 -0.18669991026943916 -0.130728711807436 -0.3244768046950584 -0.4847639661201623 -0.02719509957053178 0.5713473043852364 0.4683560423863035 0.19538511631648478 0.380725414033847 0.17929300289706898 -0.6969580980392126 -0.44495502405271276 0.3574132307158897 -0.3747411388861574 -1.0446309422459756 -0.08732596696065052 0.03389275919205415 0.10811935323627739 0.11434953179768759 -0.15291202520002922 0.5332984083114423 -0.432007710808885 0.3841839905217799 -0.4957527441714322 -0.14723534057943288 -0.02336557339525347 -0.12422587688486646 -0.22716477194088378 0.24029480470233042 -0.18766321611299044 -0.7507066984703276 -0.35558071787920786 0.021965634358924783 0.2677092931098724 0.5516588483696604 0.35192710682602135 -0.06576896584740696 -0.1316568317444915 -0.4454787182263515 0.13228578188666054 -0.1765460103069355 -0.28029639634571324 0.00885835462505361 0.3003934623359679 0.053499956832609254 -0.37523770033081866 0.23768061346459465 0.18272839213076128 -0.4796776587911118 -0.1707021754522211 0.4975922952862599 0.29301040421197155 -0.19530811410513305 -0.154813620269463 -0.22809976910200716 0.09034367870452135 0.6428111118634643 -0.16862866630479018 -0.4648444934023722 -0.40707272608961614 0.02698626416841666 0.3757567329011412 0.641608714550643 0.6659541211756518 -0.29053109710621833 -0.028858713152538816 -0.5199264844438828 -0.37396967965080447 0.15905519393781742 0.08876983135691685 -0.49286804438969456 -0.008070743559484303 0.09243260563969355 -0.0537404610107569 0.3281012890530592 -0.06882697805354397 0.2577863124167787 -0.17709001682409017 -0.13372949230744147 0.17557237171362883 0.16189315022322603 0.2474172455740864 0.28942960742680435 0.18484991923684935 0.13032135891685162 0.14835762445497014 0.19609170641771542 -0.3574614049259726 0.3561845961022725 -0.34754466761036773 0.1081469765738065 0.3593894553673033 0.18430466723700348 0.3160517841685407 -1.078181511803747 -0.28590502304854415 0.03857236412494537 -0.46251882558213436 -0.4929302873302026 0.22516987982035752 0.2132450310854346 -0.02204006570700336 -0.4694453293276995 0.17491674974761462 -0.21158650881262786 0.07128022031212296 -0.19031942603446994 0.29109871265921883 -0.28391416376987944 -0.12217387816220249 -0.25916329298336577 0.4401253340212598 0.41312494251079546 0.0067227152582144956 0.2924296283716919 0.2599565261768766 0.6283236381168943 0.2002395549778216 -0.1475579049863246 0.4422274059914972 0.27200640931475006 0.4593623915150571 -0.3015611458161244 0.06625070713655463 -0.2689963566001589 -0.38783856059881744 -0.5519683069387513 0.013294004372027142 -0.28909379862648343 -0.39343690834755934 -0.03183284835026751 -0.18067899680181795 0.028743811705493737 0.029265265628127878 -0.17282509721837822 -0.49942643367990314 0.2894319646724486 -0.3998878440705086 0.38272423556933344 -0.08185284661097268 -0.1976872875490336 0.6659135296087668 -0.21462270112466414 0.0016436867537350133 0.46848815653532727 0.177314840642373 -0.27680867457990393 0.48561420289361185 0.1827178093046535 0.30495917769603825 0.4058930617277619 -0.4226258694199273 -0.009101083860685573 -0.3902672908877301 0.3741913407201576 -0.2534983877675566 -0.2510711423646392 -0.06510076076467486 0.15001003806373084 0.1735776031870444 0.20500728900386972 0.12458243181835678 0.025352584046170343 -0.10912990672881318 -0.3845735489379586 -0.48823985948790116 0.04527240893826762 0.495232541158296 -0.4195796854849618 -0.09955374362049663 0.4694609848267646 0.060781582649514415 0.5030025435498011 -0.1415521640997447 0.04913321947756481 -0.272075179964116 0.10638601671110595 -0.03688080854874003 -0.18416735928891234 0.1268059969194695 0.0162935382224896 0.23112639804895282 0.3726209104430791 0.31885573556006935 0.21620420771528287 0.5252184846665455 0.36084318433761353 0.11792965408873408 0.34192354377625683 0.3841137452299185 0.3084773679926235 -0.29124764226727307 -0.18932694200722788 0.21222102001332643 -0.2401938550371957 0.18583239836777932 -0.0794733320274284 0.1134653848852166 -0.29854795281192803 0.4138935300191227 0.26234201025351267 -0.12863115804387845 0.06513739973888286 -0.24146373118596073 0.06306070005483622 -0.3541996636134011 0.14921889218748055 0.06973207983951264 0.4824039462519565 0.38338415124217196 0.4724389381194614 0.571422255817767 0.20601032170750697 0.30956470888280596 0.5321984655693172 -0.13221290410264736 -0.08041565612497091 -0.3656132909416979 -0.46788217596065995 -0.2848486486299553 0.25172267241453605 0.10877465189892899 -0.12615926516579112 0.10529852949620282 0.07706683025678018 0.3807292064217792 0.16471127088334706 -0.047118291818139875 0.36945230862528095 0.3390832852306642 0.31684457723476434 0.2622746317078689 0.0453913916287036 -0.3084300547830724 0.2112582457110063 0.5431762445461222 0.9363223904437187 0.24366707248229985 0.21807172626569227 0.5227769157920528 -0.12046871809501067 -0.07789531220292178 -0.1436965502663586 0.12874077789338556 -0.28115361372842645 0.13622315456552817 0.12249040496461827 -0.22227423209997965 0.31581290814958707 -0.005609826113663119 0.060987843353431104 -0.4761432842948363 0.21715527909814217 0.20143702387367646 0.27747793301254015 -0.135406719399632 0.07640584951498222 0.6909916573221229 0.1826580211337224 0.50171911202643 -0.05273540010456183 0.5074322421374493 0.3077852861758944 0.5845007141883618 0.9473269760821547 0.8602470064332067 0.12012732654458368 -0.002935649224157463 0.4899941160735276 -0.19681762503233777 -0.421357031777065 -0.28016068652372267 0.4517673349990357 -0.13736106699863368 -0.4420651991392085 -0.21976111517976116 0.4131516006140047 0.21105435605320033 0.029875106558476694 -0.5038080758838752 0.19662195585793288 -0.15346745894263267 0.5813073496654837 0.14644336430492624 0.8726165345469171 1.1797387369991053 0.2122143542093544 0.8860089415399026 0.6689262510973997 0.012765828422664955 -0.3194843078385558 0.5710969424614564 0.5089257481321952 0.54769003911828 0.7056608587018436 0.4200572405245828 0.09157963365196435 0.38916220532673795 0.28512379225510887 0.27133218594919345 -0.3556994804872951 -0.3885964952421247 -0.42545336730980665 -0.1297972149497334 0.06675656109273342 -0.4712309477320221 -0.13262560090973718 -0.057128136571263644 -0.2728488980953551 0.24909842280456124 0.5441462998313433 -0.21646625675731598 0.27302230194509175 -0.10232309689703688 0.39919824537443444 0.6234559372905236 0.26563016468331174 0.004805475733533638 0.7455759488050716 0.06712817160265197 0.11926572053507958 -0.04895088796536994 -0.09741455525320215 0.3290064849768869 0.1378341992637003 -0.0778890034238065 -0.038082219609194654 0.3489172621014893 -0.3239769075296713 -0.37511537678012197 0.2784247421599578 0.19379101530945386 -0.053049673704244404 0.4943625841528221 -0.34297606822301385 0.5434487237899641 0.10967308213305552 -0.306322567063588 0.05437194224946661 0.24458921665334152 0.22532041810898695 -0.3735620577849585 0.8464263962555468 0.7599416664989047 -0.474959837731173 0.2242654681950586 0.6034909689552305 0.6051854335852338 -0.05154690245506617 0.06186710559816617 -0.2839702408915544 -0.12283931196094593 0.07652328222027856 0.2413237033590692 -0.06873269710417917 0.27113162111953404 0.30916288012758525 0.047447583649931846 -0.46900966886047146 0.39195589983941304 -0.042557069212761145 0.4148698386501547 -0.2309150464458124 0.1568531327684242 0.6768587563812846 0.4072237646024195 0.12559799015369477 0.46781664668796064 -0.15225319141291557 0.2584067488448746 0.19961622948265906 0.11124388596476768 -0.23583900608051306 -0.08897212122146386 0.2438418287920043 -0.6580704415250611 -0.6029010595689591 -0.42804624073533176 -0.5373807917592732 -0.43002906633992416 -0.0975524072051068 -0.20600388871958838 0.15740044928908314 -0.02804704384419247 -0.0195927460853236 -0.4735252543849138 0.43386361069052504 0.05451661712564426 -0.4392099445542389 -0.4580133690247591 -0.23983066908618622 -0.3507859182496351 0.014815969034743033 0.09538256346983011 -0.2364961374259836 -0.24684259207203416 -0.26986136793250065 -0.4915461801282417 0.19284507857811292 0.04477356124263049 -0.13005562166627832 -0.10542023128048253 -0.44477878622653677 -1.0899460185059446 -0.5586390368315772 -0.18980235094572195 -0.20133349328893135 0.4159852687685344 -0.335188646743954 -0.17752230503883978 -0.03130382104128815 -0.07878425331885963 0.2882828030332041 -0.026880111936596673 0.1953720900703687 -0.1397358347702924 -0.4714156218593578 -0.4887001353347069 -0.26958976206409824 -0.058258698205578274 -0.2687218727195161 0.22218279081368436 0.20268614360200118 -0.38750677317189963 0.06371222061645922 -0.06056013592166421 0.003411465977600093 -0.3095594984257796 -0.16735070017747802 -0.06289912384563885 -0.8533693197890968 0.1941622910230419 0.03287078575219766 -0.33937185809806275 0.3038606980859349 -0.1913476425376325 -0.3413807422964982 0.2315838285347509 -0.21552875515273384 0.4108766588440408 0.21165812162366726 -0.45189526875734376 0.27735830508850257 -0.36162218205480934 0.41845844900937246 -0.3330487637727816 0.3457476876609007 0.2328969869113674 0.025156825532537952 0.28125443172202413 -0.19643482256148603 -0.4055557171352763 -0.15609422142533136 -0.15350923157037222 -0.49574471921214947 0.33605585327527476 -0.07788622641061738 -0.09544623077138399 0.40181838987410773 -0.2536643000555633 -0.4294196122691706 0.219098731019021 0.041146350727420594 -0.19376356990070254 -0.13465726486664742 0.28812222898748363 0.4567040429011956 -0.3773240493164305 0.2922533067604107 -0.35368168467540917 0.058934216979081744 
-0.458688038879254 -0.3806652639906364 -0.44126774280666015 0.07850513775682066 0.20146628627489738 -0.03312087753034554 -0.45919624690218985 -0.2693053253121924 -0.03899792519271772 0.15027876197422474 -0.32314852733190236 -0.46206096694083765 -0.21572002075553498 -0.17944046214472775 0.2944791220053177 -0.3248911649269539 -0.006675579159548528 -0.3476339838095085 0.1445173363032497 -0.02187115775785231 -0.18541228333013682 0.43496711987143 -0.35911525844385095 0.07758978149763596 0.32766868319397924 0.3812249682040866 -0.32164904658357085 -0.013809076743962145 0.15790699896096583 0.46742644186190596 -0.33822687322275413 -0.29596119982533464 0.150214956600501 -0.3747425781225595 0.019625289766153076 0.13095857714427683 0.08788005059095916 -0.12161537059780873 -0.22593203539911721 -0.2641188897441437 0.12253416328761935 -0.3341141152048097 0.16529635007707455 0.16210766451017045 0.35493758275064957 0.16161178189678427 0.4572819021118606 0.12931530589988793 -0.17161317410722055 -0.47073559435113277 -0.008630309601573738 -0.03509513773026618 0.46990853069021365 0.3923271636644583 -0.20524725425038737 0.01454735484234948 -0.3431951285297672 0.08947939350380774 -0.10942307198962942 0.4112315644051858 0.12172346609484519 -0.17710523465098593 -0.3808564167360695 0.13251454237151217 -0.2589038834387667 0.16167706526398298 -0.10519072044706819 0.46520392304251157 0.35627427907295317 -0.2617519660821373 0.11004158927139816 0.36122418380244564 0.26500962327098787 -0.3728963787657348 0.37609435512420086 0.16682093929433428 -0.14748996779946047 0.10319519575488725 0.49206682593245954 0.2624225709215364 0.34777335066488946 -0.49634280695367905 0.05727778443254983 0.25463497951292335 -0.028149160270383056 0.15181818189788088 -0.38573371416098245 -0.49019041031671595 -0.48674787197112146 0.23490490799447528 0.002649913285194261 0.2973344030510678 0.3432115349584479 -0.005169627837505865 -0.2307989905455672 0.7290304810908498 -0.3794738129877478 0.38873187616571725 -0.32610898560022283 -0.2361728038657252 -0.5174317733972614 0.16169144828864246 -0.03784634314142484 0.40091841096839875 -0.48502021261402645 -0.47898085072883845 0.36110858697149983 0.4038376123811429 -0.03476744940227605 -0.3751427756093775 -0.36452467213187867 0.32969215678513686 0.3871306941108612 0.010549758994796488 -0.42170352864745186 -0.32016028782430095 -0.31983186831831 0.39431086169382396 -0.29686817248451053 -0.23118458989781082 -0.20756624869510723 0.734847743948129 0.22867349957219746 0.2327497133413278 0.2024747378370198 0.12091662880930519 0.02421383978552802 -0.25664355915466575 0.2403930391844262 0.09179434034889958 -0.3782191106118383 -0.11782375429041385 0.2795401231078335 -0.2779113055903795 -0.1270663432079616 0.2858576205546427 -0.02223846057889337 0.4006831248824062 0.18050795716526946 -0.10837540864891626 0.30676234503187283 0.12847764158106678 0.4786962726410702 0.05327624744101067 0.1337176278608482 -0.1851080665992947 -0.503523927542521 0.35925854509088123 -0.08146671474325427 0.1194844647983736 0.22781962593200134 0.43117121268452535 -0.16199647641861406 0.020704627654589698 -0.42350623217670313 0.5072879311466223 0.10073597565671431 0.2954447878163099 -0.02349359042458448 0.6112633662236191 0.22740139711111623 -0.45027615763748674 -0.23719132816185814 -0.326268621347001 0.11208736631315863 -0.2238238382955849 0.2806067753950495 0.07615573478702176 -0.2639942409395497 0.16850155666725275 -0.3772453014867376 0.3040159431102637 -0.10954344739134855 0.33998907209849877 -0.49502983069179707 -0.28843090848091696 -0.4125000170786185 -0.5057596441808878 0.20498577608145 0.4400039216249115 0.5695250136775284 0.07286543875545148 0.4430557092371377 -0.25087579349524647 -0.10392570176659183 0.4851233027130127 -0.03459280882530047 0.2808283319293109 0.24881718945441084 0.36473383548806354 0.3848398806663952 0.3605229186064372 -0.5483619939793183 0.22657007445554592 -0.31097657684752295 0.2693161394012803 0.34852316105002124 0.249805790341446 0.41256835038184136 0.34051266196861785 0.15465993417233484 0.3640908164245582 -0.4449335371619965 -0.0731229127244575 -0.3445523495029321 0.3391466634423138 -0.29001852890165664 0.47416413948785135 -0.3405623381771283 0.33353770808885946 -0.30246377001140456 -0.26741385977432264 -0.023149471084557175 0.36878158479250484 0.3796342227832257 -0.31291464618742443 -0.2009933730509992 -0.4614488408152881 0.2909548863144004 -0.3365742889649929 0.2454402622037419 -0.3782183951441918 -0.27721351447542486 -0.11067109125810426 0.14630182267821745 -0.06371731663269774 0.4580383339206022 0.360033428638184 -0.23840288515638422 -0.13219948364693715 -0.33476713800142327 0.41264487818100015 0.4669325394767494 0.4090514296421943 0.14360547280591643 0.07455730612583307 -0.8449373084505499 0.3855995015821758 -0.45335486357209986 -0.2563241921312004 -0.6744857397114088 0.2239222824608497 -0.26667984432140335 -0.07853604129796135 -0.021217789442162707 -0.43151005038474194 -0.3978839495353919 -0.6298873769813151 -0.0333364073162715 0.33976736072938385 -0.4640462948766259 -0.4581139257717465 0.20267489453697765 0.367251511065326 -0.16911825124956922 0.06589202109324147 -0.29629258617404347 0.027198435211370074 -0.04537781532559519 -0.14796290928988473 -0.14466027174279514 -0.33056001064686547 -0.6995272732918039 -0.29014918847824933 -0.8913029031672124 -0.2154924889013036 -0.3884640391097112 -0.34408000114455445 0.26640410669917747 -0.4396266238189106 0.14657703403614916 -0.4926051379259634 -0.4028460846988225 -0.43377722088808646 -0.20651801246556387 0.06140837182415076 -0.4154924429052034 -0.06407481391317803 0.3259070639848384 -0.4646583792261842 0.3378929690857875 0.39634793167837284 -0.3577587803212643 -0.13265008700941577 0.15112105554136207 -0.0966084185720814 0.4454358172983891 0.27326215647942126 0.07668865546925882 0.10827756489791099 -0.4575772492406198 -0.1121081873154367 -0.5971160046790484 0.020316345047528925 -0.37078192877545146 0.1470251492316144 -0.13861564237536703 -0.6970633037771755 0.23402761545058454 0.09831632618476607 -0.03287680861989648 0.1293181298784314 -0.3147497320997987 -0.04008410346319199 -0.1829720786179791 0.3196180875310455 0.3156442674384617 0.43814377851333314 -0.25840838026207025 0.037276380191801795 -0.41745554746527486 -0.004987522105902853 0.5160195205629068 -0.33662345717707276 -0.5789197982215953 -0.13541563420314104 -0.22304591599044707 -0.7613503317593578 -0.6199632856599492 -0.3550895166283699 -0.12960650933120266 0.11703811839142744 -0.08684656710809717 -0.2603712108056851 -0.39443257733054415 -0.4720720083606009 0.12553538416463206 0.38886211196525555 -0.6521813195686912 -0.12899681155683024 0.24240617958096924 -0.3539939637728232 -0.1542939524276975 0.09586433847364317 0.09440990055101428 0.2221118837920798 0.05313613075619328 0.23751182330275655 -0.03605234610362529 -0.04367129942478417 0.19437958599093577 0.2778509029279884 -0.5556201853142602 -0.7014644502210297 0.04375759275150907 -0.8643443583867448 -0.22483083706736406 -0.9781936743497822 -0.8085825415857413 0.1829099112502746 -0.06540501921185488 0.34305807309644853 -0.7105523491863722 0.024650322071652193 0.23776570323445373 -0.07972381230709934 0.15745808784151294 -0.29198392110368515 -0.3403716959051428 0.0716891061320988 0.009346870501140001 -0.23157487776896066 0.4685533659254886 0.3293956064624354 0.07250648782246771 0.30251265275686734 0.3561058279840862 0.36047917108277466 -0.08982801842282263 -0.7133412843266608 -0.061421529546642345 -0.9312603889554131 -0.4234417014394941 -1.035839273428558 -0.9264522779082618 -0.3632722661702538 -0.6823885579857982 -0.03806189697734505 -0.46601363136112967 0.07796378537612572 0.04211020710943128 -0.5075053491126231 -0.14269678869248215 0.3446859771517863 -0.1393543275094233 -0.44599609886088726 0.1949505663122234 -0.23078242400118704 -0.541995409113734 0.4167567293163528 -0.44669588389002024 0.2523671975130283 0.34834674653937003 -0.08209516498779312 -0.3610790227989732 -0.3454586814169487 0.08737051131884287 0.008080459351210033 -0.6764127911136777 -0.45590451025577716 -0.6297705409786363 -0.7004229019186361 -0.3467637307066148 -0.223293921645821 -0.06266233910993825 0.1460321547293558 -0.18505004782652953 0.17292663477438222 0.2330841509062644 -0.5728205539959834 0.18640804231931696 0.2849532598444731 0.16475097216562434 -0.26560861358234195 0.007056369394537756 -0.09935688728526217 -0.3798427301839446 -0.49871925889619434 -0.2090439424960325 0.4505976043691282 -0.16131581418283247 0.36210518814740167 0.40236449977035404 -0.3839918795745568 -0.07484244154799752 -0.2706940057811838 0.13393304701533923 -0.031901733819551255 -0.31095175471423847 -0.23363813895778351 -0.00011448946150494169 0.2211298696418933 -0.25096557122090135 -0.3867408443332502 -0.002633178957781227 0.04202146074022201 -0.4594952416039155 -0.5646155217643175 0.1674970442520843 -0.6018471567971468 -0.7699967383053713 -0.46776109969130886 -0.750803677666482 -0.2977418871610547 -0.02593053142991787 0.07635758370036311 -0.48015349520329087 0.07969914669685788 0.2267940146004045 0.4584053667895476 -0.14840321083350316 0.0004059489027405147 0.22957292081647016 -0.019269129292774943 -0.09225954996666347 -0.2593789534240203 -0.5444964493406527 0.04231904779593488 -0.27364282551114966 0.29764833812818825 0.6741870371903583 0.40747339849385994 0.7503345575603991 0.06049323116904897 0.5509967955888173 0.1919647869859411 -0.22877927561070205 -0.32995546722028857 -0.5516499677880957 -0.31260748852846226 -0.32900379146600317 -0.0610945379797433 -0.049248592777768614 -0.3775841891168475 -0.34717738699389294 0.3535147047794421 -0.02078379724628998 -0.1384637059499283 -0.011881368007652937 0.10825455608382276 -0.11845894689252402 0.23708250196332864 0.04612318449440618 0.04244442639173813 0.23425095497348256 -0.03049947605462044 0.2939265218828947 0.19058859951643828 0.4288086813209241 0.6201809615588455 0.5127472802123949 0.2652359640012848 -0.4301594481507765 -0.3576537611667953 -0.24624898606803441 -0.7069612738443816 -0.11771918284637985 0.2778052177388883 0.0032420668389018846 0.7536135872652816 -0.1809787856873875 0.1198583919848172 0.453100753876289 0.00308166894839923 0.22037180782058563 -0.48462127638608676 0.3925705324038352 -0.2235622745943402 -0.3171261725932051 -0.08594865297999164 -0.20906293448442453 -0.2553854969028658 -0.30604342649628696 0.25512078788005077 -0.5548966977330785 0.6469082648719044 0.2208200921770454 0.388275245783373 0.3417306416405431 0.3395311091355836 -0.1174179156286203 -0.27697061496936404 -0.12143874866059642 -0.04346382674007611 -0.500870875571922 -0.23034707518360836 0.24364355593669312 0.6774703588026008 0.05587163172847767 0.19968526694214364 -0.25841066490424813 -0.14169325289739831 0.28067523043581744 0.30865706229268164 -0.13339682543278375 0.3028099765470672 0.18357155732426686 -0.36573013704972807 0.7115140889913572 -0.04670470287666273 0.2535757441327335 0.3066135867510725 0.20234311006595726 0.1942192639470356 0.2907064449146231 0.43027026176073113 0.347044334093259 -0.2896070378635567 0.16174091209920455 0.30659965524328303 0.09324918811803688 -0.5154050298824704 0.18562448721475458 0.4549680111926475 -0.23137831878337503 -0.037166937312776704 0.04935719852862836 0.16264488410966227 -0.11056359416713704 0.46557018885892176 0.31544586031723687 -0.34755211807473096 0.31779312016646577 -0.15983183148026892 0.3324312199949129 -0.192870828802703 0.37741435930769884 0.473727282708068 0.2399065298588232 -0.21408676769037022 0.5836091334343023 0.16579416470082817 0.5810944970552974 0.23226219603678794 0.43004218696445173 0.2874598520131715 0.824994447899827 -0.16905998248496093 -0.3153631488097645 0.44952350263166524 0.1651155420317392 0.36174768073444324 0.30863592463140765 0.25422412569435243 -0.04193214341650634 0.48074948077589164 0.2448937294635572 -0.4441822894933213 -0.11357253111768384 0.023034086530572484 0.3982434332217508 0.4230125731707268 0.3952816834259687 -0.22228500824050412 0.0931116590007432 -0.2921687110206206 0.02048252181689365 -0.24365486975899403 -0.000666150657336114 0.24392471489615075 -0.22115131700645504 -0.5164796304630538 -0.24820280636389513 -0.27882635109981047 -0.38855375189780883 0.5042841440988272 -0.02266643222736887 0.22483728142558437 0.25565231353500306 -0.1842231293117152 -0.10228165155872179 0.70476589312261 -0.25218786323533243 0.5142604613377959 0.030496966203239835 -0.3328553826712276 0.3727259535808982 -0.30756906190234756 -0.10187157463533203 -0.16311933676303636 0.37953242066647114 -0.35339439090442054 0.4379566972283393 0.7157204747991887 0.3561501510640988 -0.4305827241912075 0.25235008622397237 -0.23762725615272465 0.07735413100716623 -0.5875265662572567 -0.22359854955963496 -0.6733415172691819 0.17180439193657926 -0.4652322040902058 0.0942521122448181 0.15455495265013072 0.22252407332865334 -0.04368142837134741 -0.4635276706051394 -0.48082521379263027 0.12386503268367897 -0.432034057368105 0.12076831112746111 -0.275783753817774 0.3722478928592836 0.45432998909616706 0.02476862256894563 -0.4259946670920306 -0.374920341354774 -0.012034338185741717 -0.5271119357387237 0.04231519072469643 -0.2702762957516739 0.09980814306591802 0.21515401919833546 -0.17835677862300076 -0.3680914083921849 -0.8873904651546797 -0.7585346008065511 0.07269762739281926 0.18456539590649554 0.35241767375693367 0.4015277696974046 0.6652088900069907 0.5267131491393755 -0.03356509183348199 -0.2223424559771306 -0.3855866565649832 0.43908364557763735 -0.40498014661232495 0.22774636067519005 -0.3110919939579756 -0.044590718855828215 -0.498172778141193 0.022904729606975982 -0.041325967516444906 -0.018696529565323264 0.10679989181643731 0.10418443103109404 -0.7270581468740341 0.05087614701267089 -0.5589832612820841 -0.5075026556797604 0.07312207532976198 -0.560751182432087 0.0850453048681942 0.08250893853903202 -0.091911763803265 -0.39801147054398023 0.21502753941659355 -0.20251560453838083 -0.024487307719804677 -0.25814012516421486 0.37089405729700736 -0.17998826673965163 0.4737535732408391 -0.32265729975896795 -0.2111958589626572 0.36569325325457225 -0.15386418224275344 0.19814769381901676 0.2015509549440605 -0.012800103286255693 -0.039156492361032136 -0.2903963248083248 0.14136501746665914 0.3737512004829508 -0.3594831567784948 -0.8380550414465824 -0.062211083506891605 0.12033624964669665 -0.1994215202938318 0.5504786705128214 0.22349831644264168 -0.41352033361788554 -0.43672558126464894 0.34705525192361003 -0.23184924087696596 0.2052052447989864 0.13106639771120263 -0.1940415237345263 -0.10697828382733741 0.26189227005266713 -0.3234105450038591 0.2521224896770856 0.44871897346161016 0.4215173419844733 -0.06315897940182413 0.3972651810047989 -0.06185153359175455 0.3133314099699489 -0.2007006348366508 0.24753190511274137 0.07523206652415926 0.08706754391307289 0.2760628597928887 0.26086694938684746 -0.4455626084920269 -0.1988080244461787 0.16960121943632198 -0.07316161599124585 -0.31747586366589375 0.3299199966717818 -0.4591907628614915 -0.32929959647387275 -0.45854075042364534 0.2880868209967665 0.4398577596163629 0.05561834421709653 -0.17750977600509654 -0.4275035421660538 0.40048222648500753 -0.0570528978346041 0.35399419891286876 0.1743523488171257 -0.47025340266139926 -0.3230116002750375 -0.4402816040717694 0.4933861645065257 0.09627939901013494 0.012210904537592993 0.08001547497925932 -0.15093680834038536 -0.19445184044665087 -0.3272838601372551 0.3671037000823203 0.2372362666478094 0.3341694140361654 0.07118116323367729 -0.13216556728221152 -0.1711903998974811 -0.1991358275728615 0.020635728722326212 0.2132728083264507 -0.4390963541490303 0.19070953975288374 0.17794276884957394 -0.44727067676741183 0.35011634258906577 -0.19233580868112787 0.31080848517660165 -0.03524674791405724 0.11937484487147765 -0.43033711190114776 
-0.4192988823363908 0.3622527745768336 0.3238704036785631 -0.419115774225413 -0.4123783467801767 0.33192638545190234 0.44286006357609087 0.18489994667313892 0.13042250354191331 -0.18982421393979598 0.4156248476638563 0.3931439252772929 0.0725011941442355 -0.24985960473285107 -0.20114046258508878 0.4112711339381363 -0.3905281395105682 0.3078542843142966 -0.3120659352263849 -0.17289311022194276 -0.32745323471897547 0.07809539775437446 -0.14246285225107724 0.20482933667503833 -0.037962808490957234 0.34424530685982313 0.13199895336749168 0.024099513447400356 0.3564807981461242 0.22552312392921958 0.23362705338473444 -0.18900613660602272 -0.15086784467483538 -0.22245919384990964 -0.338317619245616 0.48946872742602576 0.07623601948547964 0.04752040058196872 -0.19581279247923256 -0.1576853193641047 -0.11754313022246765 -0.2045098019852205 0.45910711625261713 -0.13161707061757855 0.16690775353358034 0.020433526128626256 0.3049184479316017 0.38885197333022625 1.0052919278025207e-05 -0.07808854125597631 0.03451171721144897 -0.05433970042370739 -0.44952224890121917 0.3733191454272956 0.4014572646454896 0.33457766154156865 -0.24126428388773735 0.23756130511057938 -0.22984542837069188 0.45100657373004394 -0.49917535430851645 0.497292880359521 -0.25888257657136726 0.12169106119834949 0.2782901705260966 0.3496068213965472 -0.21070850240685277 0.20945576479466468 0.19804973741208834 -0.044352466030203985 0.16108477855889158 -0.2683943453940561 0.120426478025857 0.18258332584733664 0.13834594981168402 0.41520527338945656 0.47707059269934576 0.0028469066875713798 -0.47553853725652984 -0.21843552740254024 0.11265344726499826 0.18758710075757357 -0.008377466062540972 0.22618636289210725 -0.366463504441902 -0.14611198853282292 0.05638048010522423 -0.31750997069644615 0.07312108040533405 -0.409767852215127 -0.1733616418309527 0.13960625805249524 0.4425821635747635 0.42937962717380274 0.31261161924861364 -0.000261234456210109 0.1670634039517227 0.13235930351982655 0.005239589897804995 -0.16465698947203428 -0.2851397562595666 0.00046071191803263064 -0.8435178672073622 0.029805188003100593 -0.31520532687839287 -0.09244309163566859 0.09738426239779098 -0.23112897418097222 -0.3850931740899288 -0.3277766140174123 0.002372445143656532 0.3933612767146992 -0.2199444062154604 0.22122459446478226 0.12893347081327378 0.30158496178263594 0.02751337388979237 0.362396618571568 0.09781332586532805 -0.41402645282561445 -0.1432156714701714 -0.2738839149783054 -0.4139907754045202 -0.5087372876783331 -0.5956112981617507 0.10490561370596589 -0.1381187678667532 -0.004326582846565212 -0.07015246946434017 0.07318934916062067 -0.06465746627255191 -0.5155519386681512 -0.13746056316499286 -0.4577754189884204 0.25905262852922833 0.39078780071777486 -0.147762204121181 -0.34964579496419734 -0.3259222548669086 0.4031675570480505 -0.05025611690963583 0.2310182722191383 0.1951959441667781 0.39978687227463827 -0.13263798183206094 -0.061187662538753206 0.023623965955052142 0.06893740232731914 0.030007386192181244 0.12417333873715201 0.10624850882038976 0.3072044525342871 -0.6583813491161762 -0.4077956437968974 -0.07828284295563444 0.053358130158226505 -0.06925042765743533 -0.15360417059832626 0.6281653611829756 0.16008398341924232 0.09216112882040765 -0.3076324135131281 0.1862294475288784 -0.5228722484913193 -0.5264802337187726 -0.5707381398244963 -0.39312160306446103 0.31789246002809923 -0.05500301728030821 0.3016231575105224 -0.30704083658973746 0.07083434475888344 0.2711748362704708 -0.15706762462795879 0.015387642522764733 -0.17310729900433983 0.3742935176909544 0.25170603018925947 0.312002381281819 0.2073372140297845 0.2471493295121477 -0.6144187584396258 -0.2823777944116546 0.3050657573971456 -0.3665448311494538 -0.43546275573881954 -0.00781413573281082 0.4264822406757634 0.18336306929937327 0.3869580061552116 -0.372808013325795 -0.5140394788164759 0.4210354275395823 -0.34616895042849444 0.033480025682967145 0.20252794930964968 -0.06324991475780906 0.4639053006799363 -0.10380974314279402 -0.37770988212910506 0.005950352986189719 0.36135888586207277 0.29608595299519574 -0.5242050413048687 -0.28036668697122497 0.23876516107112206 0.006226618380655109 0.060959468389289125 0.10456803549334899 -0.14166224226276494 -0.8644111688775244 0.24287497472649874 0.0782781232572932 0.05165716356558398 -0.13436693177759212 -0.09826704362790352 0.1506703282305996 0.3984362203831331 0.010851759630955523 0.06688835084174624 -0.03603750765332116 0.12144679431249382 -0.30853181148377556 -0.4291860024544165 -0.18200786795534785 -0.020203812669956037 -0.15979076113378737 -0.12240088350119153 -0.29228448803283874 -0.3543980840777673 0.33113590108716073 -0.3659225497130864 0.19201046868734128 0.09533962221189791 0.22286192030570723 0.5031731921880438 0.6052968424479505 0.17943162986199204 0.23592302473957058 0.17866592488898986 0.3975237390926547 0.2062734298711753 0.7027582222036722 0.35919547450959 0.5099032290265278 0.48336548704623955 -0.26416298288587475 0.3286110170370918 -0.08658417250396544 0.5132385606879135 0.16907802917970513 0.2813570133808131 0.00039148392318588476 0.47914926349382986 0.08394818284709343 -0.17232616516318644 0.10613454756426932 -0.09077589761090714 -0.7552709986885616 -0.41994100234178783 0.23322469964924666 -0.014518595010529194 0.5741560321482791 0.36456204799038544 -0.19919194333491458 -0.3947123245341967 0.053853798463785955 0.10361134903813767 0.23370646694242828 0.013312992277898623 0.2821319139781607 -0.10484803929227834 -0.08518994096335 -0.055883846171212136 0.46102735670897793 0.4057726402398627 0.11827300899466973 0.11780107453684156 0.23953239822521444 0.1898149643709142 -0.2042801026872124 0.37835631261690916 0.40156921452467176 -0.10649902171480302 0.44545077175597914 0.43552347742742903 -0.288640888193956 0.15673903882714607 0.17671735335560684 0.2275961878310854 0.5578088104151481 0.1870596193877168 0.7163118752319088 0.6371303318878946 0.08804668807033039 0.008881259008200455 -0.01098154289448428 -0.3447282227372813 -0.13417410984623593 0.38350947776527206 0.045582812643104424 -0.1014760854011036 0.10051670626145086 -0.0862090183852685 0.19470837140380148 -0.015886154975591323 0.2459707701748894 0.026997698329894626 -0.07516570123244848 -0.07411306368028292 0.3827908196530871 -0.47485779972733083 0.2530809522241315 0.21312195131512307 0.43694732549228626 0.37914134015940665 0.3115250826897592 -0.2755943671906604 -0.16566505201613574 0.44470950737584386 -0.02959597420846414 0.5999209313224884 -0.05191045447757571 -0.4730911369176131 0.1743551902684118 -0.012999084848841005 0.48944852089002766 -0.26796302443983644 0.4257941117435027 0.2538866973551367 0.5471517331878842 0.5568978040021438 -0.06474277686981052 -0.32105926810776675 -0.46452989016239765 -0.36502739537363027 -0.4686282059843294 0.02093179902518827 -0.24578046391450536 0.03403481962448649 0.16468548027581453 -0.29616729730241736 -0.12147943562187045 -0.14376254258510732 -0.10799434002962681 0.6586103434622099 0.2996950063878129 0.3309046024173837 0.3197339198104407 -0.26733246059051924 0.534177307414894 0.3720371941932762 -0.3679788707532663 0.03857975872186027 0.27185880260776346 0.2018296075995024 0.16922899887663925 0.4343520778230106 0.3150580615234759 -0.276198588066489 -0.2793575328945029 -0.37213050856879115 -0.3502017847475595 -0.2954877417376346 -0.1916427018082938 0.496031743545048 -0.33073999301311174 0.24067451954665206 -0.25068654421879827 0.2845522303979037 0.21803197938774746 0.621249472936279 0.5140537910835301 0.06301165154938645 -0.21416265365519238 0.49089663242491266 0.17097494397030533 0.3815267942818876 -0.031931370343250005 0.015150984814495285 0.26955748557345427 -0.3326347144333401 -0.012762744246054579 -0.07579906450628592 -0.4246173459414931 0.36497958996732205 0.27635866859080965 0.044728717778151995 -0.1463502042609179 0.38114063955504973 0.36586343558157425 0.02871158367236748 0.4378619456360707 0.13478502810795567 -0.11901113148274078 0.0877784105082902 -0.347452699374598 0.4044017049880676 0.021815881449857893 0.43181285520148804 0.3471398659909338 0.5572099935115842 0.029999406137892426 -0.15027480954848962 -0.02780009209021299 0.3594511604049506 0.3014720941097761 0.1767440767528976 -0.049567327087903644 -0.5080907268798515 -0.5182734488258095 0.18546940871112846 0.22336281243571834 -0.48770233119871625 0.2067838865828834 0.08721991028378748 0.39385905781091535 0.33239275447738864 0.46993130072497524 0.4644411738278713 -0.4552129977323591 -0.2860405305611836 0.47492889117253356 -0.3473508442898682 0.43238618214831515 0.5611485912903212 0.23990867916162292 -0.19836183342391842 -0.25115311330236145 0.3431422313737344 -0.415621096494526 0.340791273046395 -0.32665689706070977 -0.16455023334480096 0.08309383866568378 0.3337684404786213 0.47484862792102767 0.482557253704898 0.14036817160349926 0.06692440090742276 0.37795049953519355 0.3738725472836319 -0.1404156166063457 0.3986728301837059 -0.29768844970119523 0.491385238576519 0.3095685611274178 -0.035136086962201885 0.30018538763820546 -0.0818244838537655 0.10500580816337346 -0.48728635848501245 0.16749091258582904 -0.11278353409850464 -0.3078242948270508 -0.28839726550701056 -0.22599044623047818 0.27281752905483136 0.17721112373607126 0.1994144659467793 -0.19874549330489405 -0.8085312525742384 -0.41737466935128004 0.08877988192802826 0.516326124181339 0.6202177870658588 -0.09876181872348486 -0.13106889818753073 -0.0010736212786503299 0.11314658573592877 0.027640143544302484 -0.4787071120073681 0.3518358242581952 0.05684145117219667 0.11333700291288477 -0.343056740448036 0.19309249251008986 0.017996133391859126 0.21430144967707088 0.47599259946594913 -0.31704589512874687 0.007298657057459904 -0.21346535768576433 -0.196695161789405 -0.18260293519446916 -0.08799498626095487 -0.08219529887225076 0.031915313876717394 -0.6463074636752528 -0.1323607322181495 -0.3770797149182158 -0.12299498120736553 0.5519375152543026 0.14220318881787614 -0.02840932923714686 -0.4713058886767332 -0.5441511967973262 -0.4460748056893636 0.1461955630875692 0.23237253581292874 -0.2504902735102395 -0.09486295003152752 0.3242341877256768 0.09351769362063622 0.17336949326446327 -0.012051889235660251 0.26094345048265977 0.3658801948931094 -0.45529669786573507 0.007620437136434849 0.09246573329516054 0.40453979723723327 -0.46953470479742837 -0.15474251661560615 -0.042809278513635585 -0.45564197049491306 -0.5752107044600091 0.1644753070628631 0.2298015574555035 -0.4583190081953691 0.0721503646720263 -0.3397135091686966 0.15946180684246905 -0.24064968990975866 -0.7265437570902035 -0.25946250175822483 0.21310458881120925 0.08307934660698992 -0.2554898358752379 0.14029038138417174 0.2695588355348887 -0.31396159568868576 -0.011630989861183383 0.2625754662678924 0.04509050926422575 0.20520082848030108 0.4322247094966323 -0.27085333920205995 0.16568577871380388 -0.46153704546575514 -0.2705533849020297 -0.2221185896748286 0.29279916048026594 -0.7929232883072054 -0.3967559737166123 -0.48340369692984836 0.1483106409244066 -0.28983944225232694 -0.7331705475319956 0.2514773987140096 0.02783044898538903 0.33766935341447324 0.1650857735356625 0.11088293521203438 -0.20783247333649765 0.22396977139715696 -0.23411957554266394 -0.10656238719897981 0.07783808016363404 0.31815782394181735 -0.42827255050937896 -0.45137994903248024 0.041994561901275484 0.258091817180773 -0.2714375135292217 0.3097857298848017 0.5440680186312051 0.07742160795445628 0.05838352971699012 0.012374412584462804 -0.888752322184412 -0.7006254468336609 -0.3368054833079441 -0.09950237470051351 -0.7355841688965007 -0.4927568924872071 -0.3047249014648044 0.2593385684792564 -0.42388021119347774 -0.08567141004008402 0.325623452197704 0.13576391927481574 -0.5887017609640961 -0.37871367190549443 0.09742142382930175 0.08563236787716133 0.024144139480747544 -0.05459938918592899 0.39763720127221525 -0.1759280582780458 0.051136699732591384 -0.35617114231586167 -0.01359578306136181 -0.4471460196287939 -0.16707435615116403 0.391375177854752 -0.20931770051662366 -0.1784639150615476 0.09076830696799033 -0.04874011023305458 -0.6500083431383274 -0.3687054246534047 -0.41182278664290684 -0.030455972146611377 0.474232326289786 -0.1699618121873009 0.3936150575016563 -0.12021634497841391 -0.05323293755767364 -0.376988741526471 0.22735426742007372 -0.5368406479278922 -0.2625041117688475 -0.18490798999607672 -0.06465665999539472 -0.07161327268531903 -0.24591329916727145 -0.22426151450804654 0.15169336723124294 -0.09537432720523364 0.26910975103261525 0.3516298251549604 0.10592684423383875 -0.1164768230388304 -0.2783670121908149 0.20344441506413263 0.18025527566446387 0.545785122855308 0.37487234583564677 -0.22875084597766446 -0.003924670582014076 0.5936958863520871 0.1317598577308356 0.10094381149361965 -0.1772710082241602 0.19156230910892758 -0.3125514673647146 0.545986085503362 0.35618099511971185 -0.5016603532082189 0.21241194438775912 -0.0022011422288176325 0.3218659306637719 0.3683129530083833 0.3006144692923989 0.2891656646041758 0.16222574869767725 -0.24235637118104947 0.1084741002090644 -0.3151035097911494 0.3842385833910414 -0.10961178554480251 -0.3269353309082147 -0.012064475094582418 0.2130398250583094 0.152532016545861 0.3549134964427387 0.6392849693275945 0.32765965491482946 0.40568267909053424 0.6828103837089258 0.36176967317640696 0.4605853340667707 -0.20585784247988675 -0.5208005813547522 0.14793042625021802 0.20435906950223384 0.4550992231824782 -0.46234140078753216 0.4717123868100907 0.4227587683816554 -0.059852073003012096 0.28791596623932214 -0.1868064742735811 -0.37484859088856193 -0.02649180728564593 0.10569344313999023 0.13120327060096004 0.31327540688198546 -0.043598629015294016 -0.04333263393126575 0.11166012493665882 -0.4684212908545134 0.5257883665432428 -0.3582496749770477 0.3801568002813925 0.26049743271333153 0.058268570848788614 -0.32158351431139753 0.5292244297744739 0.5040416740925284 -0.12053116174200376 -0.31575569702430273 -0.29518819774259625 0.08407920262085261 -0.08615348390174538 0.06139141888558599 0.29365750788281536 0.1561315120005785 0.12494968736591061 0.49320990726202607 -0.48651744069366876 0.44453431620103045 0.026057965964416452 -0.03545805130173312 0.13542429371153114 0.2732175738297163 0.510892301251062 0.3878960664109053 0.5758052900367733 0.42595345707027205 -0.3407614351637489 0.3801892585487128 -0.13763673587303155 0.1300460835704724 0.5095064610258458 -0.33929224380458195 -0.2523150773352735 0.29339416968542 0.11570138388791604 -0.4625813932203999 -0.26259704235446824 -0.1352428555376188 -0.027709565504366932 0.22563959444204107 0.00040164446832180456 -0.476530668226001 -0.32078202730351435 -0.17374910301764013 0.008532893165198008 0.3072720697700544 0.045072220098780647 0.3440241243605313 0.10237724357833466 -0.16282113186851346 -0.09197286991652699 0.4122444923310258 -0.2677008111931353 -0.2761049891495661 0.4735202927087005 -0.19047477862084589 0.21520971487998872 -0.2558722940565328 -0.144918232890932 -0.06689214846509926 0.22373413088524524 -0.39611831342633175 -0.36894937776333797 0.47042113619055603 0.26835381985769635 0.019835174312758164 -0.1691135508434699 -0.21121399932682872 -0.45650181565670134 -0.19260808580288447 0.3297211364491417 0.4298907495900097 -0.36947004290243235 0.28755196325628496 0.22694365646169035 0.22785553301571548 -0.018146524522144714 -0.1777763240566873 0.12011103003866774 -0.420824737251113 0.48214346540765396 -0.1615745549639408 -0.125024721955863 -0.28540231242075675 0.1143886899753841 0.09823370664668846 0.13711224337767985 -0.03791225876632237 -0.007060790180979727 -0.41318713639929966 0.26086816924834066 0.39420788656219896 -0.23161300542460816 -0.4391344199695195 0.05041097124855465 0.26038650408073716 -0.27123487135575786 0.39514554655095024 0.2505196052725277 
0.149421823964066 -0.38538626775364637 0.3806955413655395 -0.17500510730834706 -0.38380746776473473 -0.4931661115778305 0.1263551461042619 0.26756079124582965 -0.2809270906926902 -0.24086514927112046 -0.07387533931910717 -0.20519813557729594 -0.21147063253651377 -0.4450286009177409 -0.3100333589959434 -0.27217919556989967 0.32547221976491947 -0.18478633216375784 0.04589915957709101 0.41701946743967466 0.3672477755586917 0.34704349752658525 -0.17216962822230542 -0.3509144651301115 0.040971806414098366 -0.4809244507823863 -0.012562256112889858 0.082702749752679 -0.31365516678881533 0.34231353642508455 0.32773773419881247 0.0008372193706104314 -0.014386260026777009 -0.12713002022127962 0.3769902857720051 0.24961238600339608 -0.34941445853321107 -0.4265857209430448 -0.4738356728055757 0.05926635642772787 0.2994011458785478 0.2501965216391411 -0.3266072534980573 0.06145420627226539 -0.4722293374088219 0.2940016484827419 -0.18938887256487724 -0.027198421190935074 0.2028606216026052 -0.12628079303187623 0.1086390796054103 -0.4154111405924332 0.4573721635525734 -0.1432001664395225 0.2595409777335579 -0.4939444597558754 -0.4009641054711206 -0.16733559517712127 0.28604697300075443 -0.0009299722802166288 -0.050048262724945225 -0.3842915346707787 0.1115271130716109 0.0028978765204783485 -0.1861285660647236 0.13704393461682363 -0.3806927236724845 0.24962720421179604 -0.4243658248463946 -0.3106033375118394 -0.0212686586145396 0.45201782630141735 0.14994159983461217 -0.08858114725654999 0.3031126454668224 -0.16507631417888413 -0.3957604163527655 0.033037127612056766 -0.43786918567562727 0.48523544822978226 -0.27501036455557215 -0.31261656507320623 0.3124525758072434 0.10456818297504877 0.20888959311596922 -0.2683079333669295 -0.04475965988786479 0.311364744458539 -0.34147629333985885 0.04424929267142941 -0.3469203574439339 0.06408359031476436 0.16837678409852988 -0.45748097475565874 -0.5884831847639703 0.02851657807328417 -0.38144607070104364 0.1580285685948737 -0.07271684297185772 -0.3733576474543928 -0.4181413460167225 0.3341793085790179 -0.21137104062460849 -0.17870079306416092 -0.3769905371303707 0.25345626543686806 -0.4989217014979713 -0.3559228241593207 0.22377353771793573 0.11422060968500392 0.3959101123004717 -0.18581565833005897 -0.21436881321541756 0.2549610707500899 -0.32013870827089497 -0.30366454828828005 0.45813996282822694 0.0968530605978562 0.3551506628770931 -0.45748069437196537 0.16265607256537476 0.17469801474235155 -0.3416679079019257 0.2544928379368999 -0.09981763625622647 -0.17416413253267066 -0.3527596139569108 -0.2503843499945758 -0.07867355118921032 0.2223419548277382 -0.0766670369979643 -0.15665136667952523 0.23962050989563075 -0.5655176324161928 0.3191643439772586 -0.13782166360886466 0.03354825050678118 0.3331349715178982 -0.2993794248096723 -0.3056499745772059 0.09650953980854227 0.07107983582061961 -0.26383684346423175 -0.0661118234607927 0.2886189673372023 0.3776351428324826 0.2991117512954667 -0.13653496318741468 -0.021006862748952318 -0.12499298751111847 -0.0239877388670343 0.4456834075236972 0.20604423952819492 0.24269264179454045 0.4282577940442377 -0.2734415467349355 0.2543240194897267 -0.002755392305672413 0.20564820824135624 -0.6110815374700532 -0.05187303135169295 -0.20734888237951865 0.43431258111900267 -0.4064603797512655 -0.0531693712661977 -0.5071619667484749 0.42366151645965766 0.18563987909266133 0.27911083274455506 -0.002892107426914814 -0.42967602242769076 -0.40735709192028347 0.27612983239112254 -0.22745342536743776 0.4328128375810816 0.39701038093995755 0.44038081957304726 0.26153331225965876 0.513266415921235 -0.049523131457197576 0.16557706010842277 -0.44577595650363866 -0.2674492630060943 0.09349797046950149 0.4786633655602395 0.43347047405578165 -0.060695931475347624 -0.023389870824571043 -0.3192514368319323 0.11854122424947819 -0.020395495118171306 0.5691938782741193 0.4972777422115547 0.3404714642875695 0.39211350170268355 -0.26115321404380787 0.11184410157249836 0.0043030089600526455 0.2400326054584869 -0.27684331061129813 0.38538066200978127 0.4162326323714751 0.33614715225171077 -0.30862946227081967 -0.5758367581247719 -0.402112273082612 0.19180936473080917 0.3216507204302956 -0.25135696936589563 0.702188372664077 0.1722931570270767 -0.0775877160872794 -0.21971049025744283 0.7601036041442768 -0.07955332506952077 0.2507021568502143 -0.0789735800147767 -0.053034325721392335 -0.46452614014088905 -0.3349966803420946 -0.0742736601254114 0.11509645602003886 0.12462469242044977 0.0995546281569587 0.2530678292097249 -0.4686183099337551 0.41398109591139437 -0.09833826479276404 -0.48222868705799843 0.09517616727394787 -0.15456562352796607 -0.2895455985372854 -0.14818371174525516 0.2543437131962984 -0.07977377720303823 0.07155509822582651 -0.018204374066510893 0.14954071404530356 -0.2864589599733732 -0.031316629118288905 -0.18566530892556635 0.06396643173534676 0.3173074067120624 -0.571285972963588 -0.5122203991685597 -0.16535469885485893 0.2421499145330288 -0.38650832386922535 -0.5016925065084944 -0.4423569111030395 0.30216026128034396 -0.4842329935678622 0.49719713973710133 0.21137154930830787 0.34602432352841006 -0.1376727096830701 0.18109295332171532 0.19013780557391669 -0.2836130743125078 -0.062458886384518165 -0.5638480316926359 -0.555532931180808 -0.5267154907690453 -0.02311264186131552 -0.08008195243918953 -0.2416825249678534 0.22847642153959188 0.09548453589787216 -0.38467592476092016 -0.35006868644867284 0.060587964308381786 -0.4572013378030828 -0.28759653097273175 -0.3367038343754905 -0.5763988760521784 -0.48874373398559845 -0.5248329727818543 -0.5726843448745914 -0.45237797152676174 0.393056756834909 0.13133073480607513 -0.2818820000800143 0.263712517419978 -0.40816074052287166 -0.17882848738795049 -0.3620342960642821 -0.4620008125427573 -0.5059967695733973 -0.5289899117800789 -0.016910596224360835 -0.6078167802836854 -0.7174474656968911 -0.19880283199084942 -0.6597617197114272 0.4114842525994105 0.18805521670041936 -0.26300289613761624 -0.7098393552666222 -0.4505900725023318 -0.34905061153811967 -0.3679366669841771 -0.6198418941425735 0.016079139777315028 0.4179783709927805 0.08020107323115061 0.1010729926749265 -0.033793108850015956 0.13374808597863969 -0.2559453388108073 0.03200643055428953 0.04454060027631646 -0.024128256035502366 0.24536026784201895 0.21612631527241047 0.006580613155184472 -0.38356580760146003 -0.5742212348532999 -0.029696131362562182 -0.5204496462154761 0.005829558092959036 -0.44806445509690185 0.05696801060555023 -0.004869880450694647 0.619266331633694 0.023565862528933418 -0.09599126454941641 0.11642791987362526 -0.2576541697463969 -0.8134374763812089 -0.6775618976352517 -0.6355309805987047 0.4291184546515063 0.42472749918639185 -0.05105116823883069 -0.10525593440555592 0.48073738456975024 -0.29397414213612005 -0.042509490367577674 -0.3364020503338846 0.4831428995490559 0.3381684542772459 0.4028232817761836 -0.3789844703877284 0.4041789106877243 0.012707030042149542 0.049217750055308186 -0.8230621077640525 -0.22853714816998905 -0.4450841509016323 0.6565093715849254 0.14264595545016645 0.10649195990857079 -0.359779805586332 0.33746669829434717 0.6360059012552722 -0.1155812386153442 0.038143100485480745 -0.17744527339505553 -0.26376321949221554 -0.17239653758606377 -0.38134102700857836 -0.2675688035928967 -0.43220301676052175 -0.04943006274643846 -0.39436179896648516 0.195114497983096 0.2002498749657614 -0.3846584350357633 0.014705963816205895 -0.4805387155541504 -0.5029998703299622 -0.007164403151707172 -0.025837647665267652 0.0632164998322615 0.06667609509727425 0.14827349500687725 0.4017587217366372 0.638042613698058 0.3179894682851745 0.2763597722574408 -0.28621276636138887 0.21382805331989893 0.7860498389716296 -0.2636886178370756 0.03271090607233586 0.027718997779022016 -0.30504398797561527 -0.1687600624001058 0.29739823803468246 -0.36314979765286626 0.013918930495298338 0.22505069114936438 -0.05300510099518674 -0.24960026290893256 0.3307252041560521 0.07487797113982371 -0.5603676516423965 -0.12866742970641884 -0.07900407938487185 0.32918224241059957 0.055343461419189444 0.6586970400683738 -0.2831590018631342 -0.4337778360510574 -0.03429192989424563 0.16519224410692734 0.44785461614125277 -0.003555263695280937 -0.365480667007155 0.30990477718293274 -0.2997252795605359 -0.25308348265750724 0.1670667770840749 0.1697547260426869 -0.26506784977306813 -0.07594907761028608 -0.0029872174549901015 0.21672224136725055 0.42441061500082755 -0.08110559416563667 -0.4051254685181159 -0.204623013608479 -0.313750341501264 0.38675977410516976 -0.36303588684888144 -0.2640297215248412 0.3556497456796922 -0.3962495880468517 -0.23561754335877075 -0.4795449880729911 0.09905167035185172 0.21663520668611586 -0.17725521402480027 0.2985937106063386 -0.05939827068034734 -0.16643071533383874 -0.14875128347804295 0.2788863743754207 -0.09435509603285402 0.33805149741084334 0.16390430475512188 0.0220244198140551 0.2652533804147014 -0.3447673678940226 -0.35240312498071324 -0.3538185451887859 0.16600814364917485 0.36614137360644305 -0.2152238395831788 -0.12376082962976775 -0.1688248782995435 -0.20367845876600102 0.36395217954880604 -0.4977810718409737 -0.1474925889768489 -0.1478496243627083 -0.9110819582249128 -0.12204909953424817 -0.5148766893573308 -0.18157595172479513 0.030197636247040215 -0.04591448556082309 0.11231001535259162 -0.2526268085884669 -0.35535362758985894 -0.5384125479609164 0.42375207451147645 0.28177694497206324 0.37069933476454847 -0.5153385440717785 -0.19487701484894507 0.06914239319908566 0.010035447557241117 -0.37933657486991845 0.24138824800239178 0.1998928058444824 -0.3353315112331099 -0.2945209959055711 -0.13733328044855975 -0.2556268181793594 0.21249154239883503 0.06547071022861795 -0.05773865126717279 -0.43457186850129487 -0.23110668509310334 -0.45596991885791394 -0.6704068617236079 -0.39624797140971607 -0.6207805170200212 -0.18639829049607978 0.0987534127114791 -0.5781799285432191 -0.12882445093502168 -0.21390424392639668 0.468774460001961 0.07648042606797621 -0.10061239729973964 0.14577732383773873 -0.1380978898594976 0.02802044827588358 -0.19214707115420168 0.31511867142599803 0.1596344527610849 -0.3987335391216966 0.45939483508121903 -0.2187152396248787 -0.22752953166902712 -0.3078779040680577 -0.24264295113243367 0.31373233554019203 -0.4407815552263725 0.1382009858334105 -0.2626433504429116 -0.3247269341869025 -0.3026357935337009 -0.9309875881581429 -0.7044883102372992 -0.11797305251670567 -0.3930641966980962 -0.23277381909603886 0.005194107572841824 -0.18020111544830159 0.24777489617935605 0.10396103781954824 0.658455855961979 0.6492493247524169 -0.09291761959566966 0.007390306433787923 -0.2551973847440915 -0.10360560626136647 0.26922807346302824 0.2644869858045097 0.10819013859648974 0.14040263976109202 0.21420832528583555 0.21047659502594052 0.26805135552435827 0.17944807509186553 0.011069850737568162 -0.4813299011393723 0.10728272356615409 0.1726098946934289 -0.7860240817509252 -0.16402305042265922 0.035242591802587694 0.22755099148406469 -0.47108877844468083 0.2180405880636124 0.12142136551570996 0.120538979826518 0.0290300292176722 -0.0811442461674314 -0.15701867273217465 0.5759717327097409 -0.122837983993033 0.17630489158078552 -0.07393200650120466 0.41848369850472694 0.4942090898624605 0.34565364520118536 -0.3195898674880209 0.4910607249866308 -0.3275322290402424 0.031617491730877356 -0.10322680473867189 0.12276567408291844 -0.3481042773814411 0.3742458498673836 0.015420054353461112 -0.2725039170961842 -0.38978890494025015 -0.006199397209821134 -0.10193645718619321 0.09236137579582145 0.37281935318941917 0.6023342133921389 -0.10098333157063281 -0.12430616052953049 0.3805504060541237 0.20617327265398133 -0.021778155486880266 -0.0368868807278117 -0.5809678549418322 0.3373177865810998 0.2955469376622751 -0.3734599405948944 0.2790024604265508 -0.3813898230214746 -0.3707835457209441 0.13714797923492295 -0.14287696341464406 -0.3147736009936317 0.3174096439300946 0.0316985650706806 -0.283134431545397 -0.09365195451400934 0.586448003062584 0.3887844745044128 -0.16070449025116085 -0.1067114052818397 -0.19052385844797523 0.2970080009128529 0.16159836596747718 -0.13500660805860512 -0.41290596028529086 -0.03441425902957708 0.3253064144661851 0.4568134859838678 0.193038479716728 -0.3427676250550711 0.03414144283444361 0.20989121657397491 0.1753328892541458 -0.18572256087998068 0.09519667027494799 -0.39142281808654356 -0.48084512770670873 -0.43611379730365674 -0.38089780670692386 -0.38350413121399296 0.15190474945885585 -0.06368450739752228 -0.3235850176093745 0.0782151939695391 0.28874858951112414 0.0387614364500669 0.14967549481126693 -0.05922878855930468 -0.35277973278338265 0.45991535895981245 0.22447154148932483 0.27706721876021173 0.09021885867536905 0.2481461585606939 0.4481096748871338 0.3294015359406195 -0.31829843692986104 0.24478913430964785 -0.338869412691395 -0.11929000832534697 -0.018095812694086433 -0.03157337603201169 0.47116126442587847 0.025264436975310223 0.47243487004740103 0.18011446547779408 -0.2509744999008854 -0.41903012264004613 0.3057394433561987 0.4212792804992717 0.35067028276241474 -0.532870470185311 0.16658821752620845 0.47890833066693284 -0.48233971688603067 -0.4232402021439391 -0.10498265217980511 0.03420658042748618 -0.2607578311750052 -0.101643213690625 0.1861494968688995 0.24855911777414383 0.11379656957114073 -0.3401848915354109 -0.055446848321094006 -0.2799516736011522 0.2498187258212027 0.33799959572620203 0.3349011181798977 -0.016015466804273293 -0.38525058732566064 -0.49118551325884163 -0.005597419986870689 0.26005179157059843 -0.058165014421879824 0.2666378105996603 -0.32094640117254786 -0.40195672479063554 0.14230581402854975 -0.18781091774304368 -0.17052119013008457 -0.09390697855106545 -0.1346100285175536 -0.06104752033850223 -0.2033394657284631 -0.4694202823445778 0.419787627224706 -0.45231539925359304 0.24641882906792384 0.32487124780995885 -0.0577855142916293 -0.20701817237563352 0.3739005830260851 -0.14204039929726947 -0.3368337965695073 0.1799560524005447 0.17027186376718578 -0.47653111488899547 0.1493217934648151 0.38745964185757764 -0.4220206531193217 0.3314219267644488 -0.09402713283217268 -0.24346148197946182 -0.38523848787603965 -0.3990579510933583 0.06882082739382699 -0.40289881330686067 0.045661391949202344 0.019062112148319 -0.11307011946789938 -0.26437493306726756 0.15942495935704348 -0.08013436360523007 -0.5049749170916312 -0.3662058962235175 -0.7412471096235049 -0.03401757738380012 -0.24250351157500027 0.11505667089607152 -0.4772847203940004 -0.24535281476057455 0.29339883567963887 -0.37453080295116253 -0.14596877045672818 0.37851299077175615 0.3843159564177788 -0.33072796523441217 0.055380733513116454 0.182592838027396 -0.34099342269690447 0.2702023173490601 0.3048135711263569 -0.3425325762400082 -0.3691804094408824 0.15735451443281664 0.38612520057241906 -0.004440801791686716 0.1648686050130543 -0.2547192880367379 0.055666563335195984 0.308556171471155 0.12368400845003037 -0.16821686012093173 0.163921802884251 0.3613344554436646 0.28595595605003843 -0.12084149608614855 0.062085118274193114 -0.17766464598832576 0.42082225919183625 -0.4880471919306799 0.49540743197046644 0.21538419474735548 -0.3419448674489852 0.366569299356757 0.1723387530046182 0.17261134022909264 0.4594955431111747 0.0550574257176899 0.25433109712204416 -0.3705134363893795 0.29297217873421055 0.06458743452690063 -0.30227658929881274 -0.4814468767508766 0.427745089047442 0.46447950311703057 0.4773596170180787 0.2336471134596838 -0.15687192234958022 -0.4548219337918393 0.022106055702672555 0.3254671261762504 -0.24494158457874754 0.06698652847346623 0.3976229091493325 0.22092599134670698 -0.1458468551084735 0.47755729828378213 0.47049460026863765 0.42839616163524474 -0.004128563920970607 0.0068906198605558355 
0.05065735451245057 -0.4311428237426411 0.29821378689589206 0.2961516405978316 -0.261296990170359 0.3459495028183669 -0.4402431567671695 0.17188340756968146 -0.27064755631699966 -0.26828621005402786 0.07128872055254454 0.06291390289719268 0.07553860259426581 -0.030568465943219714 -0.016607611404476974 -0.4878459743808289 0.41864249273357035 0.35286177695046883 -0.033082102875511166 0.4622791121665145 0.25659948755999606 -0.3808670323414157 0.04808297823090413 0.4644896244354517 -0.300018810440814 -0.4499770752655706 0.4669846881970596 0.2785772659310092 0.18024341090293994 0.012443583424780358 -0.4883953196545133 -0.13144341989345676 -0.33229387681868117 -0.04970194586502896 -0.08203145169733128 -0.039261097903885545 -0.40700207967865376 -0.13303027624524302 -0.3903497814392032 0.22684646326590657 -0.2719794359142996 0.4610974285494336 0.20929671752450651 0.45648755484296244 0.41935473944570567 0.31471653852511394 -0.05694633643065383 0.10235716597041089 0.42753678844177523 0.4365506185991791 -0.29296382907617147 0.44186023601600133 -0.04309434489054775 0.05082489743862262 0.34317314410215505 -0.2888246016533187 -0.17079877665143484 0.290305770334651 -0.13160419332296847 -0.47133682321872694 -0.47421644169732324 0.41385667384083713 0.19975289517126926 -0.014392897501829482 -0.039295261618922495 0.43815089975963567 -0.1979564085667089 -0.3681276947813161 0.2164909851725752 -0.33238372007560635 -0.3204019567308672 0.24649469800071153 -0.0702346063534448 0.5023615691797315 -0.3437448015395242 -0.4250118935637556 -0.2630274842782076 0.07943242255659404 -0.2051493577528617 -0.43730169838855104 -0.45270686294687235 -0.1810386119660814 -0.4164316580107419 -0.20625034499623518 -0.23164466794458072 0.32519199925336484 0.203321298294587 -0.21081569229406316 -0.12810882628524012 0.25027957915135546 -0.2679369263749235 -0.48611458834743415 0.3397638372248978 0.2481994854203941 0.15433586923528866 0.4212535417580585 0.4824205846404891 0.6349630615836831 -0.3131337053727376 0.37305295234551544 0.4162625683021185 -0.13726668244079973 -0.26076418760617054 -0.25371269424733756 0.38855598102280586 -0.40057185168309 -0.2606860130460643 -0.44997251504990665 -0.1589249187913433 -0.18347039753760896 0.15061236608911 0.47956272710431136 -0.4967706140551136 -0.07591312074557444 -0.12914651526065313 0.14357062962748857 -0.0245787974200206 -0.3768350190079001 0.3652756959283356 0.048309710375306056 0.34645868632779125 0.15649987475229582 -0.25134430338243735 0.14623414950049662 0.6828945100515736 -0.11352599413801692 0.1816143014934016 -0.2082472110152142 0.13220876601231654 0.18634354864722896 -0.2784706289735406 -0.45016252321159406 0.17730874120974993 -0.2489413784713428 -0.29651371825326756 -0.29081899915324955 0.16694520720182074 -0.406065974974519 -0.12867296321941257 0.470076503728705 -0.04369300557592637 0.03243066908900438 0.42654617373673964 -0.15130689521776564 0.07488451330338662 0.04437605956064912 0.29315547589339863 -0.33645727536022363 0.4374523830589995 0.32586580062576564 0.3538962286814667 0.30447159825572623 0.05508297877210803 0.4983776909062087 0.2137969387164233 0.46443709043181525 0.49108866809288 -0.006735751812467929 0.2112944695483504 -0.4330520107257943 0.35710506573263356 0.02970779902814881 -0.06197469612645245 0.136338750359684 0.5279612098344182 -0.13936166508607062 -0.3925151118800992 0.018868826234898273 -0.26309724018502234 0.3453650339382308 0.018537165212118012 0.23246196888523915 -0.20921115077703747 0.318730851332514 0.33945669943201806 0.3073851836574906 0.23860799834525317 -0.09207745344458604 0.34110798339291193 0.3378944090150934 -0.40622018664276477 0.1777827295940528 -0.20012547760778343 0.5209370087073116 0.15290142038718543 0.06548183785864804 -0.6211791800161285 0.2764718871680382 -0.06560598769439666 -0.05155715759503427 0.14782827972407897 -0.37141419082026894 -0.21396683195374058 0.36050371984586194 0.1128291689450434 -0.4409926809544612 0.3936080393977418 -0.3073339614864975 -0.35581691225498063 -0.11969590836849874 0.11636946344383063 0.22917369855360858 -0.30940975403633186 0.3305643783598634 0.4503702489913617 -0.09924968563663067 -0.23351017123196174 0.1941477228661749 -0.00918564668909847 0.11933580151854131 0.06785548307428814 0.6563242816872575 0.2749482104510445 0.2206501917600897 0.09078689664790562 0.015832703841853642 -0.03454330076475231 0.61704618192047 0.5914517042233057 0.14575628011278127 0.45409843023376123 -0.4090346565294975 0.06142900901734218 0.3638341938458234 -0.19545720954903834 -0.1848450588445073 -0.23580330382103237 -0.11648895372810365 0.37282297744975207 -0.3044408232593941 -0.40602806291696464 -0.19183918519476634 -0.019489105454088513 -0.15181817099844325 0.21892618828328395 0.48083211068850684 0.051389657132992934 0.006644951017609423 0.439998021211983 0.5920062757596547 -0.13469801775626547 0.3697627984467972 -0.26920561049866265 0.251710418978847 0.740765712707709 -0.1671531787249479 0.3392506438321755 0.08551026324930645 0.7027041137195073 0.09325076978641267 0.47075228517800205 0.25293340919942187 0.23111030333164803 0.3670246331717019 -0.2347304307432117 -0.2974105724957165 -0.3863396725405627 -0.34388793547448654 -0.008956826764247215 -0.1906420937118818 -0.3647026192886408 0.6410447070410279 -0.04355038685073311 0.6948922615603905 0.19126609973075948 0.2829819903814502 -0.5469542246656615 0.11216113774160917 -0.22314126321061029 0.2957652608273481 -0.44058121187170624 0.4452984657832718 -0.5309551473634402 -0.014752378080873032 -0.689269899995575 -0.3803907895282782 0.02059403619070669 -0.31250678467765575 -0.08479681897056429 0.1382598749476604 -9.043859637695958e-05 0.306631719837913 -0.17293453310878726 0.02509674243223142 0.24596153439889906 -0.05483476364100939 -0.29024839187501267 0.0009801796411404568 0.46284059990444487 0.5674948675099549 0.4130303992585743 0.3679079154495647 -0.16313093893472186 0.3224584581252411 -0.040724095003676 -0.37107931767290514 0.4050000635347123 -0.07789245290215338 -0.5224917263314593 -0.04569924531434515 0.10236789606253202 -0.7908381813488343 -0.4036245473106852 -0.47953105444311483 0.17092952875495754 0.29899149410875353 -0.3635414788002736 -0.10436868467339865 -0.33116298040885495 0.128655501506435 -0.21959314051258075 -0.3568352055515873 -0.364916885668649 -0.30393669631803333 0.19030484752608687 0.377505684115507 0.3206962547831671 0.4630942678643897 -0.4789738607150602 0.4594962779959591 -0.03814278936785384 -0.28434832608699895 -0.8552442995612761 -0.1597850515669815 0.4191886892447119 0.19883796789151775 -0.3923038693535604 0.2825335128176995 -0.19475812009795568 -0.5864185372761179 -0.6132743755170917 -0.18430640985135596 -0.0027949130172748135 -0.1374713829836269 -0.07022179822147112 -0.4285152676512921 -0.49449119223983173 0.3426870091685539 -0.37280201346723774 -0.26963458996929035 -0.3280450000054357 0.011145503303233077 -0.14129970830157443 0.340467698443111 0.349313277910145 -0.38763741784079725 0.30129032612834467 0.6391972700620723 0.465960548188792 -0.331049940011901 -0.3366535657005634 -0.24416707704033352 -0.07501761379925585 0.22967549320515182 0.08483971247165574 -0.42374428784801604 -0.5824075879045049 0.21087891673682715 -0.10184667784821211 0.1348652574999735 0.17209087104649082 -0.30637324779048664 0.48375714027822636 -0.4782408623918091 0.4201452100648755 -0.08799070498333805 -0.34146079736462 -0.4524280055712565 -0.2989421781495615 0.4783325062248114 0.3778415755209362 0.1997237868569714 -0.15660287038384688 -0.4162497917095447 0.3566448111274433 0.2858092079407817 0.07429822654251712 0.15326915202403402 -0.545613043818197 -0.577283390255699 0.35329334779886334 -0.10296850024648453 -0.5846621390044153 0.12440051930286454 0.5265544480218319 0.05429673604726208 0.2862487129193064 0.0521894271518767 0.4858787350840267 -0.12415203899169192 -0.2718127839571813 0.3598879293488221 -0.3899855640960873 0.11215211432763472 0.44679531704694786 -0.1975271758788572 -0.44747965552482233 0.07405682198305444 0.4257782742174449 0.25403861247439624 0.5054760094829989 -0.111206756785861 0.2607096032825967 0.6635500558771745 0.3290534897747236 -0.32326744922108674 -0.3470742278920032 0.14245344855501713 -0.14158867274618378 0.21197250085033273 -0.3026244871196872 0.4639895989892506 0.04703610044064419 -0.27643230113875156 0.5794323762207915 -0.07276285040327853 0.3624280168670406 -0.06595261861706986 0.2924451994153142 0.2188514393908606 -0.42077166475432926 -0.23038150759417986 -0.3312392475383663 -0.2979395057484769 -0.09644593693988787 -0.1344397690511923 -0.11819363369542897 0.13781893464692446 0.07506614096884379 0.6684872911567526 0.7176570017188291 0.11155945085715185 -0.062010590196153285 0.10344885845445005 -0.597669675737747 0.17470879088081454 0.3679918017849878 0.2625003818317878 0.16265527111862726 0.37112262145403097 0.6129608054953211 -0.09315237544059773 -0.17950391582361694 -0.18904010304036226 -0.15159663281016297 -0.3001949381468262 -0.49057672763291427 0.1754810087364536 0.3375137230513797 -0.3524227517140447 0.33254007652298123 -0.07640704739584159 -0.32598454697506357 -0.4508599561724221 -0.02650685617326492 -0.2412481954491658 0.4040538695354554 0.27581441832096953 0.6878437596470499 0.053545738449045165 -0.5060281446433922 -0.6581174198652139 -0.053716256500669725 -0.2523795599515163 0.025392454713543552 -0.16188090860509355 -0.08710181719995849 0.46662825386057394 0.35799828719187515 0.34415285599361384 0.07668181099522 -0.18083382644087664 0.17151660964815144 0.27611605144382206 -0.17774275940290865 -0.3063931414246383 0.39246158395117403 -0.2978291762613612 -0.46933420301781803 0.2369241101393016 -0.4150413961421181 -0.4588360133033974 -0.24149146619722595 -0.02513409748063038 0.5683754508402411 0.5233650654834244 -0.05507662463538385 0.16269897858273094 -0.5145605703401003 -0.1631366809597968 -0.25522339457702825 -0.5297359058995144 0.6714939777494496 0.4333638670499207 -0.04762418372631891 -0.10734742698981314 -0.3950647326700321 0.26296380241381706 0.020842374451626088 0.3326271474847963 0.2602430095710707 0.10819242374047248 0.38335717363348387 0.4366469297329403 0.35994866861728203 0.11391628990899916 0.037182297205706094 0.27965478957815515 0.4325876935115762 -0.20602526441795438 0.25880401754349885 -0.023358807078758977 -0.1502854294402795 -0.3382831042834418 0.2079532409176989 0.028336855578334336 0.008833201083628808 -0.24766627362904678 -0.5526383881730987 0.008807203476077836 -0.2644488283471194 0.5079634761128028 0.29181670336651316 0.6124956279291519 -0.45771051719513134 -0.147720494308693 -0.14635241603034804 0.5058059682039789 -0.2333007477163581 -0.3092255292963651 0.021674657400294062 -0.12499797942403801 -0.14131774253830576 -0.21397467769896528 -0.39749218239976625 -0.4647676295937807 0.07981118851543552 -0.007843788446652473 0.1330691304910641 0.15275666235470275 0.4338313869982307 0.03728155128085701 0.4474125904968597 0.10659761217769399 0.5106995263267164 -0.4298049009810175 0.04206988349917434 -0.38790712437343083 -0.2814199252688942 -0.11721639278016605 0.7510920048962965 0.2737885393951355 0.4324062441079227 0.03134404612862505 -0.2574996912547401 0.28877218642341057 -0.06799158896501113 -0.16123299828349633 -0.42533936060881694 0.43258776593800563 0.08643789841454519 -0.4219961165712889 -0.46513702434067206 0.37333483878614615 -0.3374584792864501 -0.24045145695075823 -0.39601521292915104 0.3681565455772609 0.08625688040551617 -0.10078502085809185 0.1353108768874278 -0.549419097094813 0.2964616878710134 0.21209107791046913 0.3027216058911558 0.0176272546681171 -0.15107372208410086 0.07799874149868155 0.05476249863667128 0.414609823958871 0.011357840029461637 0.17373329595022152 0.3471658478301374 -0.1264563186999462 0.2533400804616971 -0.1803371620887956 0.13772842036033267 -0.01688324530683427 0.06552381973289345 -0.15308125696523667 0.12939289965453304 -0.277487506764979 -0.34398330132756333 -0.40821255515514804 -0.18847453869132588 0.5624441897095588 0.31632654592202375 0.1480937951950622 -0.09346121480465308 0.3746415021286253 -0.3582631454612 0.3933495094655618 0.0609219637258526 -0.3431923425598465 0.26304035034546125 -0.3866365363805969 0.5359272579174815 -0.054154375784741915 0.244277976154756 0.3105077896353448 0.36104974464193185 0.2723642963345327 -0.11813308638081556 0.10561221992617005 0.08575468499792926 -0.03528884977388258 -0.12621556869858763 -0.3652760107283569 0.10283035411001862 -0.4363976623688993 0.4386956663147858 0.20672755195464532 0.352390658677765 0.14471248701759787 0.1105525600380871 -0.12357895215853003 0.5077142999981672 0.4216867067495493 -0.18996629474560411 -0.11706097457875367 0.28859506309193883 -0.12845747808927135 0.04392530223994889 0.08697684976736497 0.006453291190332769 -0.4566626603572023 0.3768295233840384 -0.11980177639669644 -0.45610955112851176 -0.305618449440047 -0.06774891087051806 -0.40745569618316807 -0.457435681336555 -0.18126499359965142 0.49894621767834535 0.31999202103016056 -0.15479832117867476 0.3542343604731699 -0.1889081580584335 0.12001713504735058 -0.29222155485796375 0.5257937300692189 0.13541703105696914 0.09835686546573959 -0.034919162397413786 -0.23792642289617227 -0.19584812412159294 0.6156382862108145 -0.021786558853110486 -0.5371179393192846 -0.49869729729518913 -0.05974098512532771 -0.4264780729944417 0.2947363979003236 0.05238220826612289 0.33778964772127773 0.07973094635618551 -0.29620516657191104 0.30000721906747624 -0.19172609085689457 0.4130377787684032 -0.25509781435513457 0.1168128622032304 0.07789917051559436 -0.0438802221742608 0.22338824733962448 0.029834554893545605 0.0838211958276815 -0.038853379698203655 0.12240066121639785 -0.05999840800615465 0.10828604189154234 -0.06151630183978535 0.13178347671539692 0.8116111032246204 0.6357073930234549 -0.23561773178605241 0.5617352320351048 0.531862276678404 -0.2988471795197112 -0.04376634057954583 -0.1434486974652867 0.4864093405059821 -0.10630262496188186 -0.11329626679139193 0.10829631174662721 -0.4184323594060156 -0.3106809688531578 0.22947163313899377 -0.1531752608511937 0.1384468214309218 0.04528867680455828 0.2862470927508778 0.2679375975155789 0.4032432847556711 0.29629691972056865 0.08535321401929025 -0.2349820219201815 -0.006456883020238071 -0.5288916365251464 0.1414412604357435 0.05178077555449935 -0.22251358637835025 -0.13183699755749367 0.18109833350180574 0.080820312866197 0.15858424715556765 0.372540597413563 0.04168815269280342 -0.011681014102994484 0.25389274119380617 -0.4410049916725291 -0.31933652021663345 0.04047606204472538 -0.3717360643743617 0.4239844687143568 -0.13080998749713768 0.16015238558936784 -0.4543599887745544 -0.3019859178825821 0.3934653905717256 0.08244266489831187 -0.3111310482417875 -0.013808514318859766 -0.21242618828267973 -0.0012423022310436458 0.4564992190667935 -0.1431463653963829 -0.4439548042056347 -0.1317738730794296 0.2954728682424324 0.026967412919238466 0.21011942886021484 0.5153084761885025 0.11406704837831574 0.4337669355922564 0.30864826246511673 -0.05132887594272816 -0.38835558898797523 0.147878815856736 -0.3885604695087287 0.24242379889746202 0.44024824888372716 0.06724337215856258 -0.4679679598169778 -0.22934731607519943 0.30284856736157706 -0.06972000642165321 0.25297048746891615 -0.11238686820512922 -0.263686687555716 -0.3005869693326785 -0.15537075971638037 -0.36438056522605866 0.30381019694263867 -0.4568511229264257 -0.0034073891231657383 0.3004926004859978 -0.075113938557819 0.4592950710397966 0.31743408920338523 0.41708998064948083 0.39451604029933907 0.5170607384178105 -0.4111751172227255 0.31085939578154953 0.32068842341587933 0.17268935266655527 0.2360756837499357 0.18332245160192873 -0.25841047668516415 -0.20034027533021304 -0.02566150363622144 0.4136475954918243 
-0.34904888158462855 0.030988304805816158 0.2609013153525368 0.025185693385401553 -0.28522358456802166 0.1345691489041565 -0.480338605636899 -0.2567285051640896 0.22638575560789787 0.4704964544297624 -0.29845269140698794 -0.2560668531104917 -0.21977625684866542 0.33107586250169774 -0.014434380068323982 0.30402575770702644 -0.4739115907696043 0.13793193260686265 0.40588149662858153 0.4242895836316729 -0.425371435223898 -0.3504430145340982 -0.15744131169623143 0.07082043462552723 0.41093943309425174 0.4745318854679188 0.25419474287309674 -0.2943583298119806 -0.1470209628802137 -0.29630815437209035 0.1892724288762988 0.29111141440218147 0.03878961067539621 0.05981397505194308 0.07491189235679063 -0.07145451144968817 -0.15753630203092672 0.008516073961941886 -0.10396431435340006 -0.469515912531548 0.3988554398747295 -0.20462772910781346 0.4800597655362967 0.15756734747546186 0.08863959264109955 -0.37081878635198784 -0.3765673764848635 -0.00467195027496059 0.25938229331089757 -0.3795673230162331 -0.4741782139458446 0.20144653400804624 0.4807700260080968 -0.0569160530386269 0.07979203295631776 0.1019573421095833 0.08662241377400981 0.010844457877200453 0.4035805337554762 0.441741263224246 0.09275433379247444 -0.0016886557366466715 -0.2499862131643399 0.47434112339054835 0.052331795622440724 0.28952620323923056 0.3792850207520226 -0.38329210462585894 -0.31991047263275796 0.44956095187814854 -0.17180854570703286 0.2736376268339672 -0.32427019213872066 -0.29838433197186026 -0.06219053153279688 0.00909643377189874 0.43588149741063253 -0.4315318175866062 0.06633107872329158 -0.18572207630006032 -0.02898123562691146 -0.3626627641305794 -0.3057308850746705 -0.4721491556395008 -0.30689092781437943 0.3598452597752593 -0.047234229218546364 0.1479303019766417 -0.397227526804107 -0.4568289260338476 0.3043529792281683 0.056053044034049426 0.44253658317699573 0.2509383163390887 0.4130133048116453 0.4754724922049028 -0.2509725839102175 0.6470033209176262 0.6948899310152429 0.030995274012954637 0.0022996574356841 -0.527147619453603 0.3472402546543511 0.19013182633119252 0.3457274319036967 -0.39488563935537896 -0.44954763528830277 -0.30068987994496255 0.43951467989194315 -0.023943237018743235 -0.23580328669684836 0.4925892750090407 -0.199759578940497 0.4784049981528916 -0.21177000465106477 0.11523322234062294 0.4792425783764141 -0.14879533974113407 0.079000088884958 0.5392048026925826 0.28420458629541845 0.26094860998749725 0.48298747638183054 0.47120555204264036 0.3205449968787777 0.02367451189571766 0.009542884057042008 0.07031422288208733 0.17599760976041304 -0.5970238939555008 -0.16582692631188165 0.6220775869641333 -0.07498101194708358 -0.3592251828122491 -0.482690876815295 0.4106405618735549 0.18348975381119995 0.4067646686000037 -0.3472199515179637 0.2717080622092942 -0.261470571667491 0.46599385396464366 0.2303477718950966 0.4387299403924444 -0.2809700791137194 -0.09557075443007224 -0.34696913750759856 -0.10529962116163118 0.5535098078441298 0.7495072543579665 0.2022728010213539 -0.46164524046975286 -0.30141198824684573 0.051464272269815974 0.5088235050774194 0.18823305746339378 0.3394127406028227 -0.03312967782405528 -0.5134708913812535 0.1808464445537988 0.07599903257543601 0.3167952955746997 -0.383847232641266 -0.5770085782383573 0.12566803062830867 0.4693616185154016 -0.39752927804293126 -0.3217259495306356 -0.03921520633575826 0.3759353444993755 0.31018111025887707 -0.026394946561405737 -0.3246754707538935 -0.10888280173127454 -0.11244564925472414 -0.4105728851264244 -0.047760416900463114 -0.38966849259783504 -0.2206607526830747 0.7754182363483341 -0.02747082556868253 0.2032366490768174 0.02300155154512123 0.26816527578324684 0.4917673426003828 0.6813819796684547 -0.09339370109431286 0.48635486073116896 -0.11356686546588539 0.15275207363500595 -0.48155742363578785 -0.752822804352422 0.05161992983487176 -0.12324396592218398 0.3503768745282032 0.2655183893580919 -0.15373665995074703 -0.35519871178914875 -0.39374623479589554 -0.19192167313802683 0.19519629152424364 0.44635996435160913 0.10123051951049161 0.36364672346489146 -0.02931417709630916 0.29845140471410747 0.27282801505815896 0.30588216653136563 -0.15418278430923207 0.39136191158133016 0.1053146280193564 -0.05816318140252035 0.18929263800608118 0.6601431736108546 -0.2050604648978303 -0.13586581119867774 -0.10689613982326035 -0.48126413337917984 -0.236196559116658 -0.3694176510219521 -0.49805824987121206 -0.11650230015600264 -0.20981547611745652 0.04662744504987215 0.3752906004920895 0.399053900559107 -0.4467315848754908 -0.4798912832709142 -0.22246027877203345 -0.04307324505886155 0.1348413875928208 -0.15050813661872195 0.21110811387264036 0.5299422605219853 0.03935968177448137 0.2332140378056692 0.1298518734506261 0.42701500069177867 -0.312316570191426 0.15661145086027117 -0.3700986282411801 -0.3452463812758979 0.08492731618587607 0.32113957147168876 0.022651147705251888 -0.4373587015982832 0.5162462242961608 -0.8369180780773631 -0.5960799344521243 0.18413322909606145 -0.35145596644449434 0.062197139359673304 0.4212431772007608 -0.4098199819442072 0.22498335803610298 0.29813932565139484 -0.42323279172144096 0.34358539740405186 0.4898130053167617 -0.12159537057631047 -0.4457078655904727 -0.04586604561279687 0.2740443126261299 -0.13242069100649342 0.11490349189416552 -0.005048540361659562 -0.5301693881868981 -0.17721961586373877 -0.36386968459970415 0.2628901209584136 -0.036634467844138464 0.34716149834162596 -0.41879819387415546 -0.11935839447773958 -0.4776844514764489 -0.13841915371385216 0.029782347019887936 -0.24266351258686167 -0.038161066773241686 0.3750653592073925 0.010384718374857374 -0.04328980778222453 -0.15455562129717915 -0.14844648940479888 -0.12597399357103164 -0.09681512782008597 -0.20645203051035738 0.05087845943522195 -0.4076621829281566 0.33162279936935835 -0.3137109417791065 0.3418853787937181 -0.41017228255249744 -0.44447233692174914 -0.8169355173417476 -0.18774354809487634 -0.6653217146589527 -0.4000690269010753 -0.013741261106799178 0.38706040059826685 -0.10247990142657123 0.29252377804862284 -0.3086114129067607 -0.49315185307783016 0.3545033817015104 -0.003377361989048734 -0.12503977867526678 0.38276251697739694 -0.1569187220802507 0.29077813140021846 0.3134431631270638 0.5181677214597914 0.5165441998123974 -0.026300469355913608 -0.23201167498506794 -0.05509842329230191 -0.0841945751048318 -0.42044730431601907 -0.08919899978536733 -0.6946406879028802 -0.5834011542886514 -0.34217209710909074 -0.7108190228416371 -0.23598515039827073 -0.44679960764608195 0.4668724039083913 -0.23577818885716284 -0.2718577131471423 -0.4333010952593109 0.04957560646256155 0.02445008212894331 0.30023305778039266 0.32568898475323454 0.24958327300901723 0.12577517070553945 -0.47490668962637794 -0.17256944835114374 -0.009731008868081203 0.3495902390349088 -0.36579160136558714 0.36356530826599004 -0.5883451306028816 0.10434965969370133 0.3999271348668448 -0.3867824879063963 -0.3341287922878124 -0.5174309053483752 -0.17424520530229723 -0.6513692213787264 -1.19958352404938 -0.7105164015050639 -0.6122782619217264 -0.5764637975137902 -0.22965629166036258 -0.29320677521883787 -0.2587850714773633 -0.02722946005075725 -0.17188671670849243 0.6478277686482042 0.06926008299348872 0.03426620927098458 -0.167390350882246 -0.18931913772943143 0.38243936111574184 -0.027469011586223502 -0.10556162008861525 0.12117650637617217 0.3198810320656132 -0.21165133104587583 -0.6691317659094626 -0.5611910074277568 0.290737223382898 -0.4325039775753252 -0.5884025047557923 -0.5944765361965284 -0.03369697994975509 -0.36561838674552477 -0.6775225010157265 -0.4409919020490071 -0.10616841846851681 -0.4973123362782711 -0.313981385407219 -0.5221213504633182 0.24138414627871677 0.20457303365747387 -0.36597714017440097 0.15817872483398238 0.4065062630318087 -0.2358044958859436 0.4289158241947219 0.47177840902806345 0.036372348266100585 -0.4842107771436862 0.2673994615814267 0.054946839470791264 -0.258579926697769 0.005147350716488585 -0.30479164754441734 -0.03800841559476978 -0.5343586148868814 0.15699803067635426 -0.13771226508356244 0.03512185137969655 0.15680441468298079 -0.5286513061080474 -0.458214029257253 0.41331557455948975 -0.706494703178978 -0.6406169859414431 -0.33902560893197115 -0.29643097113825556 -0.06570507348200189 0.5518426594007007 0.4487149078759048 0.04909803744717199 0.3761459381474037 -0.30252232772979104 -0.08509784214889096 -0.17542213996289227 -0.16277444001749553 0.4845918823419644 0.027196523637190828 -0.07434624035623372 0.0012464512494749583 -0.31701911592259063 0.060179231876637096 -0.22043578853959012 0.008406613958132124 0.01381794189117992 0.4155696057134739 0.7671826898915246 0.28231635717753406 -0.583374282445115 -0.8286500615729337 0.12006657161926075 -0.47595864096524393 -0.25799840045411065 -0.2483744224187873 -0.0325131213470515 -0.1955421069510628 0.5404106041517311 -0.08862584420914262 0.09832483822725697 0.8364908477876528 0.2255494912855532 -0.16428327692627656 0.40435194312452977 0.23239693044625534 -0.016797916867661633 -0.010656762935819741 -0.3294251194275525 -0.4293209839811135 -0.5205688798204234 -0.042085986967543176 -0.20858285856031852 -0.1003617137337305 0.01358235003963241 0.5053367845070313 0.4527681116554962 -0.03800219899136754 0.29181570707784527 -0.36844590927511484 -0.12042069627398588 -0.09311664771311845 -0.4329140742863005 -0.8395307443524923 -0.5375503996081881 0.3718170061038951 -0.1378712125591919 -0.22115620433380878 -0.0927030755530751 0.5006014927253993 0.23681560139237418 0.37331491701335356 -0.15381900982556687 -0.4682196587831722 -0.4683025332048306 0.39732793977489367 -0.007472192921008092 0.008092497277139066 -0.5517676432580524 -0.7779334308516486 0.43969362551960334 0.7935834400834088 0.0006476683268057561 0.4757427751549513 0.09791256142957198 0.022506123436035686 -0.1138541810169153 -0.00528476103217872 -0.596063734408206 -0.7870536952059467 -1.092807135417336 -0.2564980622786679 -0.27286236956145554 -0.4696104444540252 0.054477530037591114 -0.14987289900228498 -0.07403348726561598 0.1713700028081311 -0.045747080245025454 0.5215465274104893 -0.14948722204248244 -0.16179290156151904 0.26268256555961766 -0.47546291591764656 0.3385456201275767 0.14295459323497373 0.3462804164326313 -0.7794853383460916 0.41825589284926346 0.7847879161137747 0.7174608242232892 0.765960574176258 0.38062840372935897 0.42317989630248415 -0.31372946466515367 0.4974817075866611 0.1475777463150559 0.0013537991915884707 0.2771384002699169 0.0392821447341324 -0.3580149911187439 -0.02254482616088066 0.29416260041127396 -0.2323343745961015 0.3760539859940234 0.4508842284212214 0.07875973190872351 -0.14122382762842006 -0.14337560904549962 -0.21891210740872946 -0.04216340681114128 -0.05098651275124533 0.04184128900469408 0.024719308892985348 0.4885892376001153 0.10573745841663733 -0.21974067695368793 0.04827156922106787 0.6917074720291556 -0.2530603418999797 0.6964861178997125 0.46908875853238907 0.5516116984382525 0.3882139539724717 0.44880364440865533 -0.3008633568827774 0.8344815706885298 -0.16659477605649947 0.29331553961172047 -0.23645811215236795 -0.3845827851818311 0.042164416839944784 -0.09079592448601435 -0.22137249705968745 0.07843940642398352 0.3548022363342554 -0.05401063964137736 -0.05459208744606847 -0.08736693062947021 -0.23570115118673096 0.18239114763548703 -0.42668384018390804 0.16078798022116664 0.22347982796864785 0.1844527893449628 0.22448993955493562 -0.061285174403449647 0.32001001188684036 0.06850885705502563 0.5866690481551131 0.6547435587878003 -0.25630668079445146 0.3094917298324431 0.25230015423696 0.13429375238775482 0.25366826623580274 0.5354643615160933 -0.24154624383520543 0.04557350734063591 -0.3180598094462712 -0.25460541095498995 0.27558767606968976 0.5709789267785379 -0.23407811041783666 -0.1683061980249566 -0.18335849815868932 -0.4010880449696531 -0.1129259338271077 0.3266492645091278 0.43216551346027543 0.19462279737370955 0.11146586635733739 0.5061121933157653 0.43599967948780866 0.07623263842920451 0.3335348639490643 -0.22924365947584732 0.5036400526676822 -0.21779771400124392 -0.42876842310187907 0.33430404891902193 -0.339275456271428 0.31293052974252344 -0.16181557570262653 0.4397234558846775 0.42244986355284303 0.37549281206478696 0.3850345052587713 0.3455412402202441 0.17470569387928264 0.5360479969200528 0.4526311011027442 -0.0030001107955564764 0.34168350617762033 0.1249684229988347 -0.1514213797433681 0.38338019489241515 0.46231460716221906 -0.3029170528983549 0.4503400829795978 0.3670202644735895 0.15067491872967442 -0.32695650663069115 0.19289293081802844 0.17444625177615897 -0.24480695259144886 0.6795777245021452 -0.34363358675702976 0.13440903545934796 -0.46190086447551243 -0.556727303918058 -0.5718688889678426 0.023143195468111857 -0.2387013566745588 -0.2931670243746487 -0.36406706639058395 0.21110017583736207 0.19031805255185139 0.02757364151267105 0.2417823199330796 0.16676215498791014 -0.21164856468852655 0.20716230014318515 0.1816323315611995 0.2408335215149141 -0.4755283588915131 -0.39080007383691506 -0.030805555483490146 0.25620905687277445 0.3967129908345199 0.17715262868521542 0.0027101037608886474 0.576513998498655 0.37515352825532045 -0.1796887463186957 0.22575868479758104 -0.3989181117811795 -0.3734333516428037 -0.9218409135837377 -0.6175650612409049 0.3034031967228184 -0.3573161365849376 0.18790391223750974 -0.37215391474086706 -0.29714719304126674 0.38975939699138334 -0.01774484747674565 0.10328387689526175 0.027495324377009966 -0.29964554886086725 0.3679505433007877 0.13715284060503752 0.45501724537512944 0.05341247757010048 0.07001818110683247 -0.3833560399593081 0.23089294759008286 -0.09261714748299621 -0.4291136252009261 -0.050105683038444225 -0.41091269992757407 -0.2193500398367882 -0.1160576946518542 0.43172639259836654 -0.07009856490805633 -0.22877265657809998 0.015346072300223572 0.15487195890242395 0.05670987923377616 0.29433062673449356 -0.4966540725396002 -0.23893209807208313 -0.29500666525745484 0.026960562538428164 0.39584258832362934 -0.1856919988426909 0.08697584032904271 -0.19000054849175263 0.4200247860403211 0.43516515560547486 0.19221662426280528 0.17292156070858256 0.4322241377294501 -0.41627162159017195 0.395450236673813 -0.13562986019558462 0.196819556555465 0.1949324926366148 0.3670607893395468 0.07172620012802766 0.3946105496308859 -0.12222813521722543 -0.3752301329606777 0.34914453427563863 -0.13899449405971623 -0.5193064133761106 -0.51490318969764 0.23392258441664762 -0.16752235766905813 0.25274960627351706 0.12943125819310708 0.30734455742360517 -0.33424373213579794 -0.3580681871324175 -0.47278307228926697 -0.15374034205168974 -0.2905275964912143 -0.34349811840008393 -0.004973344739957475 0.4038195560959258 -0.136478540976816 0.16876869105364445 0.3453471586794684 0.041349823902993695 0.33645185843090847 -0.08235966235585568 0.1836190124175171 0.38843787222071574 -0.38724201340029357 -0.18494923976205632 0.37044647851107065 0.21220123727269605 -0.21937888967009597 -0.41881984521257903 0.20134369315716238 -0.05083391427369546 -0.2534442266961313 0.4829792390342118 -0.21354845518285182 0.3739799193641907 0.025596174221705237 0.28791996269125675 0.13148758940974747 -0.1736524071400758 -0.15044343027072615 -0.45064576550531055 0.20043731849625313 0.22692586005387105 0.1799587077285899 -0.453890373512046 -0.3073673942497305 -0.11164984629308128 0.31050764485915616 0.03741527493035368 -0.3146668981354215 0.1560431051780934 0.11510197198798322 0.4506735307455154 -0.006398664854728942 0.16933206469430415 0.35578989811539596 0.159141517145817 -0.06884868899333853 -0.19464381268399628 -0.4550454649000475 -0.04056784634763977 0.47246788815964547 -0.3479859627380856 0.03059395658688635 -0.36231512297325497 -0.17479064664588795 -0.41545440206756445 
